{"learner":{"attributes":{"best_iteration":"118","best_score":"0.902286074347807"},"feature_names":["items_in_cart","cart_value","completeness","meal_period","order_hour","is_weekend","restaurant","cart_has_main","cart_has_side","cart_has_drink","cart_has_dessert","user_order_count","user_avg_order_value","user_avg_items","user_weekend_ratio","user_single_item_ratio","user_is_cold_start","cand_category","cand_veg_nonveg","cand_cuisine","cand_typical_role","cand_flavor_profile","cand_popularity_rank","cand_order_frequency","cand_solo_ratio","cand_avg_price","fills_missing_slot","veg_compatible","max_lift","total_co_count","max_confidence","copurchase_pairs","city","city_lift","city_rank","is_local_favorite","cuisine_city_share","cuisine_city_rank","item_emb_0","item_emb_1","item_emb_2","item_emb_3","item_emb_4","item_emb_5","item_emb_6","item_emb_7","item_emb_8","item_emb_9","item_emb_10","item_emb_11","item_emb_12","item_emb_13","item_emb_14","item_emb_15","item_semantic_cluster","llm_context_compatibility","llm_cuisine_cat_affinity","llm_meal_completion","llm_flavor_harmony","llm_cold_start_boost","llm_cold_pop_signal","hour_sin","hour_cos","price_ratio","popularity_x_lift","completeness_gap","price_vs_user_avg","complement_fills_gap","cart_size_bucket","city_item_signal"],"feature_types":["int","float","float","int","int","int","int","int","int","int","int","int","float","float","float","float","int","int","int","int","int","int","int","int","float","float","int","int","float","int","float","int","int","float","float","int","float","float","float","float","float","float","float","float","float","float","float","float","float","float","float","float","float","float","int","float","float","float","float","float","float","float","float","float","float","float","float","int","int","float"],"gradient_booster":{"model":{"cats":{"enc":[],"feature_segments":[],"sorted_idx":[]},"gbtree_model_param":{"num_parallel_tree":"1","num_trees":"169"},"iteration_indptr":[0,1,2,3,4,5,6,7,8,9,10,11,12,13,14,15,16,17,18,19,20,21,22,23,24,25,26,27,28,29,30,31,32,33,34,35,36,37,38,39,40,41,42,43,44,45,46,47,48,49,50,51,52,53,54,55,56,57,58,59,60,61,62,63,64,65,66,67,68,69,70,71,72,73,74,75,76,77,78,79,80,81,82,83,84,85,86,87,88,89,90,91,92,93,94,95,96,97,98,99,100,101,102,103,104,105,106,107,108,109,110,111,112,113,114,115,116,117,118,119,120,121,122,123,124,125,126,127,128,129,130,131,132,133,134,135,136,137,138,139,140,141,142,143,144,145,146,147,148,149,150,151,152,153,154,155,156,157,158,159,160,161,162,163,164,165,166,167,168,169],"tree_info":[0,0,0,0,0,0,0,0,0,0,0,0,0,0,0,0,0,0,0,0,0,0,0,0,0,0,0,0,0,0,0,0,0,0,0,0,0,0,0,0,0,0,0,0,0,0,0,0,0,0,0,0,0,0,0,0,0,0,0,0,0,0,0,0,0,0,0,0,0,0,0,0,0,0,0,0,0,0,0,0,0,0,0,0,0,0,0,0,0,0,0,0,0,0,0,0,0,0,0,0,0,0,0,0,0,0,0,0,0,0,0,0,0,0,0,0,0,0,0,0,0,0,0,0,0,0,0,0,0,0,0,0,0,0,0,0,0,0,0,0,0,0,0,0,0,0,0,0,0,0,0,0,0,0,0,0,0,0,0,0,0,0,0,0,0,0,0,0,0],"trees":[{"base_weights":[-4.415199E-2,-6.282112E-1,1.1023393E0,-8.560677E-1,7.058707E-1,1.6611724E-1,1.3919076E0,-1.4454304E0,-5.956649E-1,-3.2730925E-1,1.8570791E0,-1.3902599E0,1.4156005E0,9.013252E-1,1.808742E0,-1.4500204E0,-5.1580153E-2,-9.1489986E-2,-1.0813448E0,5.168586E-1,-6.09403E-1,2.497574E0,-2.3140454E-1,-1.4187175E0,-4.9539678E-2,-1.0585256E0,2.3477771E0,1.0705853E0,7.3131636E-2,1.8879871E0,-7.5421053E-1,-1.7827444E-1,-1.2237455E0,1.2812497E-1,-7.0860386E-1,-9.6272904E-1,-1.2880481E0,4.8423026E-2,1.9263427E0,2.95027E-1,-6.728112E-1,2.6319394E0,-4.565357E-1,-8.5079753E-1,1.3989276E0,-9.1049045E-2,-1.4362848E0,-1.3877118E0,3.1811675E-1,2.5730784E0,2.7306423E-1,1.233002E0,1.6917361E-2,4.4165778E-1,-9.6504813E-1,2.0248609E0,6.442455E-1,7.740261E-2,-1.3129958E0,-7.1876265E-2,-1.7826183E-1,6.9825E-2,2.8411303E0,1.266846E0,-8.293078E-1,-5.949509E-1,-1.0052503E0,-1.3021712E0,-1.814103E-2,-5.381547E-1,1.7984607E0,2.7479568E0,6.834149E-2,-1.2139269E0,-3.863684E-1,1.164074E0,2.8904853E0,-1.4959055E-1,3.5560723E-2,-2.7864903E-1,-1.1640104E0,8.930459E-1,1.8707772E0,-1.449816E0,-1.2194944E-1,-6.460734E-2,-1.7827223E-1,2.6858103E0,3.2268614E-1,-7.0666605E-1,3.6100614E-1,8.8650835E-1,2.0087752E0,1.0994827E0,-3.3590546E-1,-1.8820685E-1,1.1939002E0,3.163119E-2,-1.1465569E0,1.692483E0,2.652897E0,-4.456574E-1,1.0961236E0,-1.1642529E0,-1.7825873E-1,3.2185373E-1,-2.8803912E-1,3.0187626E0,2.887226E-1,1.6379399E0,4.897628E-2,-1.1426324E0,-6.805336E-1,-3.127785E-1,-9.157337E-1,-1.0196327E0,1.0571826E-1,-1.1967818E0,-1.4201614E0,-1.4197335E0,-1.9231546E-1,2.6652877E0,6.796403E-2,2.6739752E-1,3.930939E-1,-1.4045428E0,1.4582333E-1,-8.607667E-1,-1.3430192E-1,-1.7635852E-2,1.4349983E0,1.8885766E0,3.0501244E0,-8.8859874E-1,1.1975194E-1,-1.2899562E0,-8.57092E-2,5.036748E-2,1.7369047E-1,1.580223E-1,2.8847018E-1,-1.5719086E-1,-1.7827383E-1,2.7618563E0,1.2617874E0,7.9910375E-2,2.846966E-4,-1.2782118E0,4.7511034E-2,1.0324711E0,-1.7826757E-1,2.1176221E0,1.119015E0,3.722953E-2,1.5968922E0,-6.459759E-1,2.5708315E-1,-9.8359424E-1,3.2242772E-1,3.098153E-1,1.6643533E0,-7.3201877E-1,-1.3717946E0,1.8477948E0,-1.3183851E0,2.7602339E0,2.3110218E0,-1.7824663E-1,-1.5977286E-1,1.3049963E0,-6.701464E-2,-1.6484414E-1,-1.197178E-1,1.1081629E0,1.8549469E-1,3.264318E-2,-6.7613626E-1,3.4750035E-1,3.1116962E0,2.5251213E-1,1.03105545E-1,-1.2407982E0,-7.7906903E-3,2.0069192E-1,-7.362361E-1,-5.8664227E-1,1.2184006E-1,-6.456603E-1,-1.2955797E0,-1.0313262E0,-1.9893682E-1,-1.170948E0,-1.3834966E0,-1.4502254E0,-1.3364779E0,-1.7825639E-1,-1.6608343E-1,-7.4508405E-1,3.1649184E-1,3.4885177E-1,3.050033E-1,-1.4458294E0,-1.119171E-1,2.1021663E-1,-1.7824379E-1,-1.3078915E0,-6.6173166E-1,-8.2724315E-1,2.6082182E-1,2.2495363E0,1.0262016E0,6.788189E-1,3.0122738E0,3.0985165E0,2.597745E-1,-1.6665392E-1,-4.045556E-2,-1.263622E-1,-1.3725891E0,1.6630291E0,2.840607E0,2.8009206E-1,3.217817E-2,-1.3200366E-1,-1.782446E-1,6.456263E-1,1.2895942E0,1.208995E0,2.1819346E0,6.861973E-1,2.5900564E-1,9.578482E-2,2.4875893E-1,-2.9894477E-1,-1.0679834E0,1.3683602E-1,-7.253687E-2,-7.8835565E-1,-1.7824839E-1,-1.4320913E-1,6.785025E-1,8.4101677E-1,-6.761646E-2,5.683949E-2,1.888594E0,-3.3548735E-2,-1.5231133E-1,-1.7826316E-1,-1.4315891E-1,1.8940145E0,-1.3577712E-1,-1.7826706E-1,-8.341424E-2,2.4914842E0,2.9218597E0,2.4974768E0,5.036355E-2,7.576744E-2,-7.242844E-1,9.871464E-1,1.8650422E0,1.8302381E-1,7.728993E-2,-3.6713856E-3,7.641514E-2,1.9524448E-2,-7.167965E-2,-6.3866265E-2,-1.3093874E-1,3.7508267E-1,3.876064E-1,-1.2044763E-1,-1.6691893E-1,-7.00294E-2,-1.12482004E-1,-3.5956435E-2,-1.0942721E-1,-8.892286E-3,-9.989207E-2,-1.7825466E-1,-1.4132325E-1,-1.2153954E-1,-1.4872134E-1,4.6660256E-2,-1.0471776E-1,-1.5795314E-1,-1.3728622E-1,-1.7826842E-1,-1.2013999E-1,-1.7827354E-1,-1.7108451E-1,-1.7826414E-1,-1.5890585E-1,-1.4528883E-1,-3.0620541E-2,-1.1208304E-3,1.4218424E-1,-1.782721E-1,-1.6390918E-1,-1.7826192E-1,-1.1109265E-1,-5.8507238E-2,-1.3721268E-1,-1.3703565E-1,-6.302796E-2,6.062136E-2,-9.403575E-2,3.3071393E-1,2.2238944E-1,1.11188285E-1,1.5423597E-1,3.6040068E-1,-1.664828E-1,3.930978E-1,3.3451825E-1,2.914862E-1,3.8348377E-1,-1.7826399E-1,-1.36291E-1,1.3383196E-1,2.7877337E-1,2.6687297E-1,3.576722E-1,9.858038E-2,8.592263E-3,-6.730434E-2,1.6525632E-1,2.072764E-1,1.00225076E-1,2.9809603E-1,2.451131E-1,-2.4108037E-2,1.5794243E-1,-1.2740183E-1,7.536803E-3,-9.324011E-2,-1.5585624E-1,-8.377643E-2,3.7807915E-2,-5.37114E-2,-1.6657498E-1,1.9898565E-1,4.143902E-2,4.8328694E-2,1.5787153E-1,2.7837932E-1,1.8333055E-1,2.5179133E-1,1.6948587E-1,3.2224065E-1,2.3879491E-1,3.7344614E-1,3.4218445E-1,3.251182E-1,2.5234783E-1,-3.220483E-2,-1.4488384E-1,8.322698E-2,2.2598834E-1,2.5470033E-1,1.5003142E-1],"categories":[],"categories_nodes":[],"categories_segments":[],"categories_sizes":[],"default_left":[0,0,0,0,0,0,0,0,0,0,0,0,0,0,0,0,0,0,0,0,0,0,0,0,0,0,0,0,0,0,0,0,0,0,0,0,0,0,0,0,0,0,0,0,0,0,0,0,0,0,0,0,0,0,0,0,0,0,0,0,0,0,0,0,0,0,0,0,0,0,0,0,0,0,0,0,0,0,0,0,0,0,0,0,0,0,0,0,0,0,0,0,0,0,0,0,0,0,0,0,0,0,0,0,0,0,0,0,0,0,0,0,0,0,0,0,0,0,0,0,0,0,0,0,0,0,0,0,0,0,0,0,0,0,0,0,0,0,0,0,0,0,0,0,0,0,0,0,0,0,0,0,0,0,0,0,0,0,0,0,0,0,0,0,0,0,0,0,0,0,0,0,0,0,0,0,0,0,0,0,0,0,0,0,0,0,0,0,0,0,0,0,0,0,0,0,0,0,0,0,0,0,0,0,0,0,0,0,0,0,0,0,0,0,0,0,0,0,0,0,0,0,0,0,0,0,0,0,0,0,0,0,0,0,0,0,0,0,0,0,0,0,0,0,0,0,0,0,0,0,0,0,0,0,0,0,0,0,0,0,0,0,0,0,0,0,0,0,0,0,0,0,0,0,0,0,0,0,0,0,0,0,0,0,0,0,0,0,0,0,0,0,0,0,0,0,0,0,0,0,0,0,0,0,0,0,0,0,0,0,0,0,0,0,0,0,0,0,0,0,0,0,0,0,0,0,0,0,0,0,0,0,0,0,0,0,0,0,0,0,0,0,0,0,0,0,0,0,0,0,0,0,0,0,0,0,0,0,0,0,0],"id":0,"left_children":[1,3,5,7,9,11,13,15,17,19,21,23,25,27,29,31,-1,33,35,37,39,41,43,45,-1,47,49,51,53,55,57,-1,59,61,63,65,67,69,71,-1,73,75,77,79,81,-1,83,85,-1,87,89,91,93,95,97,99,101,-1,103,-1,-1,105,107,109,111,113,115,117,-1,119,121,123,-1,125,127,129,131,-1,-1,133,135,137,139,141,-1,-1,-1,143,145,147,-1,149,151,153,155,157,159,-1,161,163,165,167,169,171,-1,173,175,177,-1,179,-1,181,183,185,187,189,-1,191,193,195,197,199,-1,-1,-1,201,203,205,207,-1,209,211,213,215,-1,217,-1,-1,-1,-1,-1,-1,-1,219,221,-1,-1,223,-1,225,-1,227,229,-1,231,233,235,237,239,241,243,245,247,249,251,253,255,-1,257,259,-1,-1,-1,261,263,265,267,-1,269,-1,-1,271,-1,-1,273,275,-1,277,279,281,283,285,287,289,291,-1,-1,293,295,-1,-1,297,-1,-1,-1,299,301,303,305,307,309,311,313,315,-1,-1,-1,-1,317,319,321,-1,-1,-1,-1,323,325,327,329,331,-1,-1,-1,333,335,-1,337,339,-1,-1,341,343,-1,-1,345,-1,-1,-1,-1,347,-1,-1,-1,349,351,353,-1,-1,355,357,359,-1,-1,-1,-1,-1,-1,-1,-1,-1,-1,-1,-1,-1,-1,-1,-1,-1,-1,-1,-1,-1,-1,-1,-1,-1,-1,-1,-1,-1,-1,-1,-1,-1,-1,-1,-1,-1,-1,-1,-1,-1,-1,-1,-1,-1,-1,-1,-1,-1,-1,-1,-1,-1,-1,-1,-1,-1,-1,-1,-1,-1,-1,-1,-1,-1,-1,-1,-1,-1,-1,-1,-1,-1,-1,-1,-1,-1,-1,-1,-1,-1,-1,-1,-1,-1,-1,-1,-1,-1,-1,-1,-1,-1,-1,-1,-1,-1,-1,-1,-1],"loss_changes":[1.9705045E4,5.926255E3,2.6924756E3,2.555538E3,3.382707E3,4.5625107E3,1.551165E3,2.4E1,2.8279385E3,3.569294E2,1.7994023E3,2.9322632E1,3.0014346E3,4.884585E2,8.329238E2,3.9521484E0,0E0,7.679722E2,1.4421729E2,2.4786731E2,2.147594E2,4.0863184E2,3.188205E2,1.2060181E1,0E0,4.281755E2,4.418374E2,4.9512476E2,2.2622992E2,6.771904E2,9.521344E1,0E0,1.1154022E1,6.6102014E2,3.546388E2,5.8445557E1,3.4533447E1,2.892563E2,1.05333954E2,0E0,1.705415E2,3.7368066E2,2.551447E1,4.099875E1,2.074022E1,0E0,5.9125977E0,1.848523E1,0E0,2.1630518E2,2.4225177E2,6.738225E2,1.4759447E2,2.0677072E2,3.4387405E1,7.4804297E2,1.942374E2,0E0,1.821167E0,0E0,0E0,3.6900623E2,7.5794067E0,2.7567825E1,6.533276E1,3.5059235E1,8.996997E1,2.633496E1,0E0,6.4340454E1,7.6291565E1,1.5156738E1,0E0,9.871301E1,8.603128E1,5.225554E1,1.3388232E2,0E0,0E0,6.196551E1,8.658051E0,1.0582436E1,1.2587387E1,5.797119E-1,0E0,0E0,0E0,8.791406E1,4.284554E0,4.2362045E1,0E0,5.918445E2,7.494507E1,3.76015E1,5.358648E1,9.647096E1,8.2713776E1,0E0,1.2588898E1,1.0958481E3,4.5484375E1,3.3293518E1,9.5650116E1,1.4329224E0,0E0,2.5739734E2,2.1041591E2,1.0759277E0,0E0,2.0115494E1,0E0,4.7800903E1,1.2265088E2,7.371866E1,1.8590942E1,3.1904053E1,0E0,5.3895264E0,2.505249E0,1.2156677E-1,4.2634247E1,1.3032227E0,0E0,0E0,0E0,6.779175E0,1.174209E2,2.2210678E1,1.2863922E2,0E0,4.0667435E1,1.5641919E2,3.2549805E1,1.4306484E1,0E0,2.4897614E0,0E0,0E0,0E0,0E0,0E0,0E0,0E0,6.6680664E1,4.203866E1,0E0,0E0,1.5651169E0,0E0,1.6223596E2,0E0,4.0284668E1,3.623992E1,0E0,2.0559189E1,2.8023598E1,2.8319382E1,8.509331E0,7.674908E1,3.1599213E1,3.4950592E1,1.1098635E1,1.4504089E0,3.043462E2,9.901688E0,4.096826E1,1.0500696E2,0E0,3.952404E1,4.402054E1,0E0,0E0,0E0,6.512302E1,1.9283017E2,7.228221E1,4.6534058E1,0E0,7.3272705E-2,0E0,0E0,1.2847595E1,0E0,0E0,2.7735565E1,1.5273811E1,0E0,1.0246933E1,1.6949158E0,2.3999512E1,1.7722282E1,5.9259033E0,3.8338928E0,1.2182617E-1,1.2547913E0,0E0,0E0,1.5815746E1,2.1661505E1,0E0,0E0,2.4749756E-1,0E0,0E0,0E0,4.4912415E0,1.4578293E1,1.5502098E1,7.176433E1,7.937683E0,2.2456665E0,2.5498123E2,3.2398682E0,1.3855469E1,0E0,0E0,0E0,0E0,1.8557739E0,1.796843E1,3.6066406E1,0E0,0E0,0E0,0E0,5.92623E1,1.03998535E2,8.584648E0,2.934375E1,3.120067E1,0E0,0E0,0E0,2.799999E1,5.3824615E0,0E0,1.6810143E1,1.3095131E1,0E0,0E0,3.7534714E1,8.516085E0,0E0,0E0,1.6401001E1,0E0,0E0,0E0,0E0,1.7848926E2,0E0,0E0,0E0,2.6181152E1,9.524902E0,1.8173096E1,0E0,0E0,1.1004602E1,4.16447E1,1.2145325E1,0E0,0E0,0E0,0E0,0E0,0E0,0E0,0E0,0E0,0E0,0E0,0E0,0E0,0E0,0E0,0E0,0E0,0E0,0E0,0E0,0E0,0E0,0E0,0E0,0E0,0E0,0E0,0E0,0E0,0E0,0E0,0E0,0E0,0E0,0E0,0E0,0E0,0E0,0E0,0E0,0E0,0E0,0E0,0E0,0E0,0E0,0E0,0E0,0E0,0E0,0E0,0E0,0E0,0E0,0E0,0E0,0E0,0E0,0E0,0E0,0E0,0E0,0E0,0E0,0E0,0E0,0E0,0E0,0E0,0E0,0E0,0E0,0E0,0E0,0E0,0E0,0E0,0E0,0E0,0E0,0E0,0E0,0E0,0E0,0E0,0E0,0E0,0E0,0E0,0E0,0E0,0E0,0E0,0E0,0E0,0E0,0E0,0E0,0E0,0E0],"parents":[2147483647,0,0,1,1,2,2,3,3,4,4,5,5,6,6,7,7,8,8,9,9,10,10,11,11,12,12,13,13,14,14,15,15,17,17,18,18,19,19,20,20,21,21,22,22,23,23,25,25,26,26,27,27,28,28,29,29,30,30,32,32,33,33,34,34,35,35,36,36,37,37,38,38,40,40,41,41,42,42,43,43,44,44,46,46,47,47,49,49,50,50,51,51,52,52,53,53,54,54,55,55,56,56,58,58,61,61,62,62,63,63,64,64,65,65,66,66,67,67,69,69,70,70,71,71,73,73,74,74,75,75,76,76,79,79,80,80,81,81,82,82,83,83,87,87,88,88,89,89,91,91,92,92,93,93,94,94,95,95,96,96,98,98,99,99,100,100,101,101,102,102,103,103,105,105,106,106,107,107,109,109,111,111,112,112,113,113,114,114,115,115,117,117,118,118,119,119,120,120,121,121,125,125,126,126,127,127,128,128,130,130,131,131,132,132,133,133,135,135,143,143,144,144,147,147,149,149,151,151,152,152,154,154,155,155,156,156,157,157,158,158,159,159,160,160,161,161,162,162,163,163,164,164,165,165,166,166,168,168,169,169,173,173,174,174,175,175,176,176,178,178,181,181,184,184,185,185,187,187,188,188,189,189,190,190,191,191,192,192,193,193,194,194,197,197,198,198,201,201,205,205,206,206,207,207,208,208,209,209,210,210,211,211,212,212,213,213,218,218,219,219,220,220,225,225,226,226,227,227,228,228,229,229,233,233,234,234,236,236,237,237,240,240,241,241,244,244,249,249,253,253,254,254,255,255,258,258,259,259,260,260],"right_children":[2,4,6,8,10,12,14,16,18,20,22,24,26,28,30,32,-1,34,36,38,40,42,44,46,-1,48,50,52,54,56,58,-1,60,62,64,66,68,70,72,-1,74,76,78,80,82,-1,84,86,-1,88,90,92,94,96,98,100,102,-1,104,-1,-1,106,108,110,112,114,116,118,-1,120,122,124,-1,126,128,130,132,-1,-1,134,136,138,140,142,-1,-1,-1,144,146,148,-1,150,152,154,156,158,160,-1,162,164,166,168,170,172,-1,174,176,178,-1,180,-1,182,184,186,188,190,-1,192,194,196,198,200,-1,-1,-1,202,204,206,208,-1,210,212,214,216,-1,218,-1,-1,-1,-1,-1,-1,-1,220,222,-1,-1,224,-1,226,-1,228,230,-1,232,234,236,238,240,242,244,246,248,250,252,254,256,-1,258,260,-1,-1,-1,262,264,266,268,-1,270,-1,-1,272,-1,-1,274,276,-1,278,280,282,284,286,288,290,292,-1,-1,294,296,-1,-1,298,-1,-1,-1,300,302,304,306,308,310,312,314,316,-1,-1,-1,-1,318,320,322,-1,-1,-1,-1,324,326,328,330,332,-1,-1,-1,334,336,-1,338,340,-1,-1,342,344,-1,-1,346,-1,-1,-1,-1,348,-1,-1,-1,350,352,354,-1,-1,356,358,360,-1,-1,-1,-1,-1,-1,-1,-1,-1,-1,-1,-1,-1,-1,-1,-1,-1,-1,-1,-1,-1,-1,-1,-1,-1,-1,-1,-1,-1,-1,-1,-1,-1,-1,-1,-1,-1,-1,-1,-1,-1,-1,-1,-1,-1,-1,-1,-1,-1,-1,-1,-1,-1,-1,-1,-1,-1,-1,-1,-1,-1,-1,-1,-1,-1,-1,-1,-1,-1,-1,-1,-1,-1,-1,-1,-1,-1,-1,-1,-1,-1,-1,-1,-1,-1,-1,-1,-1,-1,-1,-1,-1,-1,-1,-1,-1,-1,-1,-1,-1],"split_conditions":[2.7E-2,3.6003E0,2E-1,2E-1,2.4994086E-1,3.5766E0,6.43E-2,3.4635E0,7.4E1,-7.2241984E-2,4E-1,1.767E-1,1E0,4.955223E2,5.49E2,3.1503E0,-5.1580153E-2,1E0,3.98805E2,-2.9936828E-2,1.195E2,6E0,6E-1,6E0,-4.9539678E-2,4.80925E1,3.0778664E-1,1E0,2E0,1E0,2.8E1,-1.7827444E-1,2.7262668E2,2E0,1.3E1,8.2E1,4.5044675E-1,7.7175E0,2E-1,2.95027E-1,2E-1,5.844846E-1,1.49E-2,1E0,2E0,-9.1049045E-2,4.9E1,6E0,3.1811675E-1,3.208213E-4,2.1145578E-2,1E0,-1.14151E-1,2.5202E0,2.3581432E-1,1E0,3.325E2,7.740261E-2,8.4E1,-7.1876265E-2,-1.7826183E-1,2.0892903E-1,3.142857E0,1.1304367E0,4E0,1E0,1.4223056E-1,1.1448524E-1,-1.814103E-2,4E-1,8.3753E0,1E0,6.834149E-2,9.0766E0,1E-2,-1.136237E-1,-7.4145585E-2,-1.4959055E-1,3.5560723E-2,4.7390714E-2,8.8081E0,1.196E0,6.878329E-2,-2.3384778E-1,-1.2194944E-1,-6.460734E-2,-1.7827223E-1,1.92476E-1,4.1035373E-2,7.307656E-2,3.6100614E-1,6E-1,1.454775E3,3.4567E2,2E0,2E0,3.9E1,3.163119E-2,4.0717041E-1,6E-1,1E0,1.70834E-1,2.1E1,2.4444444E0,-1.7825873E-1,2.2E1,2.8847594E-2,8.4E-3,2.887226E-1,8.5575E2,4.897628E-2,6E-1,2.3485833E-1,1.986149E-1,2.8E-3,3.276E0,1.0571826E-1,1E0,1.9004293E-2,3.965247E-2,4.8706E2,4.1673E2,6.796403E-2,2.6739752E-1,3.930939E-1,2.2108787E-1,1.26E-2,-1.5996744E-1,-9.942558E-2,-1.7635852E-2,3.5605025E-1,1.40547E1,3.788E-1,2.46961E2,1.1975194E-1,1.5E1,-8.57092E-2,5.036748E-2,1.7369047E-1,1.580223E-1,2.8847018E-1,-1.5719086E-1,-1.7827383E-1,6.624564E-1,1.36E-2,7.9910375E-2,2.846966E-4,4.7E1,4.7511034E-2,3.96E-2,-1.7826757E-1,-1.2881126E-1,4E0,3.722953E-2,6.946134E-1,1.7E1,2E0,3.5E1,6.237E2,5.131977E2,1.728E-1,1.3977249E-1,2.1E1,2.1664087E-1,3.5E1,2.8744485E3,4.289566E-1,-1.7824663E-1,4.2E1,1.298E-1,-6.701464E-2,-1.6484414E-1,-1.197178E-1,4E0,1.66E-2,2E0,3.1868133E-1,3.4750035E-1,2.6086956E-1,2.5251213E-1,1.03105545E-1,3E0,-7.7906903E-3,2.0069192E-1,6E0,7.98362E2,1.2184006E-1,-3.9534196E-2,7.9E1,1.58E2,-2.5881904E-1,3.9E-1,4E0,3.8045684E-1,-8.660254E-1,-1.7825639E-1,-1.6608343E-1,1.122E0,1.1304367E0,3.4885177E-1,3.050033E-1,2.1E0,-1.119171E-1,2.1021663E-1,-1.7824379E-1,-8.438496E-3,1E0,1.4E1,1E0,6.135E2,1.375E0,-4.224504E-2,2.2375E2,2.5233333E2,2.597745E-1,-1.6665392E-1,-4.045556E-2,-1.263622E-1,4.7979206E-3,6.8964E2,-1.2141449E-1,2.8009206E-1,3.217817E-2,-1.3200366E-1,-1.782446E-1,5E1,-6.545201E-2,2.3E0,7.357047E2,-9.215068E-2,2.5900564E-1,9.578482E-2,2.4875893E-1,2.8158984E-1,-7.829575E-2,1.3683602E-1,1.058E0,5.49E2,-1.7824839E-1,-1.4320913E-1,2.3206625E-2,4.5665473E-1,-6.761646E-2,5.683949E-2,4.035E2,-3.3548735E-2,-1.5231133E-1,-1.7826316E-1,-1.4315891E-1,2E0,-1.3577712E-1,-1.7826706E-1,-8.341424E-2,3.2857144E0,2.6E0,3.4287332E2,5.036355E-2,7.576744E-2,2.9902E2,2.919474E-1,2E-1,1.8302381E-1,7.728993E-2,-3.6713856E-3,7.641514E-2,1.9524448E-2,-7.167965E-2,-6.3866265E-2,-1.3093874E-1,3.7508267E-1,3.876064E-1,-1.2044763E-1,-1.6691893E-1,-7.00294E-2,-1.12482004E-1,-3.5956435E-2,-1.0942721E-1,-8.892286E-3,-9.989207E-2,-1.7825466E-1,-1.4132325E-1,-1.2153954E-1,-1.4872134E-1,4.6660256E-2,-1.0471776E-1,-1.5795314E-1,-1.3728622E-1,-1.7826842E-1,-1.2013999E-1,-1.7827354E-1,-1.7108451E-1,-1.7826414E-1,-1.5890585E-1,-1.4528883E-1,-3.0620541E-2,-1.1208304E-3,1.4218424E-1,-1.782721E-1,-1.6390918E-1,-1.7826192E-1,-1.1109265E-1,-5.8507238E-2,-1.3721268E-1,-1.3703565E-1,-6.302796E-2,6.062136E-2,-9.403575E-2,3.3071393E-1,2.2238944E-1,1.11188285E-1,1.5423597E-1,3.6040068E-1,-1.664828E-1,3.930978E-1,3.3451825E-1,2.914862E-1,3.8348377E-1,-1.7826399E-1,-1.36291E-1,1.3383196E-1,2.7877337E-1,2.6687297E-1,3.576722E-1,9.858038E-2,8.592263E-3,-6.730434E-2,1.6525632E-1,2.072764E-1,1.00225076E-1,2.9809603E-1,2.451131E-1,-2.4108037E-2,1.5794243E-1,-1.2740183E-1,7.536803E-3,-9.324011E-2,-1.5585624E-1,-8.377643E-2,3.7807915E-2,-5.37114E-2,-1.6657498E-1,1.9898565E-1,4.143902E-2,4.8328694E-2,1.5787153E-1,2.7837932E-1,1.8333055E-1,2.5179133E-1,1.6948587E-1,3.2224065E-1,2.3879491E-1,3.7344614E-1,3.4218445E-1,3.251182E-1,2.5234783E-1,-3.220483E-2,-1.4488384E-1,8.322698E-2,2.2598834E-1,2.5470033E-1,1.5003142E-1],"split_indices":[30,28,2,2,38,28,30,28,34,52,2,30,26,25,25,28,0,26,25,42,1,29,2,29,0,28,24,26,0,26,29,0,25,20,22,22,56,28,2,0,2,63,30,26,31,0,22,29,0,60,47,20,49,28,66,20,1,0,29,0,0,40,13,63,17,26,46,49,0,2,28,9,0,28,30,45,47,0,0,39,28,33,42,49,0,0,0,41,39,42,0,2,12,1,0,18,29,0,66,2,8,38,34,13,0,34,44,30,0,12,0,2,55,38,30,33,0,8,40,44,64,12,0,0,0,46,30,38,45,0,66,28,36,64,0,4,0,0,0,0,0,0,0,63,36,0,0,29,0,30,0,45,31,0,63,29,31,29,12,25,36,38,4,42,34,64,38,0,29,30,0,0,0,29,30,0,24,0,14,0,0,29,0,0,29,12,0,44,34,34,61,33,17,56,61,0,0,33,63,0,0,13,0,0,0,41,26,29,26,1,13,52,1,12,0,0,0,0,46,12,38,0,0,0,0,34,53,13,12,40,0,0,0,38,49,0,33,25,0,0,38,55,0,0,1,0,0,0,0,0,0,0,0,13,13,25,0,0,1,60,30,0,0,0,0,0,0,0,0,0,0,0,0,0,0,0,0,0,0,0,0,0,0,0,0,0,0,0,0,0,0,0,0,0,0,0,0,0,0,0,0,0,0,0,0,0,0,0,0,0,0,0,0,0,0,0,0,0,0,0,0,0,0,0,0,0,0,0,0,0,0,0,0,0,0,0,0,0,0,0,0,0,0,0,0,0,0,0,0,0,0,0,0,0,0,0,0,0,0,0,0],"split_type":[0,0,0,0,0,0,0,0,0,0,0,0,0,0,0,0,0,0,0,0,0,0,0,0,0,0,0,0,0,0,0,0,0,0,0,0,0,0,0,0,0,0,0,0,0,0,0,0,0,0,0,0,0,0,0,0,0,0,0,0,0,0,0,0,0,0,0,0,0,0,0,0,0,0,0,0,0,0,0,0,0,0,0,0,0,0,0,0,0,0,0,0,0,0,0,0,0,0,0,0,0,0,0,0,0,0,0,0,0,0,0,0,0,0,0,0,0,0,0,0,0,0,0,0,0,0,0,0,0,0,0,0,0,0,0,0,0,0,0,0,0,0,0,0,0,0,0,0,0,0,0,0,0,0,0,0,0,0,0,0,0,0,0,0,0,0,0,0,0,0,0,0,0,0,0,0,0,0,0,0,0,0,0,0,0,0,0,0,0,0,0,0,0,0,0,0,0,0,0,0,0,0,0,0,0,0,0,0,0,0,0,0,0,0,0,0,0,0,0,0,0,0,0,0,0,0,0,0,0,0,0,0,0,0,0,0,0,0,0,0,0,0,0,0,0,0,0,0,0,0,0,0,0,0,0,0,0,0,0,0,0,0,0,0,0,0,0,0,0,0,0,0,0,0,0,0,0,0,0,0,0,0,0,0,0,0,0,0,0,0,0,0,0,0,0,0,0,0,0,0,0,0,0,0,0,0,0,0,0,0,0,0,0,0,0,0,0,0,0,0,0,0,0,0,0,0,0,0,0,0,0,0,0,0,0,0,0,0,0,0,0,0,0,0,0,0,0,0,0,0,0,0,0,0,0,0,0,0,0,0,0],"sum_hessian":[2.9427248E4,1.949558E4,9.931668E3,1.6651555E4,2.8440254E3,2.346159E3,7.5855093E3,5.1027104E3,1.1548846E4,1.4988485E3,1.3451768E3,1.0447722E3,1.3013867E3,3.4845144E3,4.1009946E3,5.079957E3,2.2753124E1,5.6665337E3,5.882312E3,3.754136E2,1.1234349E3,1.0294618E3,3.157149E2,1.01547217E3,2.9300014E1,3.5614E2,9.4524677E2,2.8932178E3,5.912965E2,3.9779985E3,1.2299614E2,5.0037554E3,7.62015E1,4.1792476E3,1.487286E3,3.737556E3,2.144756E3,2.817721E2,9.364151E1,2.313929E1,1.1002957E3,9.846755E2,4.478637E1,2.287941E2,8.6920815E1,2.5711227E1,9.897609E2,3.266954E2,2.94446E1,8.526525E2,9.259423E1,2.5068066E3,3.8641113E2,4.3639197E2,1.5490456E2,3.5836184E3,3.943802E2,3.5352386E1,8.764375E1,2.01773E1,5.6024204E1,4.0913323E3,8.7915215E1,8.564085E1,1.4016451E3,3.8734872E2,3.350207E3,2.1185125E3,2.6243591E1,2.1103795E2,7.0734146E1,5.8520195E1,3.5121315E1,3.8084036E2,7.194553E2,1.4746754E2,8.3720795E2,2.2146544E1,2.2639826E1,8.094357E1,1.4785052E2,4.195334E1,4.4967476E1,9.603536E2,2.9407341E1,2.3177309E1,3.035181E2,8.1197595E2,4.067658E1,6.7741135E1,2.4853092E1,1.7328499E3,7.739568E2,9.498019E1,2.9143097E2,2.375165E2,1.9887547E2,2.001868E1,1.3488588E2,2.3434167E3,1.2402018E3,1.15587494E2,2.787927E2,4.2566803E1,4.5076946E1,2.400655E3,1.6906772E3,6.441119E1,2.3504028E1,5.9980057E1,2.5660788E1,4.5125467E2,9.5039044E2,2.0608163E2,1.8126709E2,3.3246008E3,2.5606405E1,1.1190316E3,9.9948083E2,5.9458637E1,1.515793E2,4.1688778E1,2.904537E1,2.610166E1,3.2418537E1,3.340171E2,4.682327E1,2.4963007E2,4.6982526E2,2.5305437E1,1.221621E2,1.1506956E2,7.2213837E2,5.44712E1,2.647237E1,1.1634539E2,3.1505129E1,2.1828773E1,2.0124565E1,2.0348282E1,2.4619194E1,2.039195E1,9.399616E2,7.7080927E2,4.1166653E1,2.0069973E1,2.0606604E1,4.449585E1,2.3245289E1,1.6311049E3,1.017451E2,6.895914E2,8.436541E1,3.6531002E1,5.844918E1,1.9136758E2,1.00063385E2,9.286503E1,1.4465146E2,6.907537E1,1.298001E2,4.7494152E1,8.739172E1,2.2284656E3,1.1495101E2,9.4384204E2,2.9635974E2,2.5543602E1,9.004389E1,2.4734023E2,3.1452452E1,2.176085E1,2.0805954E1,3.547827E2,2.0458723E3,9.257421E2,7.649351E2,2.1528545E1,4.2882637E1,3.9256268E1,2.072379E1,4.1362604E2,3.7628628E1,2.2311285E1,9.2807916E2,1.7036339E2,3.5718246E1,1.0594857E2,7.531853E1,3.2778938E3,4.670688E1,9.830475E2,1.3598409E2,7.352645E2,2.6421634E2,3.9281338E1,2.01773E1,7.2651474E1,7.892783E1,2.0800776E1,2.0888002E1,3.0815408E2,2.586302E1,2.364084E1,2.3182428E1,7.688566E1,1.727444E2,1.7061377E2,2.992115E2,4.081663E1,8.1345474E1,5.54158E1,5.9653755E1,6.864924E2,3.5646E1,2.957838E1,2.489282E1,2.809506E1,8.8250336E1,5.155377E1,7.192555E2,2.0353079E1,2.0813576E1,2.0669464E1,2.3826385E1,6.512729E2,9.798319E2,4.558824E1,6.440031E2,5.8753944E1,2.5611467E1,2.0213497E1,3.8235683E1,1.0501686E2,8.6350716E1,2.7758575E1,7.230481E1,6.560421E1,2.7260818E1,2.7898537E1,1.1675293E2,4.2721897E1,2.6353477E1,2.0425325E1,1.0937477E2,2.5008356E1,2.2485796E1,6.2463768E1,2.4927956E1,2.1941458E3,3.4319973E1,9.4876236E1,2.007477E1,3.5447864E2,5.893634E2,2.6987943E2,2.6480316E1,3.7875534E1,5.2168354E1,1.577955E2,8.954472E1,1.9672888E2,1.5805383E2,1.3708717E3,6.750007E2,7.68208E2,1.5753412E2,5.47513E2,2.1742212E2,2.0455284E1,2.2427353E1,1.311116E2,2.8251443E2,4.8488055E2,4.431986E2,8.689662E1,8.3466774E1,2.4101603E1,8.184697E1,3.5846905E1,3.9471622E1,2.6800798E3,5.978139E2,2.4781227E1,2.1925652E1,3.013551E2,6.816924E2,1.1591215E2,2.0071945E1,6.9461426E2,4.0650238E1,6.847403E1,1.9574231E2,3.849748E1,3.4153996E1,5.693143E1,2.1996399E1,2.8806314E2,2.0090927E1,5.6453506E1,2.0432152E1,1.23022156E2,4.9722248E1,8.8605415E1,8.2008354E1,2.4382333E2,5.5388134E1,2.015938E1,2.0657251E1,5.3618565E1,2.772691E1,2.6266726E1,2.9149075E1,3.557034E1,2.4083418E1,2.5651402E1,6.60841E2,6.7400764E1,2.0849566E1,2.6609182E1,2.4944586E1,7.334959E1,6.4590594E2,5.109297E2,1.4034317E2,2.983435E1,9.4999756E2,2.046211E1,2.5126131E1,2.736067E2,3.7039642E2,2.3810495E1,3.494345E1,3.440096E1,7.06159E1,3.4295605E1,5.205511E1,2.7775055E1,4.452975E1,4.0623577E1,2.4980633E1,3.0959642E1,8.579328E1,2.1343967E1,2.1377928E1,5.5587315E1,5.378746E1,1.6747893E3,5.193563E2,2.8374506E2,7.073356E1,3.052865E2,2.840769E2,2.0017722E2,6.970221E1,2.5952484E1,2.621587E1,1.1596342E2,4.1832092E1,6.7342735E1,2.2201986E1],"tree_param":{"num_deleted":"0","num_feature":"70","num_nodes":"361","size_leaf_vector":"1"}},{"base_weights":[-4.0943176E-2,-5.6729347E-1,9.177229E-1,-9.0275013E-1,-2.3662378E-1,1.0971208E-1,1.1516868E0,7.111624E-1,-1.0335283E0,-4.8076737E-1,1.541481E0,-1.240561E0,1.0452895E0,-1.1200644E0,1.2450141E0,-1.6922711E-1,8.763542E-1,-1.6919231E-1,-8.7714475E-1,-1.1189336E0,-3.1230304E-1,2.012896E0,-4.8122767E-1,-1.3397404E0,2.4172394E-1,6.906368E-2,1.799792E0,-2.876147E-1,-1.2615193E0,9.7255194E-1,1.670803E0,-8.8328654E-1,1.035016E0,-3.656464E-1,-1.0291537E0,-1.3313307E0,-9.9932855E-1,-3.6743736E-1,1.97167E0,2.1935112E0,-8.561802E-2,-8.9939964E-1,8.6349124E-1,-1.3747936E0,-1.7240208E-2,-1.2217712E0,1.9487824E0,1.0245415E0,2.2023776E0,6.50076E-2,-1.1438839E-1,-1.308618E0,-8.940651E-2,1.077803E0,8.9185E-2,1.7658008E0,7.5244874E-1,-6.117469E-2,-1.4216731E-1,1.1478919E0,1.369928E-1,-1.1555175E0,-2.0602597E-1,-9.2217517E-1,-1.2447544E0,-8.705181E-1,-1.3817012E0,-1.140186E0,-6.819136E-1,-9.9432844E-1,-8.83786E-2,9.224322E-1,2.3438563E0,1.169445E0,2.3174922E0,-1.695199E-1,5.049378E-1,-4.897951E-1,-1.1544411E0,3.3512313E-2,2.0814663E-1,-1.3818594E0,-1.3262795E-1,-2.7270125E-2,-1.3223491E0,6.768452E-2,2.1647406E0,-1.1545215E0,1.877252E0,2.2777967E0,4.924147E-2,-1.08953E0,-1.3812425E0,8.3468497E-1,1.7098664E0,1.1017689E0,-2.558978E-1,1.9982481E0,1.2341526E0,1.0848176E0,-3.0789495E-1,9.437077E-1,1.3586949E0,9.021391E-2,-2.4118793E-1,-1.2902887E0,-9.924071E-1,1.7695766E-3,-5.403304E-1,-1.0381378E0,-7.8153634E-1,-1.2601283E0,-1.5253275E-2,-1.6918573E-1,1.0891784E-2,-1.692452E-1,-1.4006333E0,-1.3635405E0,-1.0863593E0,-1.2576159E0,-3.9770454E-1,-1.337406E0,3.490039E-1,-1.3176904E0,7.535146E-2,1.4004296E-1,8.738823E-2,2.4933736E0,2.157143E-1,6.4284015E-1,1.6358327E0,2.3849616E0,1.2745966E0,6.3560167E-3,1.0945151E-1,-6.314876E-3,-1.4755173E-1,-1.3582914E0,-8.5976285E-1,-1.7397533E-1,-1.3806212E0,-4.9790747E-2,-1.3825896E0,1.9165449E0,2.5600467E0,-6.750505E-2,-1.4227532E0,5.676971E-1,2.2883453E0,2.457615E0,1.7629038E0,-9.9237226E-2,-1.2337127E0,-1.2448128E0,-1.4731128E0,9.3844503E-1,-8.110248E-1,1.4254262E0,1.9564167E0,1.4763508E0,4.0117192E-1,-1.7253602E-1,-1.14918366E-1,1.7008616E0,2.185869E0,1.5771055E0,4.3021794E-2,2.606002E-2,1.2592726E0,2.323017E-2,-1.139668E-1,5.722396E-1,1.2363528E0,1.1996586E0,1.7011534E0,-6.539582E-2,6.1792755E-3,-1.355191E0,-1.1840911E-1,-6.497575E-1,-1.2300045E0,2.0727782E-1,-8.179005E-2,-7.829772E-1,3.1834903E-1,-1.0990845E0,-8.848096E-1,-8.17496E-1,-7.800739E-2,-1.367436E0,-1.1575751E0,-1.6932368E-1,-1.7514426E-1,-1.4138281E0,-1.2740126E-1,-9.388801E-1,-1.2600456E0,-1.18294545E-1,-1.3892058E0,-3.8522363E-2,-1.0735178E0,-1.3687071E0,-7.0032275E-1,2.0007539E0,-5.747281E-1,-1.2152195E0,-1.376975E0,3.6373574E-1,-8.1087184E-1,2.951861E-1,2.5387135E0,3.8285185E-2,1.2526315E-1,1.3309865E-1,2.5641096E-1,2.4485846E0,1.7676421E0,9.752591E-2,2.1435809E-1,-1.5733837E-1,-1.7201652E-1,-1.5840796E-1,-4.8501898E-2,-1.6924027E-1,-1.7207754E-1,-1.327098E0,-1.3921934E0,2.4964519E0,2.630879E-2,3.1178424E-1,3.1952587E-1,-1.8145923E-1,-1.696737E-1,-9.8591164E-2,2.0285784E-1,2.4955266E0,1.9846739E-1,2.5001402E0,2.4947208E-1,1.1930683E-1,2.0924644E0,-1.7961246E-1,-1.2202148E-1,-1.1908593E-1,-1.3471093E0,-1.5057275E0,-1.6838008E-1,6.567309E-1,1.1575809E0,3.1044033E-1,-1.699211E-1,1.4877613E0,-6.3704923E-3,2.138957E0,1.78284E0,4.411291E-2,1.8364843E0,9.2423104E-2,5.1990207E-3,-6.1554193E-1,6.679337E-2,1.8016967E0,-1.2140143E-1,2.2540116E0,1.8089589E0,1.7310985E0,-3.9769638E-1,-3.780132E-1,1.3080798E0,8.5067195E-1,1.5427488E0,-5.3339223E-3,8.840262E-2,2.1321431E-1,1.2047913E-1,8.4377676E-2,1.659715E-1,1.426844E-1,2.4785046E-1,-1.7451237E-1,-1.435013E-1,-3.873528E-2,-1.200862E-1,-1.1735118E-1,-1.6788644E-1,8.656517E-3,-8.158546E-2,-1.0903683E-1,1.9295324E-2,-4.0685013E-2,3.349862E-1,-1.2550664E-1,-1.4579028E-1,-9.02366E-2,-1.3371988E-1,-1.05693504E-1,-6.1458938E-2,4.1065052E-2,-1.3072738E-1,-1.6929972E-1,-1.4778702E-1,-1.3842724E-1,-1.6946082E-1,-1.7477988E-1,-1.7080773E-1,1.194218E-2,-1.280556E-1,-1.08185016E-1,-1.5946768E-1,-1.5968227E-1,-1.7466608E-1,-4.2727754E-2,2.0178434E-1,-1.7118487E-1,-1.0116856E-1,-1.3536939E-1,-1.6872421E-1,-1.7016836E-1,9.9250756E-2,2.69543E-1,1.4073128E-1,1.15665115E-1,-1.6664405E-1,-1.5826163E-1,-1.00332655E-1,-1.414223E-1,-1.7455082E-1,1.1892961E-2,1.0254383E-1,-1.23722985E-1,-4.507917E-2,3.229984E-1,3.0424553E-1,3.0678338E-1,2.8543574E-1,1.771673E-1,2.6016065E-1,-1.5494062E-1,-1.691649E-1,-1.6961826E-1,-1.7374945E-1,3.001649E-1,3.100531E-1,2.879502E-1,3.117903E-1,3.1087264E-1,2.8178132E-1,1.9100611E-1,3.098174E-1,-1.7100568E-1,-1.5515321E-1,-1.7696193E-1,-1.87202E-1,7.470879E-2,3.0216748E-1,1.4898252E-1,4.3787077E-2,1.6509277E-1,2.2696565E-1,1.8520483E-1,2.698098E-1,2.6937947E-1,2.0711178E-1,2.6803878E-1,1.9770811E-1,-1.1636836E-1,-2.390596E-2,-3.232572E-2,6.10338E-2,2.2799692E-1,3.957503E-2,2.539712E-1,2.8597066E-1,2.6583642E-1,1.5416233E-1,1.3181564E-1,2.595088E-1,4.4352766E-2,-1.1881945E-1,-1.0318413E-1,8.209352E-2,2.3624106E-1,9.13143E-2,2.16226E-2,1.6736783E-1,1.6639666E-1,2.358149E-1],"categories":[],"categories_nodes":[],"categories_segments":[],"categories_sizes":[],"default_left":[0,0,0,0,0,0,0,0,0,0,0,0,0,0,0,0,0,0,0,0,0,0,0,0,0,0,0,0,0,0,0,0,0,0,0,0,0,0,0,0,0,0,0,0,0,0,0,0,0,0,0,0,0,0,0,0,0,0,0,0,0,0,0,0,0,0,0,0,0,0,0,0,0,0,0,0,0,0,0,0,0,0,0,0,0,0,0,0,0,0,0,0,0,0,0,0,0,0,0,0,0,0,0,0,0,0,0,0,0,0,0,0,0,0,0,0,0,0,0,0,0,0,0,0,0,0,0,0,0,0,0,0,0,0,0,0,0,0,0,0,0,0,0,0,0,0,0,0,0,0,0,0,0,0,0,0,0,0,0,0,0,0,0,0,0,0,0,0,0,0,0,0,0,0,0,0,0,0,0,0,0,0,0,0,0,0,0,0,0,0,0,0,0,0,0,0,0,0,0,0,0,0,0,0,0,0,0,0,0,0,0,0,0,0,0,0,0,0,0,0,0,0,0,0,0,0,0,0,0,0,0,0,0,0,0,0,0,0,0,0,0,0,0,0,0,0,0,0,0,0,0,0,0,0,0,0,0,0,0,0,0,0,0,0,0,0,0,0,0,0,0,0,0,0,0,0,0,0,0,0,0,0,0,0,0,0,0,0,0,0,0,0,0,0,0,0,0,0,0,0,0,0,0,0,0,0,0,0,0,0,0,0,0,0,0,0,0,0,0,0,0,0,0,0,0,0,0,0,0,0,0,0,0,0,0,0,0,0,0,0,0,0,0,0,0,0,0,0,0,0,0,0,0,0,0,0,0,0,0,0,0,0,0,0,0,0,0,0,0,0,0,0,0,0,0,0,0,0,0,0,0,0,0,0,0,0,0],"id":1,"left_children":[1,3,5,7,9,11,13,15,17,19,21,23,25,27,29,-1,31,-1,33,35,37,39,41,43,-1,45,47,49,51,53,55,57,59,61,63,65,67,69,71,73,75,77,79,81,-1,83,85,87,89,-1,-1,91,-1,93,95,97,99,-1,-1,101,103,105,107,109,111,113,115,117,119,121,123,125,127,129,131,-1,133,135,137,-1,-1,139,-1,-1,141,-1,143,145,147,149,-1,151,153,155,157,159,161,163,165,167,169,171,173,-1,175,177,179,181,183,185,187,189,-1,-1,-1,-1,191,193,195,197,199,201,203,205,207,-1,-1,209,-1,211,213,215,217,-1,-1,-1,-1,219,221,-1,223,-1,225,227,229,-1,231,233,235,237,239,-1,241,243,245,247,249,251,253,255,257,-1,259,261,263,265,267,-1,269,-1,-1,271,273,275,277,-1,-1,279,-1,281,283,-1,285,287,289,291,293,295,297,299,301,-1,-1,303,-1,305,307,-1,309,311,313,315,317,319,321,323,325,327,329,-1,331,-1,-1,-1,-1,333,335,-1,-1,-1,-1,-1,-1,-1,-1,337,339,341,-1,-1,-1,-1,-1,-1,-1,343,-1,345,-1,-1,347,-1,-1,-1,349,351,-1,353,355,-1,-1,357,-1,359,361,-1,363,-1,-1,365,367,369,-1,371,373,375,377,379,381,383,385,-1,-1,-1,-1,-1,-1,-1,-1,-1,-1,-1,-1,-1,-1,-1,-1,-1,-1,-1,-1,-1,-1,-1,-1,-1,-1,-1,-1,-1,-1,-1,-1,-1,-1,-1,-1,-1,-1,-1,-1,-1,-1,-1,-1,-1,-1,-1,-1,-1,-1,-1,-1,-1,-1,-1,-1,-1,-1,-1,-1,-1,-1,-1,-1,-1,-1,-1,-1,-1,-1,-1,-1,-1,-1,-1,-1,-1,-1,-1,-1,-1,-1,-1,-1,-1,-1,-1,-1,-1,-1,-1,-1,-1,-1,-1,-1,-1,-1,-1,-1,-1,-1,-1,-1,-1,-1,-1,-1,-1,-1,-1,-1,-1,-1,-1,-1],"loss_changes":[1.4822772E4,2.1035542E3,1.9683242E3,1.9869033E3,4.1457793E3,2.9534204E3,1.711832E3,2.4372458E2,4.7102832E2,9.027488E2,1.0993931E3,3.0477014E2,1.0172029E3,3.7514313E1,8.9971094E2,0E0,1.8258273E2,0E0,4.6626416E2,4.4543945E1,8.365645E2,3.5440527E2,1.2254605E2,3.901526E1,0E0,1.4608263E3,2.431084E2,2.4408882E1,6.825775E0,4.3969922E2,2.6400586E2,5.732689E0,6.0804993E1,1.732152E2,1.0662109E2,1.4657837E1,5.015808E1,1.1347865E3,6.1138733E1,1.092959E2,5.6738758E1,1.7361954E1,2.542976E1,1.8624268E0,0E0,3.5877075E1,7.394037E1,4.9474548E2,6.963208E1,0E0,0E0,3.973236E0,0E0,6.4934424E2,1.7593445E2,3.389082E2,9.998596E1,0E0,0E0,2.2930542E1,1.5163471E1,5.0703735E0,7.939551E1,5.0386963E1,2.6405518E1,3.0395725E1,1.0498047E-2,9.335022E0,5.6422348E1,9.208635E2,9.0345526E2,1.883667E0,1.0093323E1,2.2830818E1,5.402295E1,0E0,8.936331E0,1.9940521E1,6.147339E0,0E0,0E0,3.0395508E-2,0E0,0E0,1.7899048E1,0E0,2.0807922E1,1.2131233E1,1.03018005E2,4.5543213E1,0E0,2.513939E0,2.3459778E0,5.21136E2,8.2309326E1,3.3580673E1,6.092064E1,1.0645361E2,3.40818E2,3.2869522E1,2.091964E1,2.942421E1,1.4269714E1,0E0,3.4953744E0,2.6596375E0,8.503906E0,9.9425446E1,9.128201E1,1.5819702E1,3.532495E1,1.663501E1,0E0,0E0,0E0,0E0,1.8188477E-2,2.4572754E0,1.6034058E1,4.389908E0,5.6043922E1,3.1733398E1,6.202166E2,3.1967163E0,1.01234485E3,0E0,0E0,3.366089E-1,0E0,5.4636555E0,1.2334839E1,2.8310059E1,1.0578575E1,0E0,0E0,0E0,0E0,1.9299316E-1,8.395807E0,0E0,5.9814453E-3,0E0,1.531372E-1,1.2873163E2,3.9489746E-2,0E0,1.0595703E-1,6.812641E1,2.0207458E1,6.5498047E0,3.3164124E1,0E0,2.259426E0,2.1124344E0,3.5733032E-1,1.7722437E2,3.4744116E2,5.019812E1,1.9906738E1,3.35307E1,5.6360693E0,0E0,3.0433609E1,2.002854E2,3.0032227E1,1.9700317E2,9.934964E1,0E0,2.0842163E1,0E0,0E0,1.0909256E1,1.9304153E1,1.4059662E1,1.4278076E1,0E0,0E0,1.3113251E0,0E0,4.7046986E0,2.3330536E0,0E0,5.9695194E1,3.4045547E1,1.51398E2,8.221436E0,1.4749115E1,1.858496E1,2.7693005E1,1.5362549E0,5.01355E0,0E0,0E0,2.1331787E-2,0E0,3.6904083E1,4.351288E0,0E0,2.3019409E-1,7.864794E1,6.4130173E0,2.7651367E0,7.731624E1,2.4476013E1,3.1017865E2,5.7618103E0,3.444397E0,3.7655023E2,8.529553E1,0E0,3.059082E-1,0E0,0E0,0E0,0E0,4.1535645E0,7.68602E0,0E0,0E0,0E0,0E0,0E0,0E0,0E0,0E0,1.4103699E-1,4.9316406E-2,1.2475586E-1,0E0,0E0,0E0,0E0,0E0,0E0,0E0,7.399292E-1,0E0,2.2871094E0,0E0,0E0,2.0836761E1,0E0,0E0,0E0,2.0427704E-1,9.892273E-2,0E0,1.0809631E2,7.377319E1,0E0,0E0,2.6878784E1,0E0,1.1703857E1,1.2544922E1,0E0,4.9236603E0,0E0,0E0,1.2485233E1,3.4932327E1,6.0143555E1,0E0,1.4062012E1,3.5436768E1,1.5172656E2,2.0320938E1,6.789871E1,1.6215012E1,2.5550877E1,7.500534E0,0E0,0E0,0E0,0E0,0E0,0E0,0E0,0E0,0E0,0E0,0E0,0E0,0E0,0E0,0E0,0E0,0E0,0E0,0E0,0E0,0E0,0E0,0E0,0E0,0E0,0E0,0E0,0E0,0E0,0E0,0E0,0E0,0E0,0E0,0E0,0E0,0E0,0E0,0E0,0E0,0E0,0E0,0E0,0E0,0E0,0E0,0E0,0E0,0E0,0E0,0E0,0E0,0E0,0E0,0E0,0E0,0E0,0E0,0E0,0E0,0E0,0E0,0E0,0E0,0E0,0E0,0E0,0E0,0E0,0E0,0E0,0E0,0E0,0E0,0E0,0E0,0E0,0E0,0E0,0E0,0E0,0E0,0E0,0E0,0E0,0E0,0E0,0E0,0E0,0E0,0E0,0E0,0E0,0E0,0E0,0E0,0E0,0E0,0E0,0E0,0E0,0E0,0E0,0E0,0E0,0E0,0E0,0E0,0E0,0E0,0E0,0E0,0E0,0E0,0E0,0E0],"parents":[2147483647,0,0,1,1,2,2,3,3,4,4,5,5,6,6,7,7,8,8,9,9,10,10,11,11,12,12,13,13,14,14,16,16,18,18,19,19,20,20,21,21,22,22,23,23,25,25,26,26,27,27,28,28,29,29,30,30,31,31,32,32,33,33,34,34,35,35,36,36,37,37,38,38,39,39,40,40,41,41,42,42,43,43,45,45,46,46,47,47,48,48,51,51,53,53,54,54,55,55,56,56,59,59,60,60,61,61,62,62,63,63,64,64,65,65,66,66,67,67,68,68,69,69,70,70,71,71,72,72,73,73,74,74,76,76,77,77,78,78,81,81,84,84,86,86,87,87,88,88,89,89,91,91,92,92,93,93,94,94,95,95,96,96,97,97,98,98,99,99,100,100,101,101,102,102,104,104,105,105,106,106,107,107,108,108,109,109,110,110,111,111,116,116,117,117,118,118,119,119,120,120,121,121,122,122,123,123,124,124,127,127,129,129,130,130,131,131,132,132,137,137,138,138,140,140,142,142,143,143,144,144,146,146,147,147,148,148,149,149,150,150,152,152,153,153,154,154,155,155,156,156,157,157,158,158,159,159,160,160,162,162,163,163,164,164,165,165,166,166,168,168,171,171,172,172,173,173,174,174,177,177,179,179,180,180,182,182,183,183,184,184,185,185,186,186,187,187,188,188,189,189,190,190,193,193,195,195,196,196,198,198,199,199,200,200,201,201,202,202,203,203,204,204,205,205,206,206,207,207,208,208,210,210,215,215,216,216,225,225,226,226,227,227,235,235,237,237,240,240,244,244,245,245,247,247,248,248,251,251,253,253,254,254,256,256,259,259,260,260,261,261,263,263,264,264,265,265,266,266,267,267,268,268,269,269,270,270],"right_children":[2,4,6,8,10,12,14,16,18,20,22,24,26,28,30,-1,32,-1,34,36,38,40,42,44,-1,46,48,50,52,54,56,58,60,62,64,66,68,70,72,74,76,78,80,82,-1,84,86,88,90,-1,-1,92,-1,94,96,98,100,-1,-1,102,104,106,108,110,112,114,116,118,120,122,124,126,128,130,132,-1,134,136,138,-1,-1,140,-1,-1,142,-1,144,146,148,150,-1,152,154,156,158,160,162,164,166,168,170,172,174,-1,176,178,180,182,184,186,188,190,-1,-1,-1,-1,192,194,196,198,200,202,204,206,208,-1,-1,210,-1,212,214,216,218,-1,-1,-1,-1,220,222,-1,224,-1,226,228,230,-1,232,234,236,238,240,-1,242,244,246,248,250,252,254,256,258,-1,260,262,264,266,268,-1,270,-1,-1,272,274,276,278,-1,-1,280,-1,282,284,-1,286,288,290,292,294,296,298,300,302,-1,-1,304,-1,306,308,-1,310,312,314,316,318,320,322,324,326,328,330,-1,332,-1,-1,-1,-1,334,336,-1,-1,-1,-1,-1,-1,-1,-1,338,340,342,-1,-1,-1,-1,-1,-1,-1,344,-1,346,-1,-1,348,-1,-1,-1,350,352,-1,354,356,-1,-1,358,-1,360,362,-1,364,-1,-1,366,368,370,-1,372,374,376,378,380,382,384,386,-1,-1,-1,-1,-1,-1,-1,-1,-1,-1,-1,-1,-1,-1,-1,-1,-1,-1,-1,-1,-1,-1,-1,-1,-1,-1,-1,-1,-1,-1,-1,-1,-1,-1,-1,-1,-1,-1,-1,-1,-1,-1,-1,-1,-1,-1,-1,-1,-1,-1,-1,-1,-1,-1,-1,-1,-1,-1,-1,-1,-1,-1,-1,-1,-1,-1,-1,-1,-1,-1,-1,-1,-1,-1,-1,-1,-1,-1,-1,-1,-1,-1,-1,-1,-1,-1,-1,-1,-1,-1,-1,-1,-1,-1,-1,-1,-1,-1,-1,-1,-1,-1,-1,-1,-1,-1,-1,-1,-1,-1,-1,-1,-1,-1,-1,-1],"split_conditions":[2.7E-2,3.5535E1,2E-1,3.4E1,1.14E2,1E0,1E0,2.5E-1,2E-1,7.3E-3,2E-1,9.8E1,3.4E1,-3.5851713E-2,9.38E-2,-1.6922711E-1,1E0,-1.6919231E-1,8.4E1,2E-1,2.8962356E-1,1.5978597E-1,6E-1,3.7037036E-1,2.4172394E-1,1.581E-1,4.47E-2,2.2701688E-1,5.0626803E-2,1E0,1E0,1.4922627E-2,4.2628372E-1,1E0,4.4346155E2,-1.738116E-1,5.5E-3,2E-1,6.624564E-1,5.844846E-1,1E0,-3.1763107E-2,1.17E-2,6.6E1,-1.7240208E-2,-2.3384778E-1,2.18E-1,5.4E1,1.3005355E-1,6.50076E-2,-1.1438839E-1,2.061E-1,-8.940651E-2,4E0,-2.8085324E-1,4.1893307E2,1.0880271E0,-6.117469E-2,-1.4216731E-1,9.88E-1,5.82571E-1,1.9324061E-1,1E0,1.019E0,1.43748885E-2,4.8E-3,1E0,1E0,1E0,7.8E1,1E0,1.9E1,1.9047619E0,6.6045E2,1.3141464E-1,-1.695199E-1,4.4632874E-2,2E1,2E0,3.3512313E-2,2.0814663E-1,6E0,-1.3262795E-1,-2.7270125E-2,1E1,6.768452E-2,2E0,1.5E1,-1.2658533E-1,2.86E2,4.924147E-2,3.527697E-2,-1.1946712E-1,6.5E-1,1.0895404E3,1.0586517E0,4E-1,1.1720644E-1,2E0,2.690787E3,8.4E1,3.2985044E-1,4.29E2,9.021391E-2,-6.2837325E-2,5.74E2,5.375806E-1,4E-1,1E0,2.5E-1,3.276E0,2.101363E-2,-1.5253275E-2,-1.6918573E-1,1.0891784E-2,-1.692452E-1,1.1393932E-2,4.5902926E-1,1E0,6E0,1E0,1.1229546E-1,2E0,1E1,1E0,1.4004296E-1,8.738823E-2,1.995E2,2.157143E-1,1.5764318E-1,4.4E-3,6.5271206E-2,4.003911E-1,6.3560167E-3,1.0945151E-1,-6.314876E-3,-1.4755173E-1,-4.3898243E-2,3.3350945E-1,-1.7397533E-1,5.4797085E3,-4.9790747E-2,3.3333335E-2,1.925E2,4.835E2,-6.750505E-2,9.921463E-2,3.63E-2,3.09E2,2.1369767E0,5.4921433E-2,-9.9237226E-2,3.1578946E-1,3.1E1,3.6E0,1.3534928E3,3E0,1.9236E3,8.05875E2,6.624564E-1,1.6082115E-1,-1.7253602E-1,3.15E-2,1E0,1E0,6.1029497E3,3.3961833E-2,2.606002E-2,2E0,2.323017E-2,-1.139668E-1,6.237E2,5.7645E2,-6.6255085E-2,2.9344845E-1,-6.539582E-2,6.1792755E-3,4.4444445E-1,-1.1840911E-1,3.0779142E-2,7.2E-1,2.0727782E-1,7.4E1,1.6528495E-1,-6.586953E-2,8.2145715E-3,1.6936144E-2,1E0,1E0,3.8045684E-1,1E0,-1.6932368E-1,-1.7514426E-1,6.1E1,-1.2740126E-1,3E0,2.974875E-1,-1.18294545E-1,6.75E-1,2.1930319E-1,4.19E2,2.6088876E2,1.71E-2,4.475E2,-6.90762E-2,5.400932E2,4.471859E-1,1.8231069E-1,2E0,2.951861E-1,4E0,3.8285185E-2,1.2526315E-1,1.3309865E-1,2.5641096E-1,3.035E2,4.0204072E-1,9.752591E-2,2.1435809E-1,-1.5733837E-1,-1.7201652E-1,-1.5840796E-1,-4.8501898E-2,-1.6924027E-1,-1.7207754E-1,5.69625E2,2.8110132E3,1.7E1,2.630879E-2,3.1178424E-1,3.1952587E-1,-1.8145923E-1,-1.696737E-1,-9.8591164E-2,2.0285784E-1,8E0,1.9846739E-1,3.6070007E2,2.4947208E-1,1.1930683E-1,6.946134E-1,-1.7961246E-1,-1.2202148E-1,-1.1908593E-1,5.62E2,1.9428244E-1,-1.6838008E-1,1.4586502E-1,5.25E2,3.1044033E-1,-1.699211E-1,1E0,-6.3704923E-3,7.34E-1,3.0151084E-1,4.411291E-2,2E0,9.2423104E-2,5.1990207E-3,2.6E0,1.058E0,5.4797085E3,-1.2140143E-1,3.424906E-1,3.4287332E2,8.2E1,5.855031E-1,1.138E3,4.344504E-1,4.0989238E-1,-5E-1,-5.3339223E-3,8.840262E-2,2.1321431E-1,1.2047913E-1,8.4377676E-2,1.659715E-1,1.426844E-1,2.4785046E-1,-1.7451237E-1,-1.435013E-1,-3.873528E-2,-1.200862E-1,-1.1735118E-1,-1.6788644E-1,8.656517E-3,-8.158546E-2,-1.0903683E-1,1.9295324E-2,-4.0685013E-2,3.349862E-1,-1.2550664E-1,-1.4579028E-1,-9.02366E-2,-1.3371988E-1,-1.05693504E-1,-6.1458938E-2,4.1065052E-2,-1.3072738E-1,-1.6929972E-1,-1.4778702E-1,-1.3842724E-1,-1.6946082E-1,-1.7477988E-1,-1.7080773E-1,1.194218E-2,-1.280556E-1,-1.08185016E-1,-1.5946768E-1,-1.5968227E-1,-1.7466608E-1,-4.2727754E-2,2.0178434E-1,-1.7118487E-1,-1.0116856E-1,-1.3536939E-1,-1.6872421E-1,-1.7016836E-1,9.9250756E-2,2.69543E-1,1.4073128E-1,1.15665115E-1,-1.6664405E-1,-1.5826163E-1,-1.00332655E-1,-1.414223E-1,-1.7455082E-1,1.1892961E-2,1.0254383E-1,-1.23722985E-1,-4.507917E-2,3.229984E-1,3.0424553E-1,3.0678338E-1,2.8543574E-1,1.771673E-1,2.6016065E-1,-1.5494062E-1,-1.691649E-1,-1.6961826E-1,-1.7374945E-1,3.001649E-1,3.100531E-1,2.879502E-1,3.117903E-1,3.1087264E-1,2.8178132E-1,1.9100611E-1,3.098174E-1,-1.7100568E-1,-1.5515321E-1,-1.7696193E-1,-1.87202E-1,7.470879E-2,3.0216748E-1,1.4898252E-1,4.3787077E-2,1.6509277E-1,2.2696565E-1,1.8520483E-1,2.698098E-1,2.6937947E-1,2.0711178E-1,2.6803878E-1,1.9770811E-1,-1.1636836E-1,-2.390596E-2,-3.232572E-2,6.10338E-2,2.2799692E-1,3.957503E-2,2.539712E-1,2.8597066E-1,2.6583642E-1,1.5416233E-1,1.3181564E-1,2.595088E-1,4.4352766E-2,-1.1881945E-1,-1.0318413E-1,8.209352E-2,2.3624106E-1,9.13143E-2,2.16226E-2,1.6736783E-1,1.6639666E-1,2.358149E-1],"split_indices":[30,64,2,22,22,26,27,2,2,30,2,22,22,50,30,0,27,0,22,2,44,59,2,24,0,30,30,24,39,26,26,44,55,27,25,44,30,2,63,63,26,53,30,22,0,49,30,22,47,0,0,36,0,17,44,25,63,0,0,33,66,59,26,33,41,30,6,27,27,22,27,4,13,12,42,0,45,4,0,0,0,29,0,0,29,0,0,29,43,1,0,45,47,2,64,63,2,38,0,64,29,56,1,0,47,1,66,2,6,15,33,40,0,0,0,0,50,55,26,29,26,51,6,29,26,0,0,1,0,43,30,51,56,0,0,0,0,49,63,0,64,0,24,1,1,0,38,30,1,66,42,0,14,29,13,64,17,12,12,63,59,0,30,8,8,64,47,0,0,0,0,12,12,50,55,0,0,15,0,47,33,0,22,49,48,43,47,8,26,56,8,0,0,22,0,17,56,0,33,43,1,25,30,1,52,64,63,38,0,0,29,0,0,0,0,1,56,0,0,0,0,0,0,0,0,12,64,4,0,0,0,0,0,0,0,29,0,25,0,0,63,0,0,0,1,50,0,49,25,0,0,6,0,33,38,0,11,0,0,13,33,64,0,66,25,29,66,1,63,66,61,0,0,0,0,0,0,0,0,0,0,0,0,0,0,0,0,0,0,0,0,0,0,0,0,0,0,0,0,0,0,0,0,0,0,0,0,0,0,0,0,0,0,0,0,0,0,0,0,0,0,0,0,0,0,0,0,0,0,0,0,0,0,0,0,0,0,0,0,0,0,0,0,0,0,0,0,0,0,0,0,0,0,0,0,0,0,0,0,0,0,0,0,0,0,0,0,0,0,0,0,0,0,0,0,0,0,0,0,0,0,0,0,0,0,0,0],"split_type":[0,0,0,0,0,0,0,0,0,0,0,0,0,0,0,0,0,0,0,0,0,0,0,0,0,0,0,0,0,0,0,0,0,0,0,0,0,0,0,0,0,0,0,0,0,0,0,0,0,0,0,0,0,0,0,0,0,0,0,0,0,0,0,0,0,0,0,0,0,0,0,0,0,0,0,0,0,0,0,0,0,0,0,0,0,0,0,0,0,0,0,0,0,0,0,0,0,0,0,0,0,0,0,0,0,0,0,0,0,0,0,0,0,0,0,0,0,0,0,0,0,0,0,0,0,0,0,0,0,0,0,0,0,0,0,0,0,0,0,0,0,0,0,0,0,0,0,0,0,0,0,0,0,0,0,0,0,0,0,0,0,0,0,0,0,0,0,0,0,0,0,0,0,0,0,0,0,0,0,0,0,0,0,0,0,0,0,0,0,0,0,0,0,0,0,0,0,0,0,0,0,0,0,0,0,0,0,0,0,0,0,0,0,0,0,0,0,0,0,0,0,0,0,0,0,0,0,0,0,0,0,0,0,0,0,0,0,0,0,0,0,0,0,0,0,0,0,0,0,0,0,0,0,0,0,0,0,0,0,0,0,0,0,0,0,0,0,0,0,0,0,0,0,0,0,0,0,0,0,0,0,0,0,0,0,0,0,0,0,0,0,0,0,0,0,0,0,0,0,0,0,0,0,0,0,0,0,0,0,0,0,0,0,0,0,0,0,0,0,0,0,0,0,0,0,0,0,0,0,0,0,0,0,0,0,0,0,0,0,0,0,0,0,0,0,0,0,0,0,0,0,0,0,0,0,0,0,0,0,0,0,0,0,0,0,0,0,0,0,0,0,0,0,0,0,0,0,0,0,0,0,0,0,0,0,0,0],"sum_hessian":[2.9375625E4,1.8963709E4,1.0411917E4,9.413711E3,9.549998E3,2.3378828E3,8.0740337E3,7.056294E2,8.708082E3,8.397041E3,1.152957E3,9.5687286E2,1.38101E3,3.1860388E2,7.75543E3,5.1664993E1,6.539644E2,2.7112588E3,5.9968228E3,1.7537119E3,6.6433286E3,9.3503674E2,2.1792026E2,9.2820807E2,2.8664751E1,6.020467E2,7.789633E2,4.627827E1,2.723256E2,4.7292183E3,3.0262117E3,5.4087204E1,5.998772E2,1.3738713E3,4.6229517E3,6.317663E2,1.1219457E3,6.486744E3,1.5658464E2,8.609378E2,7.4098946E1,1.6622928E2,5.169098E1,9.018449E2,2.6363201E1,3.569343E2,2.4511237E2,2.6625537E2,5.1270795E2,2.0407524E1,2.5870749E1,2.5019344E2,2.2132172E1,4.22573E3,5.0348804E2,2.7425122E3,2.836996E2,2.2596003E1,3.1491203E1,5.328936E2,6.69836E1,2.3095897E2,1.1429124E3,3.0898347E3,1.5331168E3,6.2260548E1,5.6950574E2,7.7708923E2,3.448564E2,1.9981011E3,4.488643E3,4.1003914E1,1.1558072E2,9.29798E1,7.67958E2,2.3188944E1,5.091E1,6.379172E1,1.0243755E2,3.026451E1,2.142647E1,8.8062714E2,2.1217749E1,3.2637558E1,3.2429672E2,3.282118E1,2.122912E2,7.488575E1,1.9136961E2,4.920983E2,2.0609665E1,6.230474E1,1.8788869E2,3.0518643E3,1.1738658E3,1.27972336E2,3.755157E2,1.9081985E3,8.343137E2,2.1599586E2,6.770373E1,2.7070822E2,2.6218536E2,2.5936256E1,4.1047337E1,1.2644969E2,1.04509285E2,7.0481573E2,4.3809665E2,1.6934697E3,1.396365E3,1.5123632E3,2.075367E1,4.0681713E1,2.1578833E1,5.1905493E2,5.0450794E1,1.5088603E2,6.262032E2,1.1397342E2,2.3088301E2,1.5916147E3,4.064863E2,5.2756726E2,3.9610757E3,2.0044605E1,2.0959307E1,9.2048E1,2.3532722E1,4.3675396E1,4.9304398E1,7.212894E2,4.6668617E1,2.3468344E1,2.7441656E1,3.951298E1,2.427874E1,6.0541275E1,4.1896275E1,2.8703016E1,8.5192413E2,2.0005615E1,3.042911E2,1.3042479E2,8.18664E1,2.3029364E1,5.1856384E1,4.5724106E1,1.4564551E2,3.6471347E2,1.273848E2,2.1165188E1,4.1139553E1,7.5632286E1,1.122564E2,2.8708618E3,1.8100238E2,5.4506354E2,6.288023E2,8.338462E1,4.458772E1,4.0978737E1,3.3453696E2,7.3818475E2,1.1700137E3,6.477967E2,1.8651704E2,3.5998985E1,1.7999687E2,3.760425E1,3.0099474E1,1.1929497E2,1.5141325E2,1.7905212E2,8.313324E1,2.0509739E1,2.05376E1,1.05384476E2,2.1065222E1,4.280099E1,6.170829E1,3.3238983E1,6.715768E2,3.415754E2,9.652123E1,1.2117722E3,4.8169748E2,1.3284608E3,6.790411E1,7.3902435E2,7.7333875E2,2.9155539E1,2.1295258E1,1.3064679E2,2.0239244E1,3.3866556E2,2.8753766E2,3.5320225E1,7.865319E1,1.5076129E2,8.012172E1,1.5170728E3,7.454198E1,1.45791E2,2.606953E2,1.9339006E2,3.3417722E2,2.988573E3,9.7250275E2,3.1668232E1,6.037977E1,2.331211E1,2.0363287E1,2.2304102E1,2.7000296E1,6.538865E2,6.740294E1,2.318268E1,2.3485939E1,2.238245E1,3.8158825E1,2.1705935E1,2.019034E1,8.222955E2,2.9628656E1,4.4977592E1,2.5931354E2,9.72787E1,3.314609E1,5.856489E1,2.3301508E1,2.1208353E1,3.064803E1,2.0207924E1,2.551618E1,1.1124725E2,3.439826E1,3.3142886E2,3.3284607E1,3.7495857E1,8.988895E1,2.0918789E1,2.0220766E1,2.0577894E1,5.505439E1,8.467152E1,2.7584887E1,1.25609E3,1.6147719E3,2.6542114E1,1.5446027E2,5.2299725E2,2.2066269E1,3.064665E2,3.2233585E2,2.0336123E1,6.3048496E1,2.2492159E1,2.2095562E1,8.908971E1,2.4544725E2,7.115211E2,2.6663631E1,9.9085535E2,1.7915834E2,6.009372E2,4.6859486E1,1.3994281E2,4.6574245E1,7.373405E1,1.0626283E2,2.3180113E1,9.611485E1,5.087748E1,1.0053578E2,4.132182E1,1.377303E2,3.099106E1,5.214218E1,7.71865E1,2.819797E1,2.1255354E1,2.1545637E1,2.079499E1,4.0913303E1,5.324988E2,1.3907799E2,3.069727E2,3.460273E1,7.603748E1,2.0483751E1,6.56128E2,5.556442E2,2.7910236E2,2.0259512E2,1.1655664E3,1.6289449E2,4.789115E1,2.001296E1,6.8481445E2,5.4209904E1,6.847755E2,8.8563225E1,8.550585E1,4.5140938E1,3.1199043E1,3.074665E2,2.7579573E1,2.5995807E2,2.2476425E1,5.617677E1,1.27332245E2,2.3429039E1,3.489758E1,4.522414E1,3.8484856E1,1.4785879E3,5.122702E1,2.3314959E1,1.1846265E2,2.732835E1,8.8788795E1,1.7190651E2,1.6263766E2,3.0752398E1,5.709532E1,2.7708188E2,1.9098342E3,1.0787386E3,6.7243066E2,3.000721E2,2.2926575E1,3.7453194E1,4.561833E2,1.977032E2,3.521764E1,3.2185303E1,2.0251833E1,2.472576E1,1.8786806E2,7.144547E1,3.8002678E1,5.9276024E1,2.6653524E1,8.4593735E1,2.8333176E2,4.809713E1,4.023206E1,4.9656887E1,3.495217E1,2.010222E1,2.0885246E1,6.378627E1,1.2238315E3,3.225843E1,1.5073218E3,1.0745007E2,3.760318E2,1.4696548E2,2.7018976E1,2.794475E2,5.983664E1,2.624992E2,2.4680328E1,3.8368168E1,4.970747E1,3.9382236E1,1.3892178E2,1.06525475E2,6.850474E2,2.6473705E1,2.943636E2,6.9649176E2,1.0862813E2,7.053021E1,2.2204582E2,3.7889136E2,2.0113619E1,2.6745867E1,9.702781E1,4.2914993E1,2.221054E1,2.4363703E1,3.1889809E1,4.1844242E1,7.132922E1,3.49336E1],"tree_param":{"num_deleted":"0","num_feature":"70","num_nodes":"387","size_leaf_vector":"1"}},{"base_weights":[-4.829913E-2,-5.6562334E-1,7.216651E-1,-8.323556E-1,-2.7754524E-1,2.6569849E-2,9.175291E-1,3.8225216E-1,-9.9326134E-1,-5.267079E-1,1.3042331E0,-1.1945544E0,8.597415E-1,-1.078913E0,9.9842054E-1,-1.6195065E-1,5.519717E-1,-1.6194853E-1,-8.456423E-1,-1.0543381E0,-3.673442E-1,1.6936958E0,-5.1154304E-1,-1.2829976E0,2.0081483E-1,2.4005072E-1,1.5950501E0,-5.8608776E-1,-1.2195859E0,6.04893E-1,1.2437841E0,-8.480708E-1,7.178647E-1,-4.1386908E-1,-9.82639E-1,-1.2731915E0,-9.341875E-1,-4.220212E-1,1.6083466E0,-1.6666228E-1,1.7785914E0,-7.353703E-1,1.4422922E-1,-1.3204448E0,-5.849262E-3,-7.441721E-1,1.7196124E0,1.844389E0,8.565673E-1,5.9918378E-2,-1.012632E0,-1.2664466E0,-9.316855E-2,7.000811E-1,-1.08806096E-1,1.3214226E0,4.6675318E-1,-1.0331867E0,-2.1143101E-2,9.467984E-1,1.9020621E-1,-6.0736805E-1,3.3849407E-2,-8.6295205E-1,-1.1651422E0,-8.433076E-1,-1.3221775E0,-1.0647016E0,-6.386165E-1,-9.160177E-1,-2.0029193E-1,1.9274547E0,3.8868915E-2,8.181563E-1,1.9308115E0,-9.056627E-1,2.591979E-3,-1.3230691E0,-1.527778E-1,1.3080382E0,-1.1700591E0,1.8511549E0,-4.008594E-3,1.0088498E-1,1.9240731E0,-3.6001474E-2,1.0253152E0,-6.478841E-2,-1.5900175E-1,-1.3712904E0,-1.1520332E0,4.8476902E-1,1.2386652E0,7.3745054E-1,-3.7640527E-1,1.1060915E0,1.7505049E0,7.3460364E-1,-2.9648453E-1,-1.2299373E0,-6.512152E-2,1.0016254E0,-1.5795156E-2,-1.4234522E-1,1.2688131E0,-1.0455317E0,-4.834202E-1,1.5323981E0,-1.4248893E-1,-9.5984405E-1,-7.091185E-1,-1.1830639E0,1.6360065E-2,-1.6193499E-1,9.052142E-3,-1.6198716E-1,-1.3364234E0,-9.5882165E-1,-1.2285142E0,-1.2034262E0,-3.7517005E-1,-1.3011765E0,3.2306945E-1,-1.2109671E0,-6.326774E-2,1.5046306E-1,2.0910058E0,4.880387E-1,1.2391045E0,1.9893085E0,1.0634246E0,-1.0908697E0,-4.3518606E-1,-1.3222858E0,-1.6656741E-1,-4.048114E-3,1.9304143E0,-2.5310382E-2,-1.2606171E0,1.9132161E0,1.1897151E-1,1.9775171E0,1.0279831E-1,1.3942924E0,6.100034E-1,-1.483934E-1,-1.4037265E0,-9.741309E-1,-1.2705662E0,5.7415056E-1,-1.3531541E0,1.9539064E0,1.1253471E0,1.1756104E-2,1.1785766E0,-5.7548386E-1,3.08145E-1,1.2045984E0,-1.1715156E0,1.6632489E0,1.9270766E0,6.7271896E-2,1.0167619E0,4.4616288E-1,-6.695829E-1,-1.7162995E-1,-1.227084E-1,8.303243E-1,1.2193308E0,-5.973712E-1,1.6684577E-1,2.5860777E-1,3.7527237E-2,-1.1214265E0,-5.69305E-2,-2.3830171E-1,-7.512091E-1,3.5728493E-1,1.2010789E-2,7.398317E-1,-2.8456798E-1,-3.9283574E-1,-9.8023057E-1,-7.390896E-1,4.66018E-2,-1.3129491E0,-1.1071258E0,-1.6203462E-1,-1.664767E-1,1.7427813E-2,-1.0423763E0,-1.3138423E0,-1.1171029E0,-1.12449944E-1,-1.3210778E0,-8.298598E-2,-9.652559E-1,-1.6203578E-1,-1.1630356E0,1.701672E0,-4.9704528E-1,-1.2395749E0,-1.0054334E-1,1.9522738E-1,-8.0511916E-1,2.3324941E-1,2.1448526E0,8.1027234E-1,-6.4601086E-4,8.384755E-2,1.9797143E-1,2.0364966E0,1.576835E0,1.838999E-1,8.45745E-2,-1.2185894E0,-7.0048116E-2,-8.3882794E-2,-2.2561314E-2,-1.6445275E-1,-1.6207889E-1,2.499666E-1,2.1245217E-1,-6.278655E-2,-1.3284084E0,2.0395105E0,1.7748755E0,2.0266101E0,1.3108413E-1,1.7331825E0,4.6318553E-2,1.8184837E-2,8.851681E-1,-1.4204274E0,-1.6504768E-1,-1.522209E-1,-9.205347E-2,-1.3456792E-1,-1.3396997E0,6.212539E-1,-1.0146815E0,-1.781278E-1,-1.6266401E-1,1.4585173E-1,2.3271785E0,5.832703E-1,1.2745628E0,5.894898E-2,2.1716644E-1,-3.4303653E-1,-9.185994E-1,1.8075287E-1,-6.2102295E-2,1.2481221E0,1.5695836E-2,-2.5397325E-2,-1.3423184E0,2.0731697E0,1.6295708E0,1.9839958E0,1.5454005E0,1.06990956E-1,-1.445131E-1,1.3752694E0,8.5400665E-1,-1.7068146E-2,1.3267146E-1,-3.502214E-1,-1.5772343E-1,1.1339299E-1,2.0105876E-3,1.3552868E-1,2.1692622E-1,-1.04193665E-1,1.2111126E-2,-1.0797599E-3,1.1301519E-1,-1.5689765E-1,-1.2790966E-1,9.296475E-2,-3.7378028E-2,-1.0011136E-1,2.3016606E-2,-8.05964E-4,1.5967625E-1,-5.0603453E-2,7.1108684E-2,-1.3155188E-1,3.4138296E-2,-1.2795693E-1,-1.0945377E-1,1.336372E-2,-9.506098E-2,-1.619434E-1,-1.5211973E-1,-1.1112328E-1,-1.3903338E-1,-1.582555E-1,-1.1550784E-1,-1.3500614E-1,-1.6480754E-1,-1.5382901E-1,-1.0614397E-1,-1.5143447E-1,-1.6621721E-1,-4.066063E-2,1.4558254E-1,-5.1699035E-2,-1.4365676E-1,-1.6256356E-1,-9.6625715E-2,1.5492222E-1,2.3749126E-1,-1.3053848E-1,2.0534271E-1,-1.3421492E-1,-1.6090016E-1,1.4371847E-2,2.674897E-1,1.498096E-1,-1.06159955E-1,2.5950688E-1,2.7087393E-1,7.229954E-2,1.2809865E-1,2.525817E-1,1.7973423E-1,2.35522E-1,8.5302554E-2,-1.16356455E-1,-1.6393971E-1,-1.6399917E-1,-1.5564084E-1,2.2182769E-1,2.6208675E-1,2.4732177E-1,6.962965E-2,2.2388968E-1,2.573239E-1,1.5820447E-1,2.3975617E-1,6.052655E-2,1.5933697E-1,-1.7118612E-1,-1.7989704E-1,-1.6595536E-1,-1.6252975E-1,7.119446E-2,2.4881288E-1,-7.070706E-2,-1.6557272E-1,2.5814548E-1,3.0570665E-1,-4.7910027E-3,1.3947207E-1,1.3051738E-1,1.9587071E-1,-1.1076543E-1,-2.3407198E-2,-1.6751003E-1,-7.819232E-2,9.851079E-2,1.698406E-1,4.6074502E-2,-1.7205416E-1,-1.6263236E-1,-1.66858E-1,2.1361016E-1,2.6752162E-1,2.1987917E-1,1.8321143E-1,2.5124156E-1,2.3704948E-1,2.6135835E-1,1.5016137E-1,7.3174844E-3,-9.057674E-2,2.2234878E-1,1.3653806E-1,2.9155685E-2,1.4601071E-1,1.2020265E-3,-8.266998E-2],"categories":[],"categories_nodes":[],"categories_segments":[],"categories_sizes":[],"default_left":[0,0,0,0,0,0,0,0,0,0,0,0,0,0,0,0,0,0,0,0,0,0,0,0,0,0,0,0,0,0,0,0,0,0,0,0,0,0,0,0,0,0,0,0,0,0,0,0,0,0,0,0,0,0,0,0,0,0,0,0,0,0,0,0,0,0,0,0,0,0,0,0,0,0,0,0,0,0,0,0,0,0,0,0,0,0,0,0,0,0,0,0,0,0,0,0,0,0,0,0,0,0,0,0,0,0,0,0,0,0,0,0,0,0,0,0,0,0,0,0,0,0,0,0,0,0,0,0,0,0,0,0,0,0,0,0,0,0,0,0,0,0,0,0,0,0,0,0,0,0,0,0,0,0,0,0,0,0,0,0,0,0,0,0,0,0,0,0,0,0,0,0,0,0,0,0,0,0,0,0,0,0,0,0,0,0,0,0,0,0,0,0,0,0,0,0,0,0,0,0,0,0,0,0,0,0,0,0,0,0,0,0,0,0,0,0,0,0,0,0,0,0,0,0,0,0,0,0,0,0,0,0,0,0,0,0,0,0,0,0,0,0,0,0,0,0,0,0,0,0,0,0,0,0,0,0,0,0,0,0,0,0,0,0,0,0,0,0,0,0,0,0,0,0,0,0,0,0,0,0,0,0,0,0,0,0,0,0,0,0,0,0,0,0,0,0,0,0,0,0,0,0,0,0,0,0,0,0,0,0,0,0,0,0,0,0,0,0,0,0,0,0,0,0,0,0,0,0,0,0,0,0,0,0,0,0,0,0,0,0,0,0,0,0,0,0,0,0,0,0,0,0,0,0,0,0,0,0,0,0,0,0,0,0,0,0,0,0,0,0,0,0,0,0,0,0,0,0,0,0,0,0,0],"id":2,"left_children":[1,3,5,7,9,11,13,15,17,19,21,23,25,27,29,-1,31,-1,33,35,37,39,41,43,-1,45,47,49,51,53,55,57,59,61,63,65,67,69,71,-1,73,75,-1,77,-1,79,81,83,85,-1,87,89,-1,91,93,95,97,99,-1,101,103,105,107,109,111,113,115,117,119,121,123,125,-1,127,129,131,-1,133,-1,135,137,139,-1,-1,141,-1,143,-1,-1,145,147,149,151,153,155,157,159,161,163,165,-1,167,-1,169,171,173,175,177,179,181,183,185,-1,-1,-1,-1,187,189,191,193,195,197,199,201,203,-1,205,207,209,211,213,215,217,219,-1,-1,221,-1,223,225,-1,227,-1,229,231,-1,233,235,237,239,241,243,245,-1,247,249,251,253,255,257,259,261,263,265,267,-1,-1,269,271,273,275,-1,-1,277,-1,279,281,-1,-1,283,285,287,289,291,-1,293,295,-1,-1,-1,297,299,301,-1,303,305,307,-1,309,311,313,315,-1,317,319,-1,321,323,-1,-1,-1,325,327,-1,-1,329,-1,-1,-1,-1,-1,-1,-1,-1,331,333,335,337,-1,339,-1,-1,341,343,-1,-1,-1,-1,345,347,349,-1,-1,-1,351,353,355,-1,-1,357,359,-1,-1,361,363,-1,365,367,369,371,373,-1,375,377,379,-1,-1,381,-1,-1,-1,-1,-1,-1,-1,-1,-1,-1,-1,-1,-1,-1,-1,-1,-1,-1,-1,-1,-1,-1,-1,-1,-1,-1,-1,-1,-1,-1,-1,-1,-1,-1,-1,-1,-1,-1,-1,-1,-1,-1,-1,-1,-1,-1,-1,-1,-1,-1,-1,-1,-1,-1,-1,-1,-1,-1,-1,-1,-1,-1,-1,-1,-1,-1,-1,-1,-1,-1,-1,-1,-1,-1,-1,-1,-1,-1,-1,-1,-1,-1,-1,-1,-1,-1,-1,-1,-1,-1,-1,-1,-1,-1,-1,-1,-1,-1,-1,-1,-1,-1,-1,-1,-1,-1,-1,-1,-1,-1,-1,-1,-1,-1,-1],"loss_changes":[1.1448383E4,1.3209629E3,1.57252E3,1.7445317E3,3.257359E3,2.583391E3,1.4552734E3,3.017397E2,3.8059033E2,6.003788E2,7.953827E2,2.5793042E2,6.8775745E2,2.4322388E1,8.3621387E2,0E0,2.2053912E2,0E0,3.212544E2,4.354712E1,5.9239294E2,2.3999756E2,7.5026436E1,4.6194458E1,0E0,1.1927633E3,1.2709546E2,3.572143E1,5.878601E0,2.2595312E2,3.2180566E2,1.2580406E1,1.0255014E2,1.1333113E2,9.0052246E1,1.2355591E1,4.12453E1,5.8448804E2,6.0855347E1,0E0,1.3172046E2,2.2594353E1,0E0,1.821289E-1,0E0,4.2991125E2,7.542316E1,4.2011963E1,3.381806E1,0E0,7.6624565E0,2.9636536E0,0E0,3.403014E2,8.863478E1,4.4808496E2,9.906608E1,7.798485E0,0E0,3.4915955E1,9.214453E1,4.960315E1,1.0431931E2,3.7109863E1,3.800293E1,2.6272964E1,2.5024414E-3,1.2859009E1,4.8734802E1,7.8894885E2,5.100531E2,1.3559143E1,0E0,1.712664E1,3.945288E1,1.2470535E1,0E0,1.6601562E-2,0E0,7.055849E1,3.554706E1,1.663501E1,0E0,0E0,2.7774902E1,0E0,2.3279922E1,0E0,0E0,6.683502E-1,2.491928E0,3.4440332E2,6.791797E1,2.6611572E1,4.0525833E1,7.245161E2,2.4953125E1,6.75397E1,3.4881027E1,2.1976776E0,0E0,2.100354E1,0E0,2.7625278E1,4.893544E1,8.883209E0,4.6734207E1,8.2304855E1,4.427755E1,1.7656738E1,3.1410065E1,1.5879395E1,0E0,0E0,0E0,0E0,7.133484E-3,4.1447174E1,2.7606812E0,3.5067444E0,3.8510433E1,3.458496E0,4.4321417E2,4.9159546E0,6.2195966E2,0E0,9.6099854E-1,1.0984814E1,1.1278572E1,1.4166992E1,8.004147E0,6.814354E0,2.525731E0,5.9814453E-3,0E0,0E0,1.2157898E0,0E0,1.889508E1,4.95166E0,0E0,2.0345337E1,0E0,2.7716705E1,9.082071E0,0E0,9.5077515E-2,2.8236732E0,8.448944E-1,1.4962402E2,2.50412E-1,3.270749E1,5.851648E1,0E0,2.301677E1,1.8371277E1,6.3601887E1,1.6016895E2,2.2050873E1,1.4958496E1,1.162915E1,1.8175562E1,1.4703796E1,1.5659907E1,1.648944E1,0E0,0E0,2.4163849E1,1.5573639E1,1.3943394E1,1.5496212E1,0E0,0E0,2.201477E0,0E0,2.4606052E1,2.0764648E1,0E0,0E0,2.0550781E1,3.3657166E1,2.4193659E1,8.1571045E0,2.854364E1,0E0,3.1018066E-1,5.3936768E0,0E0,0E0,0E0,1.044104E1,1.0406189E0,4.3521423E0,0E0,2.0921326E-1,4.7150623E1,8.28138E0,0E0,9.667938E0,1.5032776E1,3.0271585E2,4.2941895E0,0E0,3.727729E2,1.0258612E2,0E0,1.18255615E-1,2.15691E0,0E0,0E0,0E0,8.497314E0,2.2634262E1,0E0,0E0,2.6196518E0,0E0,0E0,0E0,0E0,0E0,0E0,0E0,0E0,1.6766357E-1,3.3217163E0,3.956595E1,6.197998E0,0E0,5.9150085E0,0E0,0E0,7.258293E0,8.5739136E-2,0E0,0E0,0E0,0E0,1.0375977E-3,1.1150305E2,8.451523E0,0E0,0E0,0E0,2.8098755E0,5.3830364E1,3.8481262E1,0E0,0E0,1.1704618E1,1.1687614E1,0E0,0E0,1.8147021E2,5.581487E1,0E0,2.4765015E-2,2.929779E0,2.2195557E1,1.5238037E0,1.306752E1,0E0,1.0235832E1,9.015457E0,3.5949013E1,0E0,0E0,6.435167E0,0E0,0E0,0E0,0E0,0E0,0E0,0E0,0E0,0E0,0E0,0E0,0E0,0E0,0E0,0E0,0E0,0E0,0E0,0E0,0E0,0E0,0E0,0E0,0E0,0E0,0E0,0E0,0E0,0E0,0E0,0E0,0E0,0E0,0E0,0E0,0E0,0E0,0E0,0E0,0E0,0E0,0E0,0E0,0E0,0E0,0E0,0E0,0E0,0E0,0E0,0E0,0E0,0E0,0E0,0E0,0E0,0E0,0E0,0E0,0E0,0E0,0E0,0E0,0E0,0E0,0E0,0E0,0E0,0E0,0E0,0E0,0E0,0E0,0E0,0E0,0E0,0E0,0E0,0E0,0E0,0E0,0E0,0E0,0E0,0E0,0E0,0E0,0E0,0E0,0E0,0E0,0E0,0E0,0E0,0E0,0E0,0E0,0E0,0E0,0E0,0E0,0E0,0E0,0E0,0E0,0E0,0E0,0E0,0E0,0E0,0E0,0E0,0E0,0E0,0E0],"parents":[2147483647,0,0,1,1,2,2,3,3,4,4,5,5,6,6,7,7,8,8,9,9,10,10,11,11,12,12,13,13,14,14,16,16,18,18,19,19,20,20,21,21,22,22,23,23,25,25,26,26,27,27,28,28,29,29,30,30,31,31,32,32,33,33,34,34,35,35,36,36,37,37,38,38,40,40,41,41,43,43,45,45,46,46,47,47,48,48,50,50,51,51,53,53,54,54,55,55,56,56,57,57,59,59,60,60,61,61,62,62,63,63,64,64,65,65,66,66,67,67,68,68,69,69,70,70,71,71,73,73,74,74,75,75,77,77,79,79,80,80,81,81,84,84,86,86,89,89,90,90,91,91,92,92,93,93,94,94,95,95,96,96,97,97,98,98,99,99,101,101,103,103,104,104,105,105,106,106,107,107,108,108,109,109,110,110,111,111,116,116,117,117,118,118,119,119,120,120,121,121,122,122,123,123,124,124,126,126,127,127,128,128,129,129,130,130,131,131,132,132,133,133,136,136,138,138,139,139,141,141,143,143,144,144,146,146,147,147,148,148,149,149,150,150,151,151,152,152,154,154,155,155,156,156,157,157,158,158,159,159,160,160,161,161,162,162,163,163,164,164,167,167,168,168,169,169,170,170,173,173,175,175,176,176,179,179,180,180,181,181,182,182,183,183,185,185,186,186,190,190,191,191,192,192,194,194,195,195,196,196,198,198,199,199,200,200,201,201,203,203,204,204,206,206,207,207,211,211,212,212,215,215,224,224,225,225,226,226,227,227,229,229,232,232,233,233,238,238,239,239,240,240,244,244,245,245,246,246,249,249,250,250,253,253,254,254,256,256,257,257,258,258,259,259,260,260,262,262,263,263,264,264,267,267],"right_children":[2,4,6,8,10,12,14,16,18,20,22,24,26,28,30,-1,32,-1,34,36,38,40,42,44,-1,46,48,50,52,54,56,58,60,62,64,66,68,70,72,-1,74,76,-1,78,-1,80,82,84,86,-1,88,90,-1,92,94,96,98,100,-1,102,104,106,108,110,112,114,116,118,120,122,124,126,-1,128,130,132,-1,134,-1,136,138,140,-1,-1,142,-1,144,-1,-1,146,148,150,152,154,156,158,160,162,164,166,-1,168,-1,170,172,174,176,178,180,182,184,186,-1,-1,-1,-1,188,190,192,194,196,198,200,202,204,-1,206,208,210,212,214,216,218,220,-1,-1,222,-1,224,226,-1,228,-1,230,232,-1,234,236,238,240,242,244,246,-1,248,250,252,254,256,258,260,262,264,266,268,-1,-1,270,272,274,276,-1,-1,278,-1,280,282,-1,-1,284,286,288,290,292,-1,294,296,-1,-1,-1,298,300,302,-1,304,306,308,-1,310,312,314,316,-1,318,320,-1,322,324,-1,-1,-1,326,328,-1,-1,330,-1,-1,-1,-1,-1,-1,-1,-1,332,334,336,338,-1,340,-1,-1,342,344,-1,-1,-1,-1,346,348,350,-1,-1,-1,352,354,356,-1,-1,358,360,-1,-1,362,364,-1,366,368,370,372,374,-1,376,378,380,-1,-1,382,-1,-1,-1,-1,-1,-1,-1,-1,-1,-1,-1,-1,-1,-1,-1,-1,-1,-1,-1,-1,-1,-1,-1,-1,-1,-1,-1,-1,-1,-1,-1,-1,-1,-1,-1,-1,-1,-1,-1,-1,-1,-1,-1,-1,-1,-1,-1,-1,-1,-1,-1,-1,-1,-1,-1,-1,-1,-1,-1,-1,-1,-1,-1,-1,-1,-1,-1,-1,-1,-1,-1,-1,-1,-1,-1,-1,-1,-1,-1,-1,-1,-1,-1,-1,-1,-1,-1,-1,-1,-1,-1,-1,-1,-1,-1,-1,-1,-1,-1,-1,-1,-1,-1,-1,-1,-1,-1,-1,-1,-1,-1,-1,-1,-1,-1],"split_conditions":[2.29E-2,3.5535E1,2E-1,4.4E1,1.14E2,1E0,1E0,2.5E-1,2E-1,7.3E-3,2E-1,9.8E1,4.9E1,3.6685602E2,4.99E-2,-1.6195065E-1,1E0,-1.6194853E-1,8.6E1,2E-1,2.8962356E-1,1E0,2E0,3.7037036E-1,2.0081483E-1,1.581E-1,3.1E2,2.245586E-3,4.9E1,1E0,1E0,2.909091E0,3.3E1,1E0,3.98805E2,-1.738116E-1,5.5E-3,2E-1,2E-1,-1.6666228E-1,5.685397E-1,6E-1,1.4422922E-1,4.0399528E-1,-5.849262E-3,-7.396738E-2,1.8189591E-1,2.69E-2,-2.4633169E-1,5.9918378E-2,7.17E-1,5.483661E2,-9.316855E-2,1E0,1.4E1,1E0,1.0880271E0,2.7272728E-1,-2.1143101E-2,4.4559467E-1,1E0,1E0,1.0752688E-2,1.019E0,4.5450613E-1,4.8E-3,1E0,1E0,1E0,7.8E1,1E0,7.2110033E-1,3.8868915E-2,4.4E-3,1.3141464E-1,1.196046E2,2.591979E-3,6.9E1,-1.527778E-1,3.0137458E0,-2.3384778E-1,5.685E2,-4.008594E-3,1.0088498E-1,1.2705696E-1,-3.6001474E-2,5.82571E-1,-6.478841E-2,-1.5900175E-1,1.1E1,4.4E1,6E-1,2.34076E-1,3.425E2,1E0,6E-1,4.0667507E3,-5.011545E-2,2.3E1,-4.8631165E-2,-6.512152E-2,3.416173E-1,-1.5795156E-2,8.77193E-2,7E0,1.41484E-1,1E0,1.374E0,5.5E1,1.375E0,6.691992E-2,1E0,1.6360065E-2,-1.6193499E-1,9.052142E-3,-1.6198716E-1,5.827563E-2,3E0,2.6666667E0,6E0,1E0,7E1,2E0,2.3E1,1E0,1.5046306E-1,4.4247E2,2E0,6.1124225E2,7E0,2.15E2,4.2914194E-1,-5.864643E-4,6E0,-1.6656741E-1,-4.048114E-3,1.466E-1,-2.5310382E-2,8E0,2.52E2,1.1897151E-1,1.3849573E-1,1.0279831E-1,5.62E2,-1.4987911E-1,-1.483934E-1,1E0,4.23E-2,1.7E1,5.483661E2,2.7E-2,-4.4316184E-2,2.6486337E-1,1.1756104E-2,3.7620673E-1,1.9E1,4E0,5.49E2,2.5E1,2.9867163E2,6.5E-1,7.1001E2,4.475E2,3.6920172E-1,-7.829575E-2,-1.7162995E-1,-1.227084E-1,1.9917582E0,8E0,2E-1,5.2598465E-2,2.5860777E-1,3.7527237E-2,2.995E2,-5.69305E-2,-2.5529838E-1,1.8671371E-1,3.5728493E-1,1.2010789E-2,-4.3848157E-2,2.4183102E-1,2.2172488E-1,4E0,4E-1,4.66018E-2,1E0,3.2878697E-1,-1.6203462E-1,-1.664767E-1,1.7427813E-2,1E0,2.75E2,7E0,-1.12449944E-1,6.75E-1,2.1930319E-1,-4.001751E-2,-1.6203578E-1,1.57E-2,-2.336488E-1,4.699968E2,9E0,-1.0054334E-1,2E0,1.6E1,2.3324941E-1,1.7272727E0,1.3225807E0,-6.4601086E-4,8.384755E-2,1.9797143E-1,1.5885024E-1,2.3403E2,1.838999E-1,8.45745E-2,1.6E1,-7.0048116E-2,-8.3882794E-2,-2.2561314E-2,-1.6445275E-1,-1.6207889E-1,2.499666E-1,2.1245217E-1,-6.278655E-2,1.7085573E-1,2.983E-1,1.1424553E0,-6.0514573E-2,1.3108413E-1,5.4E1,4.6318553E-2,1.8184837E-2,1.2E0,1.126853E3,-1.6504768E-1,-1.522209E-1,-9.205347E-2,-1.3456792E-1,7E0,1.2807603E-1,1.4E1,-1.781278E-1,-1.6266401E-1,1.4585173E-1,-7.215288E-2,6E-1,3.0520607E-2,5.894898E-2,2.1716644E-1,2.23113E-1,2.3636363E0,1.8075287E-1,-6.2102295E-2,3.2E1,7E1,-2.5397325E-2,9.38E-2,8.85E-1,2.4E0,2.047619E0,3.2341833E2,1.06990956E-1,-2.5881904E-1,2.3E1,2E0,-1.7068146E-2,1.3267146E-1,2.895E2,-1.5772343E-1,1.1339299E-1,2.0105876E-3,1.3552868E-1,2.1692622E-1,-1.04193665E-1,1.2111126E-2,-1.0797599E-3,1.1301519E-1,-1.5689765E-1,-1.2790966E-1,9.296475E-2,-3.7378028E-2,-1.0011136E-1,2.3016606E-2,-8.05964E-4,1.5967625E-1,-5.0603453E-2,7.1108684E-2,-1.3155188E-1,3.4138296E-2,-1.2795693E-1,-1.0945377E-1,1.336372E-2,-9.506098E-2,-1.619434E-1,-1.5211973E-1,-1.1112328E-1,-1.3903338E-1,-1.582555E-1,-1.1550784E-1,-1.3500614E-1,-1.6480754E-1,-1.5382901E-1,-1.0614397E-1,-1.5143447E-1,-1.6621721E-1,-4.066063E-2,1.4558254E-1,-5.1699035E-2,-1.4365676E-1,-1.6256356E-1,-9.6625715E-2,1.5492222E-1,2.3749126E-1,-1.3053848E-1,2.0534271E-1,-1.3421492E-1,-1.6090016E-1,1.4371847E-2,2.674897E-1,1.498096E-1,-1.06159955E-1,2.5950688E-1,2.7087393E-1,7.229954E-2,1.2809865E-1,2.525817E-1,1.7973423E-1,2.35522E-1,8.5302554E-2,-1.16356455E-1,-1.6393971E-1,-1.6399917E-1,-1.5564084E-1,2.2182769E-1,2.6208675E-1,2.4732177E-1,6.962965E-2,2.2388968E-1,2.573239E-1,1.5820447E-1,2.3975617E-1,6.052655E-2,1.5933697E-1,-1.7118612E-1,-1.7989704E-1,-1.6595536E-1,-1.6252975E-1,7.119446E-2,2.4881288E-1,-7.070706E-2,-1.6557272E-1,2.5814548E-1,3.0570665E-1,-4.7910027E-3,1.3947207E-1,1.3051738E-1,1.9587071E-1,-1.1076543E-1,-2.3407198E-2,-1.6751003E-1,-7.819232E-2,9.851079E-2,1.698406E-1,4.6074502E-2,-1.7205416E-1,-1.6263236E-1,-1.66858E-1,2.1361016E-1,2.6752162E-1,2.1987917E-1,1.8321143E-1,2.5124156E-1,2.3704948E-1,2.6135835E-1,1.5016137E-1,7.3174844E-3,-9.057674E-2,2.2234878E-1,1.3653806E-1,2.9155685E-2,1.4601071E-1,1.2020265E-3,-8.266998E-2],"split_indices":[30,64,2,34,22,26,27,2,2,30,2,22,22,25,30,0,27,0,34,2,44,26,31,24,0,30,1,52,34,26,26,13,22,6,25,44,30,2,2,0,63,2,0,41,0,52,59,30,39,0,33,25,0,20,34,20,63,15,0,55,6,27,24,33,56,30,6,26,27,22,27,63,0,30,42,64,0,22,0,63,49,1,0,0,47,0,66,0,0,29,29,2,55,1,6,2,64,48,29,43,0,56,0,24,19,52,26,33,34,13,46,17,0,0,0,0,42,17,13,29,26,22,6,4,26,0,12,17,12,19,1,56,39,29,0,0,36,0,29,1,0,44,0,1,43,0,8,30,4,25,30,40,66,0,66,29,19,25,29,25,2,12,1,38,49,0,0,63,11,15,42,0,0,1,0,39,49,0,0,44,38,38,17,2,0,6,66,0,0,0,27,1,54,0,33,43,53,0,30,39,64,29,0,20,22,0,13,13,0,0,0,59,1,0,0,4,0,0,0,0,0,0,0,0,42,30,63,49,0,22,0,0,13,64,0,0,0,0,19,49,34,0,0,0,41,2,46,0,0,38,13,0,0,29,29,0,30,33,13,13,25,0,61,29,0,0,0,1,0,0,0,0,0,0,0,0,0,0,0,0,0,0,0,0,0,0,0,0,0,0,0,0,0,0,0,0,0,0,0,0,0,0,0,0,0,0,0,0,0,0,0,0,0,0,0,0,0,0,0,0,0,0,0,0,0,0,0,0,0,0,0,0,0,0,0,0,0,0,0,0,0,0,0,0,0,0,0,0,0,0,0,0,0,0,0,0,0,0,0,0,0,0,0,0,0,0,0,0,0,0,0,0,0,0,0,0,0,0,0,0,0,0,0],"split_type":[0,0,0,0,0,0,0,0,0,0,0,0,0,0,0,0,0,0,0,0,0,0,0,0,0,0,0,0,0,0,0,0,0,0,0,0,0,0,0,0,0,0,0,0,0,0,0,0,0,0,0,0,0,0,0,0,0,0,0,0,0,0,0,0,0,0,0,0,0,0,0,0,0,0,0,0,0,0,0,0,0,0,0,0,0,0,0,0,0,0,0,0,0,0,0,0,0,0,0,0,0,0,0,0,0,0,0,0,0,0,0,0,0,0,0,0,0,0,0,0,0,0,0,0,0,0,0,0,0,0,0,0,0,0,0,0,0,0,0,0,0,0,0,0,0,0,0,0,0,0,0,0,0,0,0,0,0,0,0,0,0,0,0,0,0,0,0,0,0,0,0,0,0,0,0,0,0,0,0,0,0,0,0,0,0,0,0,0,0,0,0,0,0,0,0,0,0,0,0,0,0,0,0,0,0,0,0,0,0,0,0,0,0,0,0,0,0,0,0,0,0,0,0,0,0,0,0,0,0,0,0,0,0,0,0,0,0,0,0,0,0,0,0,0,0,0,0,0,0,0,0,0,0,0,0,0,0,0,0,0,0,0,0,0,0,0,0,0,0,0,0,0,0,0,0,0,0,0,0,0,0,0,0,0,0,0,0,0,0,0,0,0,0,0,0,0,0,0,0,0,0,0,0,0,0,0,0,0,0,0,0,0,0,0,0,0,0,0,0,0,0,0,0,0,0,0,0,0,0,0,0,0,0,0,0,0,0,0,0,0,0,0,0,0,0,0,0,0,0,0,0,0,0,0,0,0,0,0,0,0,0,0,0,0,0,0,0,0,0,0,0,0,0,0,0,0,0,0,0,0,0,0,0],"sum_hessian":[2.8741584E4,1.719117E4,1.1550414E4,8.926286E3,8.264883E3,2.539187E3,9.011228E3,1.0441835E3,7.8821025E3,7.140163E3,1.1247198E3,1.0298303E3,1.5093567E3,3.5089536E2,8.660332E3,9.464764E1,9.495359E2,2.4510173E3,5.4310854E3,1.6563157E3,5.4838477E3,9.260861E2,1.9863377E2,9.986427E2,3.1187649E1,8.190758E2,6.902809E2,7.792437E1,2.7297098E2,3.325972E3,5.33436E3,1.00590355E2,8.489455E2,1.3081626E3,4.122923E3,5.870213E2,1.0692944E3,5.336173E3,1.476748E2,2.505764E1,9.010285E2,1.7537408E2,2.3259682E1,9.692594E2,2.9383333E1,4.9187515E2,3.2720065E2,5.1604034E2,1.7424052E2,2.2140997E1,5.5783367E1,2.4772592E2,2.5245064E1,2.9345806E3,3.9139154E2,4.8497812E3,4.84579E2,7.895582E1,2.1634531E1,5.920638E2,2.5688177E2,9.1340186E2,3.9476077E2,2.4899917E3,1.6329312E3,6.0057823E1,5.269635E2,7.417503E2,3.2754407E2,1.6531223E3,3.6830503E3,1.18413246E2,2.9261564E1,1.2327173E2,7.777568E2,1.43151E2,3.222309E1,9.3636127E2,3.2898125E1,8.4532295E1,4.0734286E2,3.043537E2,2.2846958E1,3.7332706E1,4.7870764E2,2.2293291E1,1.5194724E2,2.0608442E1,3.5174927E1,1.2924533E2,1.1848059E2,2.096473E3,8.381076E2,9.402778E1,2.9736377E2,3.2292334E3,1.6205476E3,3.5869894E2,1.2588007E2,5.6726894E1,2.2228926E1,5.6334863E2,2.8715155E1,1.9634671E2,6.0535053E1,2.0140146E2,7.1200037E2,4.155997E1,3.532008E2,1.5277285E3,9.622631E2,1.610702E3,2.2229061E1,3.9510326E1,2.0547497E1,4.7705496E2,4.9908497E1,4.505606E2,2.9118973E2,1.0417811E2,2.2336597E2,1.2611166E3,3.9200568E2,4.3971658E2,3.2433337E3,2.2414164E1,9.5999084E1,6.909526E1,5.417647E1,7.286133E2,4.9143497E1,1.027112E2,4.04398E1,9.1598676E2,2.0374495E1,2.6795927E1,5.7736366E1,3.499153E1,3.7235135E2,2.8432388E2,2.0029806E1,4.5625027E2,2.2457361E1,8.045653E1,7.149071E1,2.1649187E1,1.0759615E2,4.7391525E1,7.1089066E1,1.9992485E3,9.72243E1,1.14615524E2,7.234921E2,3.8311497E1,5.5716286E1,2.3037042E2,6.699334E1,3.0953606E3,1.3387283E2,1.0846093E3,5.3593835E2,1.06596344E2,2.5210258E2,4.2092262E1,8.378781E1,3.262811E1,2.4098785E1,3.1528665E2,2.4806197E2,7.943929E1,1.1690741E2,3.2334465E1,2.820059E1,1.7814146E2,2.325999E1,3.7174075E2,3.4025964E2,2.1176073E1,2.0383896E1,4.898416E1,3.0421664E2,5.302666E1,1.4747019E3,9.3649286E2,2.5770298E1,5.942403E2,1.01646173E3,2.8891083E1,2.1017416E1,3.178238E1,4.1877823E2,1.6487207E2,1.26317665E2,3.03287E1,7.38494E1,1.4939693E2,7.396904E1,1.1023202E3,1.5879643E2,1.4621614E2,2.4578954E2,4.0974567E2,2.9970926E1,2.4052388E3,8.380949E2,2.1287542E1,7.471154E1,4.1794693E1,2.7300564E1,2.1836805E1,3.233967E1,6.5380115E2,7.481213E1,2.268418E1,2.6459316E1,8.244579E1,2.026541E1,2.0317417E1,2.0122383E1,4.0526707E1,8.7546E2,3.741003E1,2.0326336E1,3.0918314E1,3.41433E2,1.4860571E2,1.3571817E2,4.3286188E2,2.3388403E1,6.0339676E1,2.0116852E1,2.6698362E1,4.4792343E1,8.349863E1,2.4097527E1,2.1595198E1,2.5796328E1,2.0280735E1,5.080833E1,1.941687E3,5.756154E1,2.0744907E1,7.647939E1,3.759833E1,7.701719E1,1.5617108E2,5.6732104E2,2.557262E1,3.0143665E1,1.3733868E2,9.3031746E1,2.755702E1,3.9436317E1,2.9860454E3,1.0931511E2,2.0143696E1,1.1372913E2,8.232625E1,1.002283E3,4.66372E2,6.9566315E1,2.2201408E1,8.4394936E1,7.8704994E1,1.7339758E2,2.191163E1,2.018063E1,5.519471E1,2.8593105E1,2.8259143E2,3.26952E1,2.0532079E2,4.274118E1,5.831859E1,2.1120707E1,9.483349E1,2.2073921E1,5.9211605E1,1.18929855E2,2.323851E1,3.4850223E2,3.1823087E2,2.2028765E1,2.1040785E1,2.7943378E1,2.649779E2,3.9238743E1,2.6345655E1,2.6681005E1,8.588331E2,6.158687E2,3.8072556E1,8.984203E2,5.394956E2,5.4744682E1,1.1798469E2,8.9847705E2,1.209196E2,2.978586E2,2.0260052E1,1.4461201E2,8.177401E1,4.4543655E1,2.0928768E1,5.292064E1,1.24948204E2,2.4448715E1,2.0325737E1,5.3643303E1,1.1083576E2,4.7960674E1,5.0961266E1,9.525488E1,1.9487907E2,5.0910458E1,1.3607182E2,2.7367386E2,2.3142688E3,9.096994E1,2.425377E1,8.138412E2,5.133853E1,2.3373007E1,2.1516405E1,2.027829E1,6.2869995E2,2.5101166E1,5.383406E1,2.0978075E1,2.5090258E1,5.7355534E1,2.9790982E2,4.3523212E1,4.4062588E1,1.0454313E2,1.13088646E2,2.2629534E1,1.13316956E2,3.195449E2,2.0114258E1,4.0225418E1,2.3018497E1,2.1773848E1,5.44779E1,2.9020723E1,2.636566E1,2.444267E1,1.8869756E3,5.4711456E1,2.4953926E1,3.2607613E1,3.2840954E1,4.4176235E1,7.353891E1,8.2632164E1,3.4324634E2,2.2407468E2,2.9343344E1,1.0799533E2,3.590559E1,5.7126152E1,7.013085E2,2.284737E3,8.7192215E1,2.2122892E1,5.9807125E1,5.392201E1,2.0230614E1,6.2095634E1,4.5545334E2,5.468297E2,2.068646E2,2.5950745E2,2.4634817E1,4.4931496E1,6.280624E1,2.1588696E1,2.9474657E1,4.923034E1,6.1231655E1,1.1216594E2,2.6134657E1,2.9060055E1],"tree_param":{"num_deleted":"0","num_feature":"70","num_nodes":"383","size_leaf_vector":"1"}},{"base_weights":[-4.5763105E-2,-5.280266E-1,6.368562E-1,-7.2404695E-1,4.860265E-1,2.4167536E-2,8.012564E-1,-1.2631872E0,-5.12375E-1,-2.9012835E-1,1.1574842E0,-1.224498E0,8.7229127E-1,-1.0313376E0,8.6909366E-1,-1.2691369E0,-2.4653845E-2,-1.2535168E-1,-8.933216E-1,4.529901E-1,-5.3552145E-1,1.4826351E0,-1.883491E-1,-1.2494974E0,-5.1476188E-2,-8.879953E-1,1.3599094E0,-3.4772384E-1,-1.1493247E0,6.570435E-1,1.2415583E0,-1.2730606E0,-9.46644E-1,-1.0975412E0,5.7380408E-2,-7.6984155E-1,-1.1201702E0,3.0415634E-2,1.2937577E0,-8.891811E-1,-2.5312904E-1,6.4635915E-1,1.6303209E0,-6.806026E-1,9.724264E-1,-1.2736002E0,-9.907676E-1,-1.1905254E0,2.0491573E-1,1.4592855E0,2.4659562E-1,3.027237E-2,-1.0208487E-1,-1.2344819E0,-9.3813115E-1,7.3368424E-1,-6.745745E-4,1.3873208E0,8.632373E-1,-1.560824E-1,-1.2992991E0,-1.5764059E-1,-6.419108E-2,-9.14098E-1,-1.1746011E0,2.6258248E-1,-4.854955E-1,-6.700083E-1,-9.0960956E-1,-1.1375123E0,-4.6257237E-1,-8.445316E-1,8.145246E-1,1.5614816E0,2.3732321E-2,-1.2967372E0,-6.714508E-1,-4.4545522E-1,4.964211E-1,-7.2604194E-2,8.323661E-1,1.730009E0,7.875442E-1,-2.1506442E-1,-9.6662545E-1,5.1308062E-2,1.2662846E0,-1.2766403E0,-1.4634772E-1,-1.5723735E-1,-1.685514E-2,-1.2466197E0,-5.7293322E-2,1.5222031E0,1.0322022E-1,-4.9150667E-1,2.0929024E-1,-1.2785746E0,-1.1645875E-1,-6.682962E-1,-1.6996822E-1,5.452156E-1,1.1892506E0,6.4854306E-1,-3.1585258E-1,1.4827676E0,6.783167E-1,1.0164102E0,-7.620258E-1,-1.6764052E-1,-1.560669E-1,-1.1553085E0,-7.508117E-1,-1.213945E0,-9.719602E-1,2.0186335E-2,6.875621E-1,-6.3725245E-1,8.274042E-1,-7.352968E-1,1.9756869E0,-1.084042E0,-8.217446E-1,-1.0634181E0,-1.2457243E0,5.5491515E-2,-1.5182622E-1,-1.150227E0,-3.4951948E-2,1.7163161E0,1.800105E-1,1.2293539E-1,1.9487555E0,-1.6434813E-1,-1.2839427E0,-5.6711113E-1,-1.6265658E-1,1.2810497E-1,-5.6270075E-1,8.712211E-1,-1.3268678E-1,6.641145E-1,1.8449281E-1,1.7898519E0,1.3390073E0,-7.870195E-1,1.8770466E0,-8.2736045E-1,9.0398334E-2,-5.7099986E-1,-1.1957984E0,1.8693627E-1,1.0332821E-1,-1.279237E0,-1.4991158E-1,-1.2785867E0,-1.0932866E-1,6.2736E-1,1.5712938E0,5.119027E-2,-3.424316E-2,-1.378089E-1,5.3178143E-2,-1.3078889E0,-1.313238E-1,-4.386308E-2,-1.2186059E-1,6.2609047E-1,-1.21323E0,9.779109E-1,1.3780049E0,9.454449E-1,6.0092755E-2,-5.60073E-1,1.2845042E-1,3.6641505E-1,1.5078585E0,3.088442E-1,1.0864043E0,1.1075283E0,-1.6203272E-1,-1.071321E0,-3.3960674E-2,-1.2658064E0,-1.0183027E-1,-9.0248775E-1,-3.6057573E-2,-1.0637182E0,-1.252378E0,-1.2728277E0,-7.262439E-2,3.3222967E-1,-1.5770867E-1,1.3397745E0,3.0313787E-1,-7.569736E-1,7.0828086E-1,1.0166115E0,-7.740444E-3,1.7672136E-2,-7.681361E-1,3.2318667E-1,1.4292568E-1,-1.1436621E0,-5.3918507E-2,-8.862531E-1,-5.411197E-1,-1.2143842E0,-1.0160986E0,-1.1588926E0,-1.561149E-1,-1.6603172E-1,-1.0855279E-1,2.2939381E-1,1.9129926E-1,-2.4395883E-1,1.2850863E-1,2.1502677E-1,2.6444876E-1,-1.5631157E-1,-1.2922007E0,3.2467686E-2,-6.605984E-1,-1.2884859E0,-2.7045915E-1,5.324996E-1,2.4044101E-1,7.897248E-1,1.2791314E-2,1.5303336E0,1.8418899E0,1.4949849E-2,1.6943532E0,-1.6374463E-1,-2.9733423E-2,2.094973E-1,1.9603119E0,-1.5195698E-1,-5.2920103E-2,-1.3333924E-1,-1.4233055E-2,-1.1757495E-1,-1.313946E0,-1.624361E-1,-1.2773896E0,-1.563114E-1,-1.623887E-1,-4.8686028E-2,2.3063083E-1,1.6194319E0,6.120617E-1,-1.474503E-1,-1.324759E0,1.40634775E-2,6.822143E-1,-1.2923309E0,-8.309411E-2,1.7801193E0,8.871184E-1,1.5305227E0,1.2211819E0,4.5427573E-1,1.2223787E0,-5.551054E-2,5.4258995E-2,-3.9554203E-1,-1.2939115E0,-1.9860373E-1,1.1709925E-1,-1.2881471E-2,1.07894495E-1,1.5513902E0,1.0457796E0,-1.650916E-1,7.574657E-1,7.0827715E-2,1.2919824E0,1.169234E0,-9.55152E-2,-9.1517456E-2,-1.7238669E-1,-1.3386981E-1,-1.6417137E-1,-1.5264444E-1,-9.730291E-2,-1.4798492E-1,-9.600908E-2,-1.574835E-1,-1.3512973E-1,-1.472948E-1,-1.6218664E-1,8.225013E-2,-5.089868E-3,1.9040456E-2,-3.8026553E-2,1.7978342E-1,3.9339177E-3,-3.766226E-2,5.758442E-2,-1.02490336E-1,-1.6346045E-2,-2.7582569E-2,2.3396602E-1,1.5084648E-1,4.234216E-2,6.660828E-2,-8.893423E-2,-1.10997215E-1,-7.966865E-2,-1.4369439E-1,-9.7518176E-2,-1.1804292E-1,-7.113471E-2,-8.3468474E-2,4.3576702E-2,-1.3922274E-1,-1.5851635E-1,-1.302654E-1,-9.780198E-2,-1.4992526E-1,-1.2726179E-1,3.5883516E-2,-9.074156E-2,-1.605372E-1,-1.5710841E-1,-5.4158602E-2,-1.3617522E-1,-1.5708385E-1,-1.6176969E-1,3.2566708E-2,-5.466082E-2,-3.170274E-2,1.1217619E-1,1.4445873E-1,7.8623496E-2,1.234645E-1,2.0637913E-1,2.2466022E-1,2.6176694E-1,2.3107456E-1,1.4508215E-1,2.3401903E-1,2.4705875E-1,-1.579934E-1,-1.653468E-1,-1.615942E-1,-1.5648308E-1,2.0289212E-1,9.13594E-2,1.702792E-1,-3.7544202E-2,-1.6033454E-1,-1.6579334E-1,4.8742086E-2,-4.6436924E-2,9.5818676E-2,4.725769E-2,-1.6734296E-1,-1.5698276E-1,2.5773522E-1,1.6054504E-1,1.2443488E-1,4.0739436E-2,1.2907678E-1,1.943063E-1,1.0939753E-1,1.6743903E-1,8.949509E-3,1.08387694E-1,1.8193722E-1,5.215265E-2,-7.571069E-2,2.3151556E-2,-1.7255238E-1,-1.4045413E-1,8.6622563E-4,-1.1066095E-1,1.6942039E-1,2.013036E-1,1.7371313E-1,-8.770616E-2,-8.1237614E-2,2.796715E-2,1.3304916E-1,2.9808866E-2,2.0872614E-1,1.42677E-1,1.5302448E-1,-1.9874003E-2],"categories":[],"categories_nodes":[],"categories_segments":[],"categories_sizes":[],"default_left":[0,0,0,0,0,0,0,0,0,0,0,0,0,0,0,0,0,0,0,0,0,0,0,0,0,0,0,0,0,0,0,0,0,0,0,0,0,0,0,0,0,0,0,0,0,0,0,0,0,0,0,0,0,0,0,0,0,0,0,0,0,0,0,0,0,0,0,0,0,0,0,0,0,0,0,0,0,0,0,0,0,0,0,0,0,0,0,0,0,0,0,0,0,0,0,0,0,0,0,0,0,0,0,0,0,0,0,0,0,0,0,0,0,0,0,0,0,0,0,0,0,0,0,0,0,0,0,0,0,0,0,0,0,0,0,0,0,0,0,0,0,0,0,0,0,0,0,0,0,0,0,0,0,0,0,0,0,0,0,0,0,0,0,0,0,0,0,0,0,0,0,0,0,0,0,0,0,0,0,0,0,0,0,0,0,0,0,0,0,0,0,0,0,0,0,0,0,0,0,0,0,0,0,0,0,0,0,0,0,0,0,0,0,0,0,0,0,0,0,0,0,0,0,0,0,0,0,0,0,0,0,0,0,0,0,0,0,0,0,0,0,0,0,0,0,0,0,0,0,0,0,0,0,0,0,0,0,0,0,0,0,0,0,0,0,0,0,0,0,0,0,0,0,0,0,0,0,0,0,0,0,0,0,0,0,0,0,0,0,0,0,0,0,0,0,0,0,0,0,0,0,0,0,0,0,0,0,0,0,0,0,0,0,0,0,0,0,0,0,0,0,0,0,0,0,0,0,0,0,0,0,0,0,0,0,0,0,0,0,0,0,0,0,0,0,0,0,0,0,0,0,0,0,0,0,0,0,0,0,0,0,0,0,0,0,0,0,0,0,0,0,0,0,0,0,0,0,0,0,0,0,0,0,0,0,0,0,0,0],"id":3,"left_children":[1,3,5,7,9,11,13,15,17,19,21,23,25,27,29,31,-1,33,35,37,39,41,43,45,-1,47,49,51,53,55,57,59,61,63,65,67,69,71,73,75,77,79,81,83,85,87,89,91,-1,93,95,-1,-1,97,99,101,103,105,107,-1,109,-1,-1,111,113,115,117,119,121,123,125,127,129,131,-1,133,135,137,139,-1,141,143,145,147,149,-1,151,153,-1,-1,-1,155,-1,157,159,161,-1,163,-1,165,-1,167,169,171,173,175,177,179,181,-1,-1,183,185,187,189,191,193,195,197,199,201,203,205,207,209,-1,-1,211,-1,213,215,-1,217,-1,219,221,-1,-1,223,225,-1,227,-1,229,231,233,235,237,-1,239,241,-1,-1,243,-1,245,-1,247,249,-1,-1,-1,-1,251,-1,-1,-1,253,255,257,259,261,263,265,267,269,271,273,275,277,-1,279,-1,281,-1,283,-1,285,287,289,-1,291,293,295,297,299,301,303,-1,305,307,-1,-1,309,-1,311,313,315,317,319,-1,-1,-1,-1,-1,321,-1,-1,-1,-1,323,-1,325,327,329,331,-1,333,-1,335,337,-1,339,-1,-1,-1,341,-1,-1,-1,-1,-1,343,-1,345,-1,-1,-1,-1,347,349,-1,351,353,355,357,-1,359,361,363,365,367,369,-1,-1,371,373,375,-1,-1,-1,377,379,381,383,-1,385,387,-1,-1,-1,-1,-1,-1,-1,-1,-1,-1,-1,-1,-1,-1,-1,-1,-1,-1,-1,-1,-1,-1,-1,-1,-1,-1,-1,-1,-1,-1,-1,-1,-1,-1,-1,-1,-1,-1,-1,-1,-1,-1,-1,-1,-1,-1,-1,-1,-1,-1,-1,-1,-1,-1,-1,-1,-1,-1,-1,-1,-1,-1,-1,-1,-1,-1,-1,-1,-1,-1,-1,-1,-1,-1,-1,-1,-1,-1,-1,-1,-1,-1,-1,-1,-1,-1,-1,-1,-1,-1,-1,-1,-1,-1,-1,-1,-1,-1,-1,-1,-1,-1,-1,-1,-1,-1,-1,-1,-1,-1,-1],"loss_changes":[9.201547E3,3.255791E3,1.1655796E3,1.566417E3,1.3827756E3,2.592618E3,1.1342388E3,2.4452637E1,1.453165E3,2.24426E2,6.225276E2,1.99198E1,1.2513804E3,2.626529E1,6.948711E2,4.8632812E0,0E0,8.685621E2,1.3913086E2,1.0854379E2,9.239691E1,1.4150415E2,1.5817526E2,5.982544E0,0E0,2.4480542E2,1.2630469E2,1.3813139E1,4.9887695E0,2.8260156E2,1.7600098E2,4.3945312E-2,6.627838E0,1.0929382E1,4.5847485E2,4.487622E1,1.9962158E1,1.3949593E2,3.009909E1,3.6444458E1,7.415998E1,3.9614265E1,8.18064E1,2.5881645E1,1.3419205E1,2.0690918E-1,2.0339226E1,1.1472534E1,0E0,8.94209E1,1.0080809E2,0E0,0E0,2.4805603E0,9.636177E0,4.3111377E2,1.19721825E2,1.5591211E2,2.2099738E2,0E0,1.2658691E-1,0E0,0E0,9.00853E0,4.336548E0,3.0766632E2,2.2493173E2,3.2409497E2,2.0534546E1,1.3669678E1,3.1917694E1,1.6435654E1,6.1355217E1,1.7789474E1,0E0,7.048035E-2,1.8284317E1,7.1514694E1,6.213794E1,0E0,1.6894913E1,2.0364014E1,1.7671799E2,4.3131542E1,1.0912682E1,0E0,5.8788834E0,1.11816406E-1,0E0,0E0,0E0,2.9745178E0,0E0,4.3993896E1,5.5835257E0,3.633516E1,0E0,1.037262E0,0E0,5.0303364E0,0E0,5.0511755E2,5.8608154E1,3.3406548E1,4.273991E1,5.687451E1,4.1215973E1,1.7279126E2,1.1470345E1,0E0,0E0,3.3123932E0,9.454582E0,2.626648E0,1.0119637E1,1.0557627E2,2.7197968E2,1.630177E2,1.9710106E1,4.5277954E1,2.4127045E1,1.7244507E1,1.6130676E1,7.2266846E0,1.6223145E0,0E0,0E0,3.3461456E0,0E0,1.054596E0,2.3159536E1,0E0,1.9525146E0,0E0,4.5776367E-4,1.7959877E1,0E0,0E0,8.049628E1,3.1308586E1,0E0,8.4077E0,0E0,1.0185791E1,4.9994217E1,1.2569855E1,8.4187317E-1,7.3329697E0,0E0,1.0370346E1,2.1299973E0,0E0,0E0,5.871582E-2,0E0,3.7322998E-2,0E0,6.686592E1,4.383911E1,0E0,0E0,0E0,0E0,2.5985718E-1,0E0,0E0,0E0,1.166366E2,6.6134644E0,5.048291E1,1.8555054E1,1.7283394E1,1.2568804E1,3.0685036E1,3.7755684E1,1.0802957E1,3.994043E1,3.0507801E1,1.3586334E1,9.088623E1,0E0,5.067219E0,0E0,8.660431E-1,0E0,3.8204193E0,0E0,3.7238464E0,1.7208252E0,1.6790771E-1,0E0,8.732511E1,5.774153E1,6.627783E1,6.927777E1,4.557019E1,9.253453E1,1.3808754E1,0E0,2.9862492E1,2.8467285E1,0E0,0E0,3.9873047E0,0E0,1.6897583E1,2.0817463E1,1.4869385E0,7.743164E0,1.2621002E0,0E0,0E0,0E0,0E0,0E0,1.1251404E1,0E0,0E0,0E0,0E0,2.708435E-3,0E0,2.044403E1,1.737976E-2,2.5407314E1,1.9570793E1,0E0,5.631344E0,0E0,1.005246E1,1.8659668E0,0E0,8.666321E0,0E0,0E0,0E0,9.828186E-2,0E0,0E0,0E0,0E0,0E0,3.6216736E-2,0E0,4.1137695E-2,0E0,0E0,0E0,0E0,2.7464111E1,3.2344566E1,0E0,5.253601E-2,4.293353E1,9.142212E1,1.1338806E-1,0E0,1.0653473E1,4.402655E1,1.0085205E1,1.8131592E1,7.5024796E0,1.6900986E1,0E0,0E0,2.689973E1,7.738342E-1,1.4485504E1,0E0,0E0,0E0,2.772461E1,1.1156308E2,1.363941E1,1.2407913E1,0E0,4.8709717E0,7.888574E1,0E0,0E0,0E0,0E0,0E0,0E0,0E0,0E0,0E0,0E0,0E0,0E0,0E0,0E0,0E0,0E0,0E0,0E0,0E0,0E0,0E0,0E0,0E0,0E0,0E0,0E0,0E0,0E0,0E0,0E0,0E0,0E0,0E0,0E0,0E0,0E0,0E0,0E0,0E0,0E0,0E0,0E0,0E0,0E0,0E0,0E0,0E0,0E0,0E0,0E0,0E0,0E0,0E0,0E0,0E0,0E0,0E0,0E0,0E0,0E0,0E0,0E0,0E0,0E0,0E0,0E0,0E0,0E0,0E0,0E0,0E0,0E0,0E0,0E0,0E0,0E0,0E0,0E0,0E0,0E0,0E0,0E0,0E0,0E0,0E0,0E0,0E0,0E0,0E0,0E0,0E0,0E0,0E0,0E0,0E0,0E0,0E0,0E0,0E0,0E0,0E0,0E0,0E0,0E0,0E0,0E0,0E0,0E0,0E0,0E0,0E0],"parents":[2147483647,0,0,1,1,2,2,3,3,4,4,5,5,6,6,7,7,8,8,9,9,10,10,11,11,12,12,13,13,14,14,15,15,17,17,18,18,19,19,20,20,21,21,22,22,23,23,25,25,26,26,27,27,28,28,29,29,30,30,31,31,32,32,33,33,34,34,35,35,36,36,37,37,38,38,39,39,40,40,41,41,42,42,43,43,44,44,45,45,46,46,47,47,49,49,50,50,53,53,54,54,55,55,56,56,57,57,58,58,60,60,63,63,64,64,65,65,66,66,67,67,68,68,69,69,70,70,71,71,72,72,73,73,75,75,76,76,77,77,78,78,80,80,81,81,82,82,83,83,84,84,86,86,87,87,91,91,93,93,94,94,95,95,97,97,99,99,101,101,102,102,103,103,104,104,105,105,106,106,107,107,108,108,111,111,112,112,113,113,114,114,115,115,116,116,117,117,118,118,119,119,120,120,121,121,122,122,123,123,124,124,127,127,129,129,130,130,132,132,134,134,135,135,138,138,139,139,141,141,143,143,144,144,145,145,146,146,147,147,149,149,150,150,153,153,155,155,157,157,158,158,163,163,167,167,168,168,169,169,170,170,171,171,172,172,173,173,174,174,175,175,176,176,177,177,178,178,179,179,181,181,183,183,185,185,187,187,188,188,189,189,191,191,192,192,193,193,194,194,195,195,196,196,197,197,199,199,200,200,203,203,205,205,206,206,207,207,208,208,209,209,215,215,220,220,222,222,223,223,224,224,225,225,227,227,229,229,230,230,232,232,236,236,242,242,244,244,249,249,250,250,252,252,253,253,254,254,255,255,257,257,258,258,259,259,260,260,261,261,262,262,265,265,266,266,267,267,271,271,272,272,273,273,274,274,276,276,277,277],"right_children":[2,4,6,8,10,12,14,16,18,20,22,24,26,28,30,32,-1,34,36,38,40,42,44,46,-1,48,50,52,54,56,58,60,62,64,66,68,70,72,74,76,78,80,82,84,86,88,90,92,-1,94,96,-1,-1,98,100,102,104,106,108,-1,110,-1,-1,112,114,116,118,120,122,124,126,128,130,132,-1,134,136,138,140,-1,142,144,146,148,150,-1,152,154,-1,-1,-1,156,-1,158,160,162,-1,164,-1,166,-1,168,170,172,174,176,178,180,182,-1,-1,184,186,188,190,192,194,196,198,200,202,204,206,208,210,-1,-1,212,-1,214,216,-1,218,-1,220,222,-1,-1,224,226,-1,228,-1,230,232,234,236,238,-1,240,242,-1,-1,244,-1,246,-1,248,250,-1,-1,-1,-1,252,-1,-1,-1,254,256,258,260,262,264,266,268,270,272,274,276,278,-1,280,-1,282,-1,284,-1,286,288,290,-1,292,294,296,298,300,302,304,-1,306,308,-1,-1,310,-1,312,314,316,318,320,-1,-1,-1,-1,-1,322,-1,-1,-1,-1,324,-1,326,328,330,332,-1,334,-1,336,338,-1,340,-1,-1,-1,342,-1,-1,-1,-1,-1,344,-1,346,-1,-1,-1,-1,348,350,-1,352,354,356,358,-1,360,362,364,366,368,370,-1,-1,372,374,376,-1,-1,-1,378,380,382,384,-1,386,388,-1,-1,-1,-1,-1,-1,-1,-1,-1,-1,-1,-1,-1,-1,-1,-1,-1,-1,-1,-1,-1,-1,-1,-1,-1,-1,-1,-1,-1,-1,-1,-1,-1,-1,-1,-1,-1,-1,-1,-1,-1,-1,-1,-1,-1,-1,-1,-1,-1,-1,-1,-1,-1,-1,-1,-1,-1,-1,-1,-1,-1,-1,-1,-1,-1,-1,-1,-1,-1,-1,-1,-1,-1,-1,-1,-1,-1,-1,-1,-1,-1,-1,-1,-1,-1,-1,-1,-1,-1,-1,-1,-1,-1,-1,-1,-1,-1,-1,-1,-1,-1,-1,-1,-1,-1,-1,-1,-1,-1,-1,-1],"split_conditions":[2.29E-2,3.6003E0,2E-1,2E-1,2.4994086E-1,3.5766E0,1E0,3.4635E0,7.4E1,-7.2241984E-2,4E-1,1.767E-1,1E0,-3.5851713E-2,9.38E-2,3.1503E0,-2.4653845E-2,1E0,3.98805E2,-2.9936828E-2,1.1E-2,5.844846E-1,6.5E-1,1.8315938E-1,-5.1476188E-2,4.80925E1,3.0778664E-1,2.3E1,3.2872E0,1E0,4.1893307E2,2.6975E0,-1.6240703E-2,3.375E-1,1E0,1E0,4E0,4.8706E2,5.74E2,2E-1,1E0,-1.1838321E-1,6.1014134E-2,1E0,1.15E-2,3.4635E0,2.5762E0,2.0222487E-1,2.0491573E-1,1.9473243E-1,1.64659E1,3.027237E-2,-1.0208487E-1,3.2552168E-1,4.500661E-2,1E0,-1.14151E-1,1E0,6.1029497E3,-1.560824E-1,2.7262668E2,-1.5764059E-1,-6.419108E-2,6.2895E2,1.5926E0,6.5475823E-3,6.86E2,2E0,4E0,1.4101864E-1,1.58E2,4.019E-1,5.158305E2,2E0,2.3732321E-2,-9.0675525E-2,5.4311838E-2,-6.90762E-2,3.9475E2,-7.2604194E-2,8.827733E2,1.6839586E-1,1.40547E1,4.7390714E-2,5.531294E-2,5.1308062E-2,2.6088876E2,4.765427E-1,-1.4634772E-1,-1.5723735E-1,-1.685514E-2,9.720798E-2,-5.7293322E-2,2.69E-2,3.5076505E-1,7.307656E-2,2.0929024E-1,1.032E-1,-1.1645875E-1,2.6086956E-1,-1.6996822E-1,6E-1,9.392085E2,1.5926E0,2E0,-9.160267E-2,2E0,1E0,9.7125E2,-1.6764052E-1,-1.560669E-1,2E0,6.25E-1,-1.8157834E-2,-9.942558E-2,3.4E1,2.616051E-1,1E0,2.6666668E-1,4E-1,7.539E2,6.5E-1,2E0,1E0,-5.3970506E-3,5.5491515E-2,-1.5182622E-1,5.53456E2,-3.4951948E-2,1E0,2.1E1,1.2293539E-1,2.5052965E-1,-1.6434813E-1,1.719434E2,1.6363636E0,-1.6265658E-1,1.2810497E-1,2E-1,1E0,-1.3268678E-1,3.8E1,1.8449281E-1,3.7695E2,1.27E2,1.26E-2,3.4125E2,3.7178838E-1,9.0398334E-2,2.125E0,8.6E1,1.8693627E-1,1.0332821E-1,2.31E2,-1.4991158E-1,1.09761E1,-1.0932866E-1,2.5936362E-1,1.92476E-1,5.119027E-2,-3.424316E-2,-1.378089E-1,5.3178143E-2,-7.0710677E-1,-1.313238E-1,-4.386308E-2,-1.2186059E-1,7.2E-1,8.284049E-2,2.34076E-1,8.169E2,3.4567E2,7.644E2,4.762E2,1E0,7.98362E2,6.5E-1,1.22E-1,3.1577146E-1,6.6392E0,-1.6203272E-1,6.5835E2,-3.3960674E-2,7.48E-1,-1.0183027E-1,-8.660254E-1,-3.6057573E-2,5.3533E2,1.66E-2,5.3E1,-7.262439E-2,9.54225E1,-1.4987911E-1,1.9640805E-1,1.59E2,1.6528495E-1,-7.936918E-2,1.1304367E0,-7.740444E-3,2.15E2,-1.6509393E-1,3.2318667E-1,1.4292568E-1,2E0,-5.3918507E-2,3.75E-1,3.131415E-1,2E0,4.4053662E-1,1E0,-1.561149E-1,-1.6603172E-1,-1.0855279E-1,2.2939381E-1,1.9129926E-1,2.7868852E-1,1.2850863E-1,2.1502677E-1,2.6444876E-1,-1.5631157E-1,1.8231069E-1,3.2467686E-2,7.0710677E-1,6.6392E0,-1.2658533E-1,8.93E-1,2.4044101E-1,5.3533E2,1.2791314E-2,7.661208E-1,1.56E-2,1.4949849E-2,2.96E2,-1.6374463E-1,-2.9733423E-2,2.094973E-1,1.4545455E0,-1.5195698E-1,-5.2920103E-2,-1.3333924E-1,-1.4233055E-2,-1.1757495E-1,4.4E-3,-1.624361E-1,-1.8437696E-1,-1.563114E-1,-1.623887E-1,-4.8686028E-2,2.3063083E-1,5.58E2,1.93E-2,-1.474503E-1,-1.585941E-2,3.0063343E-1,2E0,2.76E-2,-8.309411E-2,1.5926062E-1,2.0099689E-1,3.4545E2,2.0596E0,1.1093E0,5.29E2,-5.551054E-2,5.4258995E-2,7.35E2,9.7807005E-2,1.2495E3,1.1709925E-1,-1.2881471E-2,1.07894495E-1,-3.902908E-3,3.6072592E2,1.5222234E-1,2E1,7.0827715E-2,2.822732E-1,5.49E2,-9.55152E-2,-9.1517456E-2,-1.7238669E-1,-1.3386981E-1,-1.6417137E-1,-1.5264444E-1,-9.730291E-2,-1.4798492E-1,-9.600908E-2,-1.574835E-1,-1.3512973E-1,-1.472948E-1,-1.6218664E-1,8.225013E-2,-5.089868E-3,1.9040456E-2,-3.8026553E-2,1.7978342E-1,3.9339177E-3,-3.766226E-2,5.758442E-2,-1.02490336E-1,-1.6346045E-2,-2.7582569E-2,2.3396602E-1,1.5084648E-1,4.234216E-2,6.660828E-2,-8.893423E-2,-1.10997215E-1,-7.966865E-2,-1.4369439E-1,-9.7518176E-2,-1.1804292E-1,-7.113471E-2,-8.3468474E-2,4.3576702E-2,-1.3922274E-1,-1.5851635E-1,-1.302654E-1,-9.780198E-2,-1.4992526E-1,-1.2726179E-1,3.5883516E-2,-9.074156E-2,-1.605372E-1,-1.5710841E-1,-5.4158602E-2,-1.3617522E-1,-1.5708385E-1,-1.6176969E-1,3.2566708E-2,-5.466082E-2,-3.170274E-2,1.1217619E-1,1.4445873E-1,7.8623496E-2,1.234645E-1,2.0637913E-1,2.2466022E-1,2.6176694E-1,2.3107456E-1,1.4508215E-1,2.3401903E-1,2.4705875E-1,-1.579934E-1,-1.653468E-1,-1.615942E-1,-1.5648308E-1,2.0289212E-1,9.13594E-2,1.702792E-1,-3.7544202E-2,-1.6033454E-1,-1.6579334E-1,4.8742086E-2,-4.6436924E-2,9.5818676E-2,4.725769E-2,-1.6734296E-1,-1.5698276E-1,2.5773522E-1,1.6054504E-1,1.2443488E-1,4.0739436E-2,1.2907678E-1,1.943063E-1,1.0939753E-1,1.6743903E-1,8.949509E-3,1.08387694E-1,1.8193722E-1,5.215265E-2,-7.571069E-2,2.3151556E-2,-1.7255238E-1,-1.4045413E-1,8.6622563E-4,-1.1066095E-1,1.6942039E-1,2.013036E-1,1.7371313E-1,-8.770616E-2,-8.1237614E-2,2.796715E-2,1.3304916E-1,2.9808866E-2,2.0872614E-1,1.42677E-1,1.5302448E-1,-1.9874003E-2],"split_indices":[30,28,2,2,38,28,27,28,34,52,2,30,26,50,30,28,0,27,25,42,30,63,2,42,0,28,24,34,28,26,25,28,49,28,26,26,6,64,1,2,8,45,50,26,30,28,28,42,0,59,28,0,0,50,45,20,49,26,64,0,25,0,0,12,28,42,23,20,17,49,34,36,64,0,0,46,46,52,25,0,12,39,28,39,42,0,25,38,0,0,0,49,0,30,56,42,0,30,0,14,0,2,64,28,0,52,0,8,12,0,0,3,14,44,45,34,55,6,15,2,12,2,0,27,43,0,0,12,0,3,4,0,55,0,64,13,0,0,2,26,0,23,0,12,34,30,12,56,0,13,34,0,0,23,0,28,0,38,41,0,0,0,0,62,0,0,0,33,42,55,12,1,12,1,6,12,2,30,63,28,0,12,0,33,0,61,0,1,30,34,0,64,43,41,23,49,48,63,0,1,38,0,0,6,0,15,55,32,55,5,0,0,0,0,0,14,0,0,0,0,38,0,62,28,43,33,0,1,0,63,30,0,1,0,0,0,13,0,0,0,0,0,30,0,49,0,0,0,0,1,36,0,42,55,0,30,0,42,41,12,28,28,1,0,0,23,49,1,0,0,0,38,25,59,4,0,55,25,0,0,0,0,0,0,0,0,0,0,0,0,0,0,0,0,0,0,0,0,0,0,0,0,0,0,0,0,0,0,0,0,0,0,0,0,0,0,0,0,0,0,0,0,0,0,0,0,0,0,0,0,0,0,0,0,0,0,0,0,0,0,0,0,0,0,0,0,0,0,0,0,0,0,0,0,0,0,0,0,0,0,0,0,0,0,0,0,0,0,0,0,0,0,0,0,0,0,0,0,0,0,0,0,0,0,0,0,0,0,0],"split_type":[0,0,0,0,0,0,0,0,0,0,0,0,0,0,0,0,0,0,0,0,0,0,0,0,0,0,0,0,0,0,0,0,0,0,0,0,0,0,0,0,0,0,0,0,0,0,0,0,0,0,0,0,0,0,0,0,0,0,0,0,0,0,0,0,0,0,0,0,0,0,0,0,0,0,0,0,0,0,0,0,0,0,0,0,0,0,0,0,0,0,0,0,0,0,0,0,0,0,0,0,0,0,0,0,0,0,0,0,0,0,0,0,0,0,0,0,0,0,0,0,0,0,0,0,0,0,0,0,0,0,0,0,0,0,0,0,0,0,0,0,0,0,0,0,0,0,0,0,0,0,0,0,0,0,0,0,0,0,0,0,0,0,0,0,0,0,0,0,0,0,0,0,0,0,0,0,0,0,0,0,0,0,0,0,0,0,0,0,0,0,0,0,0,0,0,0,0,0,0,0,0,0,0,0,0,0,0,0,0,0,0,0,0,0,0,0,0,0,0,0,0,0,0,0,0,0,0,0,0,0,0,0,0,0,0,0,0,0,0,0,0,0,0,0,0,0,0,0,0,0,0,0,0,0,0,0,0,0,0,0,0,0,0,0,0,0,0,0,0,0,0,0,0,0,0,0,0,0,0,0,0,0,0,0,0,0,0,0,0,0,0,0,0,0,0,0,0,0,0,0,0,0,0,0,0,0,0,0,0,0,0,0,0,0,0,0,0,0,0,0,0,0,0,0,0,0,0,0,0,0,0,0,0,0,0,0,0,0,0,0,0,0,0,0,0,0,0,0,0,0,0,0,0,0,0,0,0,0,0,0,0,0,0,0,0,0,0,0,0,0,0,0,0,0,0,0,0,0,0,0,0,0,0,0,0,0,0,0,0],"sum_hessian":[2.7951033E4,1.6379259E4,1.1571774E4,1.3725977E4,2.6532827E3,2.4481165E3,9.123658E3,3.8696763E3,9.8563E3,1.2306934E3,1.4225894E3,9.9022986E2,1.4578866E3,3.256732E2,8.797984E3,3.8481199E3,2.155644E1,4.8891587E3,4.967141E3,3.0551172E2,9.2518164E2,1.1457731E3,2.7681622E2,9.6039465E2,2.9835165E1,3.1624536E2,1.1416412E3,4.793889E1,2.7773428E2,5.606262E3,3.1917224E3,3.8018503E3,4.626961E1,7.7356287E2,4.115596E3,3.2163896E3,1.7507515E3,2.0332443E2,1.021873E2,4.1075443E2,5.144272E2,1.7197627E2,9.737968E2,1.943851E2,8.243114E1,8.785346E2,8.186008E1,2.8280893E2,3.3436424E1,1.0480854E3,9.355578E1,2.1526548E1,2.6412342E1,1.9791156E2,7.982272E1,5.021171E3,5.8509143E2,2.304006E3,8.877164E2,3.7273206E3,7.4529724E1,2.5701635E1,2.0567976E1,2.2884572E2,5.447171E2,2.9866672E3,1.1289287E3,1.8762512E3,1.3401385E3,1.7057633E3,4.4988117E1,9.609509E1,1.0722934E2,8.2186745E1,2.0000557E1,1.4302095E2,2.677335E2,4.0938614E2,1.0504107E2,2.2457489E1,1.4951878E2,8.7079047E2,1.03006355E2,7.398113E1,1.2040396E2,2.8569939E1,5.38612E1,8.464781E2,3.205651E1,6.103164E1,2.0828438E1,2.6245407E2,2.0354876E1,1.0016123E3,4.6473194E1,6.2137802E1,3.1417982E1,1.7138147E2,2.6530094E1,4.980773E1,3.0014992E1,3.551796E3,1.4693751E3,1.9121376E2,3.9387766E2,2.0306346E3,2.733715E2,8.11261E2,7.645539E1,2.1182005E1,5.334772E1,9.236921E1,1.364765E2,4.5613403E2,8.858308E1,1.9018901E3,1.0847772E3,1.0119597E3,1.16969E2,1.8310682E3,4.518297E1,4.489059E2,8.912326E2,1.0125222E3,6.932411E2,2.0634432E1,2.4353683E1,6.214147E1,3.395362E1,4.4284092E1,6.2945248E1,3.3634964E1,4.8551777E1,3.259041E1,1.1043055E2,2.3093596E2,3.6797516E1,2.9863401E1,3.7952274E2,8.488452E1,2.0156546E1,1.1957846E2,2.9940321E1,7.551935E2,1.1559696E2,4.212564E1,6.088072E1,4.502593E1,2.8955208E1,4.4169525E1,7.6234436E1,3.3484093E1,2.0377108E1,8.078356E2,3.8642525E1,2.407772E2,2.1676855E1,5.209393E1,9.495184E2,2.5515638E1,2.0957556E1,3.691587E1,2.5221931E1,1.5018257E2,2.119889E1,2.5478825E1,2.4328907E1,3.395626E3,1.5616975E2,6.9322675E2,7.761484E2,1.27087845E2,6.412591E1,2.5416971E2,1.3970795E2,4.4639046E1,1.9859956E3,1.4347826E2,1.2989323E2,7.8082526E2,3.043572E1,4.6685616E1,2.9769775E1,6.89278E1,2.3441402E1,1.0245446E2,3.4022045E1,9.294653E1,3.631875E2,4.942504E1,3.9158035E1,6.905714E2,1.2113186E3,4.022725E2,6.825047E2,9.292779E2,8.268186E1,9.647234E1,2.0496658E1,7.651983E1,1.7545485E3,2.4910572E1,2.0272396E1,4.1088876E2,3.801715E1,7.246445E2,1.6658815E2,2.4160707E2,7.7091516E2,1.648237E2,5.284174E2,3.5156693E1,2.6984781E1,2.2315672E1,2.196842E1,4.228541E1,2.0659836E1,2.4995447E1,2.355633E1,5.1534973E1,5.8895576E1,2.3330503E1,2.0760545E2,1.0894408E2,2.7057864E2,6.475166E1,2.013286E1,9.766227E1,2.1916191E1,1.2615696E2,6.290365E2,2.6124294E1,8.947267E1,2.0994263E1,2.1131376E1,2.0120544E1,4.0760174E1,2.2072256E1,2.295367E1,2.0690718E1,2.3478807E1,2.535878E1,5.0875652E1,3.1673416E1,7.761622E2,2.205475E2,2.022971E1,2.8663157E1,2.3430775E1,9.041416E2,4.5376793E1,2.070673E1,1.2947585E2,2.8523044E2,3.1103958E3,1.3607317E2,2.0096592E1,7.047381E1,6.227529E2,3.934572E2,3.8269113E2,4.5825146E1,8.12627E1,2.7390003E1,3.673591E1,2.0762538E2,4.654434E1,1.0009049E2,3.9617455E1,2.3267328E1,2.1371717E1,1.8149979E3,1.7099763E2,6.977039E1,7.370786E1,3.7377018E1,9.251621E1,7.5609283E2,2.4732395E1,2.3667017E1,2.3018597E1,2.0297142E1,4.8630665E1,2.478122E1,7.767324E1,6.1615685E1,3.1330853E1,3.002293E2,6.2958206E1,2.0182726E1,2.9242313E1,3.6243893E2,3.281325E2,3.9656403E2,8.1475464E2,3.6691956E2,3.535295E1,1.461996E2,5.363051E2,8.252419E2,1.0403599E2,4.650028E1,3.618158E1,7.321499E1,2.3257355E1,4.4819355E1,3.170048E1,8.1468085E2,9.398676E2,3.8045728E2,3.0431482E1,5.803539E2,1.4429054E2,1.4417072E2,2.2417427E1,1.1982808E2,1.2177899E2,6.370597E2,1.3385544E2,1.0820557E2,5.661813E1,2.0309473E1,2.1975939E1,2.3619228E1,3.527635E1,1.3960425E2,6.8001205E1,8.687968E1,2.2064398E1,6.66526E1,2.0392606E2,2.1089516E1,4.3662148E1,2.7049559E1,7.061272E1,2.8423935E1,9.7733025E1,6.077653E2,2.1271204E1,6.526954E1,2.420313E1,2.0754381E1,2.0005793E1,2.9045147E1,2.1830507E1,2.9458378E1,7.4670374E2,8.695949E2,3.4546684E1,2.4588814E1,2.078798E1,7.852089E1,5.095496E1,1.4433195E2,1.4089848E2,2.3326875E3,7.7770807E2,2.0001041E1,1.1607212E2,4.1899857E1,2.8573954E1,5.064838E2,1.1626915E2,3.970109E1,3.5375613E2,1.16417755E2,2.662734E2,2.4275246E1,2.15499E1,6.1219036E1,2.0043665E1,1.5051193E2,5.7113445E1,2.6444113E1,2.0100225E1,7.745258E1,2.2637907E1,6.272505E2,1.1877474E3,1.4127367E2,2.9723969E1,3.0805561E1,3.8964832E1,4.5044872E1,2.8662989E1,2.2106918E1,7.0409294E1,7.1405853E2,4.2034313E1],"tree_param":{"num_deleted":"0","num_feature":"70","num_nodes":"389","size_leaf_vector":"1"}},{"base_weights":[-4.3465916E-2,-4.8037922E-1,5.5522525E-1,-6.512985E-1,-9.260254E-2,1.6043964E-1,7.5070405E-1,-4.7541428E-1,-1.0932275E0,-6.6826457E-1,2.96532E-1,3.3079982E-1,-4.6441412E-1,9.9176013E-1,5.0859964E-1,-1.3733585E-1,-8.050011E-1,6.23797E-1,-1.1321036E0,7.7291685E-1,-7.760531E-1,-2.1771637E-1,1.1908004E0,-1.0222094E0,4.0809694E-1,-1.0355247E0,1.4453804E0,1.1287956E0,6.3927066E-1,6.995457E-1,-3.182878E-1,-1.0485307E0,4.619915E-2,-6.3840747E-1,-1.0476247E0,1.0301987E0,-1.2258369E-2,-1.1696877E0,2.7569056E-1,-2.9515358E-2,9.587048E-1,-6.078304E-1,-1.5124303E-1,6.6574323E-1,-3.5865894E-1,-3.0887783E-1,1.4153043E0,-6.293753E-2,-1.1286165E0,5.75089E-1,1.0230134E-1,8.98353E-2,-1.133758E0,1.599848E0,9.208048E-1,1.1992923E0,4.2867503E-1,3.3517978E-1,1.2754896E0,8.986358E-1,7.8701645E-2,-8.164372E-1,1.0591713E0,-9.4186157E-1,-1.2085279E0,1.6995403E-1,-5.940803E-1,-7.1237534E-1,-1.16047315E-1,-1.0699327E0,-2.2970046E-1,1.7401072E-1,8.24043E-2,-9.5137656E-2,-1.1927668E0,2.1609937E-1,-1.5173674E-1,6.606537E-1,1.2552377E0,-2.0165132E-1,-7.3534775E-1,-8.1456196E-1,9.5970184E-1,4.6201125E-2,-6.6561896E-1,8.313756E-1,-8.0378985E-1,6.329918E-1,1.535015E0,-1.2330667E0,-9.4754316E-2,7.109412E-1,-6.7186154E-2,3.2979742E-1,-5.583293E-1,4.5207437E-2,-1.2320868E0,1.6767427E0,1.5581748E-1,6.1887752E-2,1.6260847E-1,9.422354E-1,1.3204763E0,-1.2246666E0,1.3712676E0,-7.3284574E-2,1.0428205E0,-1.1245485E-3,1.5068973E0,-1.0171866E0,9.531482E-1,-1.081453E0,2.8693625E-1,1.1750765E0,-1.0275156E0,1.6271014E0,-7.794497E-1,-9.8636776E-1,-5.9020364E-1,-1.182597E-1,-1.2493356E0,9.621701E-2,1.5699321E0,-6.6212E-1,6.1971627E-2,-8.238866E-1,-5.5912966E-1,-3.704382E-1,6.041619E-1,-1.1847292E0,-9.6234363E-1,5.5851523E-2,-1.1938098E-1,-1.528704E-1,1.3118277E-1,-9.870795E-2,-1.2086108E0,1.5522578E-1,3.8627077E-2,2.0093179E-1,1.2315985E-1,-5.5615747E-1,7.806559E-1,-8.1480616E-1,-2.147636E-1,-6.1125297E-2,-1.3833559E-1,1.389252E0,8.2782015E-2,1.913113E-1,-1.2548143E0,-8.627994E-1,1.2483548E-1,3.0534886E-2,1.6945899E-1,-1.0891074E0,-3.8078945E-2,1.0420145E0,3.5963997E-1,1.0562888E0,1.6154357E0,-1.2842613E0,-1.3135083E-1,5.247071E-1,8.950941E-1,6.993738E-1,-2.8365764E-1,5.114912E-1,-6.985467E-1,3.5750672E-1,-7.512859E-1,-9.8939383E-1,-1.2608191E0,1.7295907E0,1.8603797E-1,1.0419006E0,-1.589729E-1,1.2571907E0,1.5664494E0,-1.2474041E0,-1.4018746E-1,2.847168E-2,1.7070228E0,9.3932945E-1,-2.7010837E-1,1.228147E-1,1.3909596E0,1.0163202E-1,-6.9048144E-2,7.9454356E-1,1.6375387E0,-1.6504334E-1,-8.399288E-1,4.105161E-1,1.0992144E0,-1.2577887E0,-3.527864E-2,6.190257E-1,-1.8438615E-1,6.440692E-2,2.2285663E-1,-1.1323972E0,8.4330305E-2,1.4947623E0,1.7024397E0,-2.1482378E-2,-1.5538268E-1,-1.0501856E0,-7.6505363E-1,-1.08292505E-1,-3.0686138E-2,-1.2723458E0,-1.1722457E0,4.286288E-1,-6.0169797E-2,1.3471098E0,2.0003839E0,-7.999147E-1,7.582035E-3,-7.179021E-1,-1.0005442E0,-6.2607795E-1,7.8012325E-2,-1.897866E-1,-9.056491E-1,1.7411587E-1,1.5166937E-1,-1.0095586E0,-1.2168407E0,-3.608453E-1,-9.953592E-1,-1.5569302E-1,1.2679349E-1,-1.2279614E0,-6.233687E-1,2.025377E-2,-6.3864887E-1,-5.1143236E-2,1.2305628E0,-3.51635E-1,-8.7540686E-1,5.361172E-1,-7.304308E-1,2.6052463E-1,1.1324084E0,9.619393E-2,-5.7384666E-2,-2.2503234E-1,6.3432276E-1,-1.5162048E-1,-1.5858753E-1,-4.122826E-3,-9.5445347E-1,-8.742386E-1,1.2714173E0,-1.5424244E-1,-9.255903E-2,1.688129E-1,7.5357E-2,5.6946147E-3,4.8791835E-1,-1.9592161E-1,1.6803985E0,1.641862E0,1.3969374E-1,-1.5525731E-1,-1.599548E-1,-1.5426038E-1,5.951085E-1,1.0472659E0,4.6448967E-1,2.51438E-2,1.0030253E0,-4.669726E-1,2.4519423E-1,6.1325073E-1,-5.72422E-1,-6.613158E-2,-1.1682038E0,1.3929069E-1,-4.7903024E-2,-9.719904E-1,5.431728E-2,-1.5527834E-1,-7.449497E-2,-1.247689E0,-1.8571496E-1,2.1746676E-1,2.1004477E-1,1.4542022E0,8.9970565E-1,1.2909907E0,6.4899975E-1,1.609871E0,1.3517864E0,-1.514393E-1,-1.5688159E-1,1.7592835E0,1.8787406E-1,1.7806977E-1,7.087061E-1,5.5830594E-2,-7.284217E-1,-3.0193555E-1,8.606198E-2,1.743931E0,9.952781E-1,4.2285915E-2,1.4585517E-1,1.3922077E-1,1.7216332E0,-6.5500036E-2,-1.3848841E-1,5.868984E-1,-4.8032072E-1,1.1395133E0,-6.139052E-1,-1.5254943E-1,-1.5610749E-1,-5.502166E-2,7.154571E-1,-5.1134497E-1,4.43973E-1,-1.249947E0,-1.4275387E-2,1.4995989E-1,2.1461827E-1,2.1043995E-1,1.68925E0,-1.3417406E-1,-7.70757E-2,-1.258923E-1,-4.957672E-2,