{"learner":{"attributes":{"best_iteration":"264","best_score":"0.9054419342430112"},"feature_names":["items_in_cart","cart_value","completeness","meal_period","order_hour","is_weekend","restaurant","cart_has_main","cart_has_side","cart_has_drink","cart_has_dessert","user_order_count","user_avg_order_value","user_avg_items","user_weekend_ratio","user_single_item_ratio","user_is_cold_start","cand_category","cand_veg_nonveg","cand_cuisine","cand_typical_role","cand_flavor_profile","cand_popularity_rank","cand_order_frequency","cand_solo_ratio","cand_avg_price","fills_missing_slot","veg_compatible","max_lift","total_co_count","max_confidence","copurchase_pairs","city","city_lift","city_rank","is_local_favorite","cuisine_city_share","cuisine_city_rank","hour_sin","hour_cos","price_ratio","popularity_x_lift","completeness_gap","price_vs_user_avg","complement_fills_gap","cart_size_bucket","city_item_signal"],"feature_types":["int","float","float","int","int","int","int","int","int","int","int","int","float","float","float","float","int","int","int","int","int","int","int","int","float","float","int","int","float","int","float","int","int","float","float","int","float","float","float","float","float","float","float","float","int","int","float"],"gradient_booster":{"model":{"cats":{"enc":[],"feature_segments":[],"sorted_idx":[]},"gbtree_model_param":{"num_parallel_tree":"1","num_trees":"315"},"iteration_indptr":[0,1,2,3,4,5,6,7,8,9,10,11,12,13,14,15,16,17,18,19,20,21,22,23,24,25,26,27,28,29,30,31,32,33,34,35,36,37,38,39,40,41,42,43,44,45,46,47,48,49,50,51,52,53,54,55,56,57,58,59,60,61,62,63,64,65,66,67,68,69,70,71,72,73,74,75,76,77,78,79,80,81,82,83,84,85,86,87,88,89,90,91,92,93,94,95,96,97,98,99,100,101,102,103,104,105,106,107,108,109,110,111,112,113,114,115,116,117,118,119,120,121,122,123,124,125,126,127,128,129,130,131,132,133,134,135,136,137,138,139,140,141,142,143,144,145,146,147,148,149,150,151,152,153,154,155,156,157,158,159,160,161,162,163,164,165,166,167,168,169,170,171,172,173,174,175,176,177,178,179,180,181,182,183,184,185,186,187,188,189,190,191,192,193,194,195,196,197,198,199,200,201,202,203,204,205,206,207,208,209,210,211,212,213,214,215,216,217,218,219,220,221,222,223,224,225,226,227,228,229,230,231,232,233,234,235,236,237,238,239,240,241,242,243,244,245,246,247,248,249,250,251,252,253,254,255,256,257,258,259,260,261,262,263,264,265,266,267,268,269,270,271,272,273,274,275,276,277,278,279,280,281,282,283,284,285,286,287,288,289,290,291,292,293,294,295,296,297,298,299,300,301,302,303,304,305,306,307,308,309,310,311,312,313,314,315],"tree_info":[0,0,0,0,0,0,0,0,0,0,0,0,0,0,0,0,0,0,0,0,0,0,0,0,0,0,0,0,0,0,0,0,0,0,0,0,0,0,0,0,0,0,0,0,0,0,0,0,0,0,0,0,0,0,0,0,0,0,0,0,0,0,0,0,0,0,0,0,0,0,0,0,0,0,0,0,0,0,0,0,0,0,0,0,0,0,0,0,0,0,0,0,0,0,0,0,0,0,0,0,0,0,0,0,0,0,0,0,0,0,0,0,0,0,0,0,0,0,0,0,0,0,0,0,0,0,0,0,0,0,0,0,0,0,0,0,0,0,0,0,0,0,0,0,0,0,0,0,0,0,0,0,0,0,0,0,0,0,0,0,0,0,0,0,0,0,0,0,0,0,0,0,0,0,0,0,0,0,0,0,0,0,0,0,0,0,0,0,0,0,0,0,0,0,0,0,0,0,0,0,0,0,0,0,0,0,0,0,0,0,0,0,0,0,0,0,0,0,0,0,0,0,0,0,0,0,0,0,0,0,0,0,0,0,0,0,0,0,0,0,0,0,0,0,0,0,0,0,0,0,0,0,0,0,0,0,0,0,0,0,0,0,0,0,0,0,0,0,0,0,0,0,0,0,0,0,0,0,0,0,0,0,0,0,0,0,0,0,0,0,0,0,0,0,0,0,0,0,0,0,0,0,0,0,0,0,0,0,0,0,0,0,0,0,0],"trees":[{"base_weights":[-8.182676E-2,-6.01671E-1,1.0966581E0,-8.321779E-1,7.579212E-1,6.992767E-2,1.4265842E0,-1.3754282E0,-5.855948E-1,-6.7506135E-1,1.3294058E0,-1.3162661E0,1.3739036E0,-1.0604293E0,1.5567036E0,-1.380278E0,-5.985977E-3,3.6662173E-2,-9.546509E-1,1.9710797E-1,-7.677345E-1,2.155373E0,-5.5012204E-2,-1.3465774E0,-7.3313403E-1,-1.0069481E0,2.507362E0,-4.4664657E-1,-1.2049966E0,1.0636088E0,1.9771467E0,-1.0973225E-1,-1.1375649E0,-1.2233018E0,2.9112655E-1,-5.2438307E-1,-1.0643384E0,-1.315989E0,-4.9488333E-1,1.215434E0,2.947608E0,7.405904E-1,-9.754601E-1,-5.119033E-2,-1.3642904E0,4.3317284E-2,-1.0913131E-1,-1.3076242E0,2.2342484E-1,2.814075E0,3.073018E-1,-9.293664E-1,6.3654564E-2,-1.0996263E0,-1.3284699E0,7.790558E-1,1.7221277E0,2.115118E0,7.1885455E-1,-2.2003159E-2,-1.09402806E-1,-1.0183233E0,-1.287617E0,5.572441E-1,-4.84053E-1,-2.5691742E-1,-9.836019E-1,-1.1702821E0,-9.235608E-1,-1.0964783E-1,-6.2886246E-2,-9.135744E-1,-1.6387963E-1,2.4870775E0,3.0765235E-1,1.3783492E0,3.2636647E0,2.4983235E-1,5.69586E-1,-1.2487084E0,-5.6520694E-1,-1.3797176E0,-6.635505E-2,-2.368943E-2,-1.0966836E-1,4.5829722E-1,2.9515069E0,-6.1491895E-1,2.546132E-1,-4.603851E-2,-1.01612486E-1,-1.1568328E0,-5.376199E-2,-9.166317E-2,-1.07678734E-1,9.3040365E-1,-1.0815116E-1,2.360379E0,2.585346E-1,1.7453164E0,2.9178698E0,-3.6462674E-1,1.1947324E0,-1.1106684E0,-6.9739217E-1,-1.3174533E0,-1.1780173E0,4.0450588E-1,1.4313034E0,1.2307235E0,-7.112338E-1,-4.2336965E-1,3.2405264E0,-1.0892802E0,-2.3178904E-1,-1.0970454E-1,-1.1180664E0,-9.597023E-1,3.187911E-1,-7.9601485E-1,-1.2325499E0,1.402677E-1,-6.102236E-1,2.813066E0,-2.8017096E-3,-1.2473671E0,2.267562E0,2.1820512E0,9.8022944E-1,3.4081786E0,2.4273093E0,-6.1823884E-3,1.1511357E0,-1.3434767E0,-1.1508278E0,-7.7547884E-1,8.8293135E-2,-1.0971297E-1,-1.2795414E0,1.2543838E-2,5.947523E-2,3.2316892E0,2.5106716E0,-1.1321169E0,6.8458E-2,-1.3089565E0,-8.439435E-1,6.495875E-1,1.3222677E0,2.515548E0,1.8018341E0,1.4066308E0,-7.816719E-2,1.9087094E0,-1.2581372E0,3.016176E0,2.3777936E0,2.9321656E-1,-8.336537E-1,1.3616695E0,-3.912122E-3,-1.09123684E-1,-1.0206159E0,-2.037335E-2,-9.186234E-2,-1.3324368E0,-8.925132E-2,-1.238943E0,-6.8383895E-2,2.3981468E-1,3.7342805E-1,8.3911675E-1,3.2797241E0,1.5304927E0,3.9493307E-2,-8.239479E-1,1.6637949E0,-1.2602352E0,-1.8267353E-1,2.705482E-1,2.3393367E-1,-1.1359917E0,-1.9138644E-2,8.758116E-2,-8.153583E-1,-1.1341686E0,-6.196364E-1,-1.064176E0,-7.621315E-1,1.4198989E0,-8.279455E-1,-6.304874E-1,-1.1043394E0,-6.875026E-2,-1.0927254E-1,3.4336168E-1,-8.712676E-2,-9.5176625E-1,2.5073063E-1,3.0598752E0,9.661273E-2,-2.9257799E-2,-1.341725E0,5.883682E-1,2.7610314E0,1.2554024E-1,2.2369358E-1,1.2227846E0,2.8653251E-2,2.8528258E-1,3.152582E0,1.7852217E0,3.2254279E0,-4.284898E-1,8.795043E-1,-2.79765E-2,1.3045391E0,-1.0950222E-1,-9.166317E-2,-9.965236E-1,-1.059127E-1,-1.1779621E0,-5.278715E-1,3.8865987E-2,-2.5122719E-2,-1.08741954E-1,-9.164186E-2,3.3743458E0,2.7227578E0,2.1465173E0,2.8453165E-1,-1.0849746E-1,-5.3531192E-2,-1.0703158E-1,-9.036816E-2,-3.9654925E-2,-1.00057416E-1,7.6826686E-1,-2.4603474E-1,1.3882838E0,-6.5283686E-2,2.3684895E0,2.910969E0,1.2354767E0,2.299712E0,3.232533E-2,2.0636585E0,7.074602E-2,-7.326983E-1,1.9601313E0,-7.2995347E-1,-4.7448244E-2,-1.0950878E-1,2.6667414E0,3.2085457E0,2.9763675E0,1.6061474E0,6.427515E-2,-2.5966287E-2,-5.797064E-1,-9.547684E-2,1.0430913E0,1.9640154E0,-7.250359E-2,-1.0311447E-1,-9.929561E-2,-1.07994355E-1,-1.0353848E-1,-7.422127E-2,1.9981715E-1,2.6940241E-2,8.863484E-2,-2.3880838E-3,2.842126E-1,2.4596424E-1,2.7642837E-2,1.5714961E-1,1.7994506E-2,-6.931946E-2,7.4149765E-2,1.8340974E-1,-9.477814E-2,-1.0943667E-1,8.952483E-2,-1.8439362E-2,-9.9592805E-2,-7.917892E-2,-5.3451054E-2,-8.190578E-2,-1.0235586E-1,-8.751144E-2,-7.6260366E-2,-1.2094148E-2,-9.145034E-2,-7.239575E-2,4.692879E-2,-6.562091E-2,1.7703073E-1,4.0684473E-2,-4.1080367E-2,-8.989424E-2,-9.928864E-2,-3.9084956E-2,-1.0907813E-1,-6.331141E-2,9.987011E-2,1.1543575E-2,-9.796277E-2,-4.713672E-2,4.034399E-2,-9.775452E-4,2.5575778E-1,1.11167096E-1,-1.09602705E-1,-7.7936634E-2,1.0235233E-3,9.284517E-2,8.9110814E-2,2.4084055E-1,8.4654786E-2,1.1004387E-1,2.720377E-1,1.866557E-1,1.9681579E-1,4.2682618E-2,2.2949989E-1,2.8170386E-1,-8.303664E-2,-2.979949E-3,4.7922913E-2,1.2652719E-1,8.911129E-3,1.17477365E-1,-9.883232E-2,-5.5476915E-2,-1.0878099E-1,-7.538454E-2,-9.297096E-2,-1.9206665E-2,2.2585198E-1,2.7637267E-1,5.0850246E-2,2.830824E-1,4.215062E-2,2.0405723E-1,7.741416E-2,2.1991206E-2,-5.6033533E-2,5.3045038E-2,1.22350395E-1,7.6183334E-2,1.7270654E-1,2.0627879E-1,1.8993294E-1,2.3910053E-1,2.252389E-2,1.2664427E-1,1.2733117E-1,2.1429585E-1,2.0213214E-1,1.254468E-1,-1.0170792E-2,4.618303E-2,-7.538454E-2,-3.9574414E-2,1.711129E-1,1.052874E-1,-1.5354061E-2,-9.3142495E-2,2.2264208E-1,1.6443251E-1,2.6574498E-1,2.4165684E-1,2.1638533E-1,2.721955E-1,3.5435036E-2,1.5974885E-1,-1.0043572E-2,-8.157706E-2,5.904089E-2,1.3883342E-1,1.7463157E-1,1.0291734E-1],"categories":[],"categories_nodes":[],"categories_segments":[],"categories_sizes":[],"default_left":[0,0,0,0,0,0,0,0,0,0,0,0,0,0,0,0,0,0,0,0,0,0,0,0,0,0,0,0,0,0,0,0,0,0,0,0,0,0,0,0,0,0,0,0,0,0,0,0,0,0,0,0,0,0,0,0,0,0,0,0,0,0,0,0,0,0,0,0,0,0,0,0,0,0,0,0,0,0,0,0,0,0,0,0,0,0,0,0,0,0,0,0,0,0,0,0,0,0,0,0,0,0,0,0,0,0,0,0,0,0,0,0,0,0,0,0,0,0,0,0,0,0,0,0,0,0,0,0,0,0,0,0,0,0,0,0,0,0,0,0,0,0,0,0,0,0,0,0,0,0,0,0,0,0,0,0,0,0,0,0,0,0,0,0,0,0,0,0,0,0,0,0,0,0,0,0,0,0,0,0,0,0,0,0,0,0,0,0,0,0,0,0,0,0,0,0,0,0,0,0,0,0,0,0,0,0,0,0,0,0,0,0,0,0,0,0,0,0,0,0,0,0,0,0,0,0,0,0,0,0,0,0,0,0,0,0,0,0,0,0,0,0,0,0,0,0,0,0,0,0,0,0,0,0,0,0,0,0,0,0,0,0,0,0,0,0,0,0,0,0,0,0,0,0,0,0,0,0,0,0,0,0,0,0,0,0,0,0,0,0,0,0,0,0,0,0,0,0,0,0,0,0,0,0,0,0,0,0,0,0,0,0,0,0,0,0,0,0,0,0,0,0,0,0,0,0,0,0,0,0,0,0,0,0,0,0,0,0,0,0,0,0,0,0,0,0,0,0,0,0,0,0,0,0,0,0,0,0,0,0,0,0,0,0,0,0,0,0,0,0,0,0,0,0,0,0,0,0,0,0,0,0,0],"id":0,"left_children":[1,3,5,7,9,11,13,15,17,19,21,23,25,27,29,31,-1,33,35,-1,37,39,41,43,45,47,49,51,53,55,57,-1,59,61,63,65,67,69,71,73,75,77,79,-1,81,-1,-1,83,-1,85,87,89,-1,91,93,95,97,99,101,-1,-1,103,105,107,109,111,113,115,117,-1,-1,119,121,123,125,127,129,-1,131,133,135,137,-1,-1,-1,139,141,143,-1,-1,-1,145,-1,-1,-1,147,-1,149,151,153,155,157,159,161,163,165,167,169,171,173,175,177,179,181,183,-1,185,187,189,191,193,195,197,199,-1,201,203,205,207,209,211,213,215,217,219,221,223,-1,225,-1,-1,227,229,231,-1,233,235,237,239,241,243,245,247,249,251,253,255,257,259,261,-1,-1,263,-1,-1,265,-1,267,-1,-1,269,271,273,275,-1,277,279,281,283,-1,-1,285,-1,-1,287,289,291,293,295,297,299,301,303,-1,-1,305,-1,307,309,311,-1,-1,313,315,317,-1,-1,319,-1,-1,321,323,325,327,329,-1,331,-1,-1,333,-1,335,337,-1,-1,-1,-1,339,341,343,-1,-1,-1,-1,-1,-1,-1,345,347,349,-1,351,353,355,357,-1,359,361,363,365,367,-1,-1,369,371,373,375,-1,-1,377,-1,379,381,-1,-1,-1,-1,-1,-1,-1,-1,-1,-1,-1,-1,-1,-1,-1,-1,-1,-1,-1,-1,-1,-1,-1,-1,-1,-1,-1,-1,-1,-1,-1,-1,-1,-1,-1,-1,-1,-1,-1,-1,-1,-1,-1,-1,-1,-1,-1,-1,-1,-1,-1,-1,-1,-1,-1,-1,-1,-1,-1,-1,-1,-1,-1,-1,-1,-1,-1,-1,-1,-1,-1,-1,-1,-1,-1,-1,-1,-1,-1,-1,-1,-1,-1,-1,-1,-1,-1,-1,-1,-1,-1,-1,-1,-1,-1,-1,-1,-1,-1,-1,-1,-1,-1,-1,-1,-1,-1,-1,-1,-1,-1,-1,-1,-1,-1,-1,-1,-1,-1,-1],"loss_changes":[1.6490865E4,5.8539473E3,2.7910518E3,2.1392852E3,2.2176812E3,3.622571E3,2.018209E3,3.1413086E1,2.5227537E3,2.2652408E2,2.2136685E3,1.6993164E1,2.787236E3,2.7421326E1,1.2281357E3,4.147461E0,0E0,1.3113436E3,3.2533643E2,0E0,1.121178E2,9.022471E2,5.300002E2,1.1304199E1,3.995955E1,3.8382886E2,4.719668E2,3.5961227E1,3.002594E0,5.1086963E2,5.549746E2,0E0,1.5566139E1,8.824951E0,7.020112E2,1.7204803E2,8.175586E1,8.519745E0,6.943906E1,6.403682E2,3.25458E2,1.5968367E2,3.7486694E1,0E0,7.118042E0,0E0,0E0,2.346936E1,0E0,1.9855518E2,2.301431E2,5.1384125E0,0E0,3.1483917E0,3.0366516E-1,6.180869E2,7.68551E2,8.546865E2,1.6316708E2,0E0,0E0,4.7499695E0,1.4304199E0,3.3809155E2,3.3896942E2,5.158373E2,4.0921265E1,3.4637207E1,1.0603259E2,0E0,0E0,8.120895E0,3.8048115E1,1.9003625E2,9.877899E2,3.5000793E1,6.4691895E1,0E0,1.2144861E2,1.5898438E0,1.849039E1,3.2592773E-2,0E0,0E0,0E0,2.960044E0,7.021533E1,5.0078575E1,0E0,0E0,0E0,5.5065002E0,0E0,0E0,0E0,1.9565198E2,0E0,4.885083E1,9.668982E1,9.6896436E2,4.6970703E1,2.9869083E1,4.566632E1,2.80542E0,7.5306816E0,9.071655E-1,1.9895782E0,1.7540475E2,4.1190985E2,2.2221725E1,2.0585977E2,1.7028456E2,2.1627808E-1,1.7853394E1,4.9894146E1,0E0,2.009082E1,4.7195557E1,8.462334E1,8.151604E0,2.9390259E0,4.2031925E1,3.3439346E1,7.987195E1,0E0,1.4890167E1,1.1851544E2,1.3167664E1,1.1068459E1,2.061084E1,4.0621063E1,6.830073E1,4.1714447E1,4.2660522E-1,2.621994E0,1.0027924E1,5.3829913E0,0E0,1.240387E-1,0E0,0E0,2.4075684E1,8.7430786E1,5.0626717E0,0E0,2.808075E-1,5.5926E0,1.1024991E2,1.0539624E2,2.4821777E1,3.479419E1,3.7073242E1,1.8873066E1,2.542373E2,8.122192E0,5.0112305E1,6.416943E1,1.3010888E1,5.1878967E0,3.6826447E1,0E0,0E0,2.6439896E0,0E0,0E0,5.921631E-1,0E0,1.6991119E0,0E0,0E0,1.5384894E2,6.920387E1,2.9701538E0,3.8379547E1,0E0,3.881534E1,1.6106194E1,1.1749268E0,4.303219E1,0E0,0E0,6.842041E0,0E0,0E0,1.2420006E0,1.1397705E1,1.2634888E1,2.002832E1,7.048349E1,2.4979477E1,3.007162E0,8.948486E0,4.4849777E0,0E0,0E0,2.5952023E1,0E0,8.114639E0,2.2013311E0,4.7859497E1,0E0,0E0,2.1323853E0,1.0988951E1,4.9525024E1,0E0,0E0,1.0990067E0,0E0,0E0,4.3055054E1,3.924617E1,2.075592E0,2.990018E1,1.1443405E1,0E0,3.45466E1,0E0,0E0,3.949665E0,0E0,1.4678001E0,1.1607565E1,0E0,0E0,0E0,0E0,1.4378174E1,1.37961E2,1.16686035E2,0E0,0E0,0E0,0E0,0E0,0E0,0E0,9.348425E1,5.128138E1,4.7415283E1,0E0,1.3518311E1,5.220703E0,2.020768E1,1.7797302E1,0E0,7.2715454E0,1.608653E1,1.7418556E0,2.292915E2,8.523293E0,0E0,0E0,2.1889526E1,9.557129E0,7.2630615E0,2.9149185E1,0E0,0E0,6.8636494E0,0E0,2.6629791E1,1.0105652E1,0E0,0E0,0E0,0E0,0E0,0E0,0E0,0E0,0E0,0E0,0E0,0E0,0E0,0E0,0E0,0E0,0E0,0E0,0E0,0E0,0E0,0E0,0E0,0E0,0E0,0E0,0E0,0E0,0E0,0E0,0E0,0E0,0E0,0E0,0E0,0E0,0E0,0E0,0E0,0E0,0E0,0E0,0E0,0E0,0E0,0E0,0E0,0E0,0E0,0E0,0E0,0E0,0E0,0E0,0E0,0E0,0E0,0E0,0E0,0E0,0E0,0E0,0E0,0E0,0E0,0E0,0E0,0E0,0E0,0E0,0E0,0E0,0E0,0E0,0E0,0E0,0E0,0E0,0E0,0E0,0E0,0E0,0E0,0E0,0E0,0E0,0E0,0E0,0E0,0E0,0E0,0E0,0E0,0E0,0E0,0E0,0E0,0E0,0E0,0E0,0E0,0E0,0E0,0E0,0E0,0E0,0E0,0E0,0E0,0E0,0E0,0E0,0E0,0E0,0E0,0E0,0E0,0E0,0E0,0E0],"parents":[2147483647,0,0,1,1,2,2,3,3,4,4,5,5,6,6,7,7,8,8,9,9,10,10,11,11,12,12,13,13,14,14,15,15,17,17,18,18,20,20,21,21,22,22,23,23,24,24,25,25,26,26,27,27,28,28,29,29,30,30,32,32,33,33,34,34,35,35,36,36,37,37,38,38,39,39,40,40,41,41,42,42,44,44,47,47,49,49,50,50,51,51,53,53,54,54,55,55,56,56,57,57,58,58,61,61,62,62,63,63,64,64,65,65,66,66,67,67,68,68,71,71,72,72,73,73,74,74,75,75,76,76,78,78,79,79,80,80,81,81,85,85,86,86,87,87,91,91,95,95,97,97,98,98,99,99,100,100,101,101,102,102,103,103,104,104,105,105,106,106,107,107,108,108,109,109,110,110,111,111,112,112,113,113,114,114,116,116,117,117,118,118,119,119,120,120,121,121,122,122,123,123,125,125,126,126,127,127,128,128,129,129,130,130,131,131,132,132,133,133,134,134,135,135,136,136,138,138,141,141,142,142,143,143,145,145,146,146,147,147,148,148,149,149,150,150,151,151,152,152,153,153,154,154,155,155,156,156,157,157,158,158,159,159,162,162,165,165,167,167,170,170,171,171,172,172,173,173,175,175,176,176,177,177,178,178,181,181,184,184,185,185,186,186,187,187,188,188,189,189,190,190,191,191,192,192,195,195,197,197,198,198,199,199,202,202,203,203,204,204,207,207,210,210,211,211,212,212,213,213,214,214,216,216,219,219,221,221,222,222,227,227,228,228,229,229,237,237,238,238,239,239,241,241,242,242,243,243,244,244,246,246,247,247,248,248,249,249,250,250,253,253,254,254,255,255,256,256,259,259,261,261,262,262],"right_children":[2,4,6,8,10,12,14,16,18,20,22,24,26,28,30,32,-1,34,36,-1,38,40,42,44,46,48,50,52,54,56,58,-1,60,62,64,66,68,70,72,74,76,78,80,-1,82,-1,-1,84,-1,86,88,90,-1,92,94,96,98,100,102,-1,-1,104,106,108,110,112,114,116,118,-1,-1,120,122,124,126,128,130,-1,132,134,136,138,-1,-1,-1,140,142,144,-1,-1,-1,146,-1,-1,-1,148,-1,150,152,154,156,158,160,162,164,166,168,170,172,174,176,178,180,182,184,-1,186,188,190,192,194,196,198,200,-1,202,204,206,208,210,212,214,216,218,220,222,224,-1,226,-1,-1,228,230,232,-1,234,236,238,240,242,244,246,248,250,252,254,256,258,260,262,-1,-1,264,-1,-1,266,-1,268,-1,-1,270,272,274,276,-1,278,280,282,284,-1,-1,286,-1,-1,288,290,292,294,296,298,300,302,304,-1,-1,306,-1,308,310,312,-1,-1,314,316,318,-1,-1,320,-1,-1,322,324,326,328,330,-1,332,-1,-1,334,-1,336,338,-1,-1,-1,-1,340,342,344,-1,-1,-1,-1,-1,-1,-1,346,348,350,-1,352,354,356,358,-1,360,362,364,366,368,-1,-1,370,372,374,376,-1,-1,378,-1,380,382,-1,-1,-1,-1,-1,-1,-1,-1,-1,-1,-1,-1,-1,-1,-1,-1,-1,-1,-1,-1,-1,-1,-1,-1,-1,-1,-1,-1,-1,-1,-1,-1,-1,-1,-1,-1,-1,-1,-1,-1,-1,-1,-1,-1,-1,-1,-1,-1,-1,-1,-1,-1,-1,-1,-1,-1,-1,-1,-1,-1,-1,-1,-1,-1,-1,-1,-1,-1,-1,-1,-1,-1,-1,-1,-1,-1,-1,-1,-1,-1,-1,-1,-1,-1,-1,-1,-1,-1,-1,-1,-1,-1,-1,-1,-1,-1,-1,-1,-1,-1,-1,-1,-1,-1,-1,-1,-1,-1,-1,-1,-1,-1,-1,-1,-1,-1,-1,-1,-1,-1],"split_conditions":[7.46994E2,3.6003E0,2E-1,2E-1,1E0,3.5766E0,1E0,3.5234E0,5.7E1,1.345E2,4E-1,4.9429766E3,1E0,2.4260356E-1,1.897632E3,3.1503E0,-5.985977E-3,1E0,7.6E1,1.9710797E-1,2.5E-1,1.14E2,1E0,6E0,7.861974E-1,4.80925E1,3.0778664E-1,1.3373304E3,5.4E1,1E0,1E0,-1.0973225E-1,5.6346077E-1,3.375E-1,1E0,1E0,1E0,1E0,3.531645E2,1E0,5.844846E-1,3E0,2E0,-5.119033E-2,4.7E1,4.3317284E-2,-1.0913131E-1,6E0,2.2342484E-1,2E0,1.64659E1,2.2E1,6.3654564E-2,3.630749E3,-7.0710677E-1,6E-1,1E0,1E0,3.325E2,-2.2003159E-2,-1.09402806E-1,2.909091E0,1.5751E0,1E0,1.6E1,2E0,1E0,1E0,6E0,-1.0964783E-1,-6.2886246E-2,1.9496855E-1,2E0,8E0,8.2808E0,3.5605025E-1,3.595E-1,2.4983235E-1,3.337704E2,7.972163E-1,4.285632E2,3.4635E0,-6.635505E-2,-2.368943E-2,-1.0966836E-1,4.9074E0,2.59E2,6.52E2,2.546132E-1,-4.603851E-2,-1.01612486E-1,4.49E2,-5.376199E-2,-9.166317E-2,-1.07678734E-1,1.3534928E3,-1.0815116E-1,1.1459E3,8E0,6E-1,6.5E-1,4.3E1,1.3E1,2.295E2,3.625E2,1.415E0,1.322328E3,3E0,1E0,1.1304367E0,1E0,1E0,2.6E0,6E-1,1.8518519E-2,-1.0970454E-1,1.145053E2,1.106E0,4.0816326E-2,7.0710677E-1,1E0,9.729911E-1,7.7E1,5.3533E2,-2.8017096E-3,1E0,4.332405E2,8.8081E0,2.939E-1,5.9742E0,3.45033E2,6E-1,1.71E-1,2.8888888E0,7E0,2.969869E-1,2.3255814E-2,-1.0971297E-1,3.575E2,1.2543838E-2,5.947523E-2,2.0111732E-1,1E0,4.555775E3,6.8458E-2,5.3846157E-1,2.061E-1,8.2851624E-1,2.356287E0,1.3373304E3,6E-1,3.59E2,4.5E1,4E-1,3.2E1,2.8744485E3,1.392405E-1,1.5952785E0,2.4260356E-1,3.8448325E3,-3.912122E-3,-1.09123684E-1,4.4E1,-2.037335E-2,-9.186234E-2,6.5167886E-1,-8.925132E-2,4E0,-6.8383895E-2,2.3981468E-1,2.14E-2,4.8E1,3.3333335E-2,3.663213E-1,3.9493307E-2,2.14E-2,9.83E-1,8E0,4E-1,2.705482E-1,2.3393367E-1,4E0,-1.9138644E-2,8.758116E-2,3.69E2,1E0,5E0,1E0,2E0,1E0,3E0,4.8801088E-1,4.9883E0,-6.875026E-2,-1.0927254E-1,4.906125E2,-8.712676E-2,1.8E1,4.50568E2,8.217138E-1,9.661273E-2,-2.9257799E-2,5.229131E2,9.405695E-1,3.788E-1,1.2554024E-1,2.2369358E-1,1.0833334E0,2.8653251E-2,2.8528258E-1,3.035E2,2.3403E2,4.29664E2,2.9587948E-1,4.6666665E0,-2.79765E-2,7.63E-1,-1.0950222E-1,-9.166317E-2,3E-1,-1.059127E-1,1.2495E3,3E0,3.8865987E-2,-2.5122719E-2,-1.08741954E-1,-9.164186E-2,5.25E0,3.5479448E0,4.4995E0,2.8453165E-1,-1.0849746E-1,-5.3531192E-2,-1.0703158E-1,-9.036816E-2,-3.9654925E-2,-1.00057416E-1,2E0,1E0,2E0,-6.5283686E-2,4.5101982E-1,-7.0710677E-1,1.9915392E-1,1.071E0,3.232533E-2,4.52E2,2E0,1.9202E0,2E0,3.2E1,-4.7448244E-2,-1.0950878E-1,3.2857144E0,2.6E0,5E1,2.7817E0,6.427515E-2,-2.5966287E-2,2.9902E2,-9.547684E-2,8.1832045E-1,6.2554736E3,-7.250359E-2,-1.0311447E-1,-9.929561E-2,-1.07994355E-1,-1.0353848E-1,-7.422127E-2,1.9981715E-1,2.6940241E-2,8.863484E-2,-2.3880838E-3,2.842126E-1,2.4596424E-1,2.7642837E-2,1.5714961E-1,1.7994506E-2,-6.931946E-2,7.4149765E-2,1.8340974E-1,-9.477814E-2,-1.0943667E-1,8.952483E-2,-1.8439362E-2,-9.9592805E-2,-7.917892E-2,-5.3451054E-2,-8.190578E-2,-1.0235586E-1,-8.751144E-2,-7.6260366E-2,-1.2094148E-2,-9.145034E-2,-7.239575E-2,4.692879E-2,-6.562091E-2,1.7703073E-1,4.0684473E-2,-4.1080367E-2,-8.989424E-2,-9.928864E-2,-3.9084956E-2,-1.0907813E-1,-6.331141E-2,9.987011E-2,1.1543575E-2,-9.796277E-2,-4.713672E-2,4.034399E-2,-9.775452E-4,2.5575778E-1,1.11167096E-1,-1.09602705E-1,-7.7936634E-2,1.0235233E-3,9.284517E-2,8.9110814E-2,2.4084055E-1,8.4654786E-2,1.1004387E-1,2.720377E-1,1.866557E-1,1.9681579E-1,4.2682618E-2,2.2949989E-1,2.8170386E-1,-8.303664E-2,-2.979949E-3,4.7922913E-2,1.2652719E-1,8.911129E-3,1.17477365E-1,-9.883232E-2,-5.5476915E-2,-1.0878099E-1,-7.538454E-2,-9.297096E-2,-1.9206665E-2,2.2585198E-1,2.7637267E-1,5.0850246E-2,2.830824E-1,4.215062E-2,2.0405723E-1,7.741416E-2,2.1991206E-2,-5.6033533E-2,5.3045038E-2,1.22350395E-1,7.6183334E-2,1.7270654E-1,2.0627879E-1,1.8993294E-1,2.3910053E-1,2.252389E-2,1.2664427E-1,1.2733117E-1,2.1429585E-1,2.0213214E-1,1.254468E-1,-1.0170792E-2,4.618303E-2,-7.538454E-2,-3.9574414E-2,1.711129E-1,1.052874E-1,-1.5354061E-2,-9.3142495E-2,2.2264208E-1,1.6443251E-1,2.6574498E-1,2.4165684E-1,2.1638533E-1,2.721955E-1,3.5435036E-2,1.5974885E-1,-1.0043572E-2,-8.157706E-2,5.904089E-2,1.3883342E-1,1.7463157E-1,1.0291734E-1],"split_indices":[41,28,2,2,20,28,27,28,22,1,2,41,26,24,41,28,0,27,22,0,2,22,26,29,40,28,24,41,29,20,26,0,40,28,26,26,6,26,41,6,40,17,0,0,22,0,0,29,0,11,28,29,0,41,39,2,26,20,1,0,0,13,28,6,22,20,6,17,21,0,0,24,0,29,28,43,36,0,41,40,41,28,0,0,0,28,1,1,0,0,0,1,0,0,0,41,0,12,22,2,2,29,22,1,1,46,12,17,20,40,6,27,13,2,24,0,41,33,24,39,17,43,22,1,0,7,41,28,36,28,41,2,36,13,29,40,24,0,1,0,0,24,10,41,0,14,36,43,40,41,2,1,29,24,29,41,24,40,24,41,0,0,22,0,0,40,0,17,0,0,36,22,24,43,0,36,33,29,2,0,0,17,0,0,1,27,21,20,6,26,11,40,28,0,0,12,0,29,41,43,0,0,41,40,36,0,0,13,0,0,1,1,12,43,13,0,33,0,0,14,0,1,17,0,0,0,0,28,40,28,0,0,0,0,0,0,0,0,6,0,0,43,39,43,33,0,1,0,28,0,29,0,0,13,13,22,28,0,0,1,0,40,41,0,0,0,0,0,0,0,0,0,0,0,0,0,0,0,0,0,0,0,0,0,0,0,0,0,0,0,0,0,0,0,0,0,0,0,0,0,0,0,0,0,0,0,0,0,0,0,0,0,0,0,0,0,0,0,0,0,0,0,0,0,0,0,0,0,0,0,0,0,0,0,0,0,0,0,0,0,0,0,0,0,0,0,0,0,0,0,0,0,0,0,0,0,0,0,0,0,0,0,0,0,0,0,0,0,0,0,0,0,0,0,0,0,0,0,0,0,0,0,0],"split_type":[0,0,0,0,0,0,0,0,0,0,0,0,0,0,0,0,0,0,0,0,0,0,0,0,0,0,0,0,0,0,0,0,0,0,0,0,0,0,0,0,0,0,0,0,0,0,0,0,0,0,0,0,0,0,0,0,0,0,0,0,0,0,0,0,0,0,0,0,0,0,0,0,0,0,0,0,0,0,0,0,0,0,0,0,0,0,0,0,0,0,0,0,0,0,0,0,0,0,0,0,0,0,0,0,0,0,0,0,0,0,0,0,0,0,0,0,0,0,0,0,0,0,0,0,0,0,0,0,0,0,0,0,0,0,0,0,0,0,0,0,0,0,0,0,0,0,0,0,0,0,0,0,0,0,0,0,0,0,0,0,0,0,0,0,0,0,0,0,0,0,0,0,0,0,0,0,0,0,0,0,0,0,0,0,0,0,0,0,0,0,0,0,0,0,0,0,0,0,0,0,0,0,0,0,0,0,0,0,0,0,0,0,0,0,0,0,0,0,0,0,0,0,0,0,0,0,0,0,0,0,0,0,0,0,0,0,0,0,0,0,0,0,0,0,0,0,0,0,0,0,0,0,0,0,0,0,0,0,0,0,0,0,0,0,0,0,0,0,0,0,0,0,0,0,0,0,0,0,0,0,0,0,0,0,0,0,0,0,0,0,0,0,0,0,0,0,0,0,0,0,0,0,0,0,0,0,0,0,0,0,0,0,0,0,0,0,0,0,0,0,0,0,0,0,0,0,0,0,0,0,0,0,0,0,0,0,0,0,0,0,0,0,0,0,0,0,0,0,0,0,0,0,0,0,0,0,0,0,0,0,0,0,0,0,0,0,0,0,0,0,0,0,0,0,0,0,0,0,0,0,0,0,0],"sum_hessian":[2.6917846E4,1.867858E4,8.239265E3,1.5970922E4,2.7076592E3,2.0037649E3,6.2355E3,4.985808E3,1.0985113E4,7.719586E2,1.9357006E3,9.712612E2,1.0325037E3,3.0995486E2,5.9255454E3,4.967264E3,1.8543919E1,4.0897073E3,6.8954062E3,2.1856955E1,7.501017E2,1.2123153E3,7.2338525E2,9.2304706E2,4.8214188E1,3.3301575E2,6.9948785E2,5.9227657E1,2.507272E2,2.727439E3,3.1981062E3,4.892387E3,7.4877335E1,6.87066E2,3.402641E3,1.4009568E3,5.494449E3,2.4903043E2,5.0107123E2,5.5467566E2,6.5763965E2,3.8802396E2,3.3536127E2,2.2915205E1,9.0013184E2,1.6138222E1,3.2075966E1,3.088528E2,2.4162935E1,6.13859E2,8.562882E1,4.275577E1,1.6471886E1,1.3623166E2,1.14495544E2,1.90476E3,8.22679E2,2.881977E3,3.161293E2,1.6539171E1,5.8338165E1,1.6480733E2,5.222586E2,2.5330886E3,8.695525E2,8.8549274E2,5.1546405E2,3.1343562E3,2.3600933E3,2.2052228E2,2.850814E1,2.2109264E2,2.799786E2,2.3090665E2,3.2376898E2,1.1040715E2,5.472325E2,2.550082E1,3.6252316E2,2.0107253E2,1.3428876E2,8.7427057E2,2.586125E1,2.1572441E1,2.872804E2,3.388024E1,5.7997876E2,6.509479E1,2.0534029E1,2.17205E1,2.103527E1,1.19679756E2,1.6551907E1,1.781309E1,9.668245E1,1.7792091E3,1.2555082E2,5.7278613E2,2.498929E2,1.9734401E3,9.08537E2,9.648651E1,2.1964278E2,1.2764042E2,3.716691E1,4.089649E2,1.1329373E2,2.156508E3,3.765806E2,1.01632935E2,7.6791956E2,8.4541315E2,4.00796E1,4.518663E2,6.359776E1,6.1545764E2,2.5188984E3,2.2934163E3,6.667685E1,1.6200684E2,5.9085804E1,1.6658336E2,1.1339524E2,2.0446278E2,2.6443874E1,1.8056761E2,1.4320137E2,3.6310314E1,7.409684E1,4.661426E2,8.10899E1,1.8225363E2,1.8026952E2,1.0101013E2,1.0006239E2,1.01575E2,3.2713753E1,8.3858606E2,3.5684513E1,1.6839884E1,1.7040358E1,3.53917E2,2.2606178E2,4.825491E1,1.6839884E1,8.014617E1,3.9533592E1,1.0367388E3,7.424704E2,4.4776974E2,1.2501641E2,5.6540886E1,1.93352E2,1.8716823E3,1.0175777E2,7.6794104E2,1.4059595E2,4.018596E1,5.6300556E1,1.9364308E2,2.5999695E1,3.1675018E1,9.59654E1,1.9153343E1,1.8013565E1,3.783506E2,3.061431E1,9.452202E1,1.8771713E1,2.5079512E1,2.1314287E3,2.8540268E2,9.1177925E1,7.198464E1,2.9648296E1,7.332376E2,3.4681942E1,1.8867226E2,6.567409E2,2.398386E1,1.6095743E1,4.2821396E2,2.365233E1,1.928194E1,4.431582E1,2.4398489E3,7.904957E1,1.4996383E3,7.937781E2,3.3994343E1,3.2682503E1,1.0576735E2,5.6239475E1,1.7186571E1,4.1899235E1,1.4323567E2,2.334769E1,8.117572E1,3.2219524E1,1.7691629E2,2.7546486E1,1.760144E1,1.6296617E2,3.2613514E1,1.1058786E2,1.9067026E1,1.724329E1,5.310702E1,2.0989815E1,2.6615665E2,1.9998595E2,4.525559E1,3.5834312E1,1.2347296E2,5.8780678E1,1.6663176E1,1.6360634E2,8.3197044E1,1.781309E1,5.5170624E1,4.489177E1,3.8432827E1,6.314217E1,1.640607E1,1.6307682E1,1.9446056E1,1.6238459E1,2.7565204E2,7.826498E1,1.6937029E2,5.6691494E1,3.1574781E1,1.6680128E1,6.3535927E1,1.661024E1,2.1906391E1,1.76272E1,9.154577E2,1.2128099E2,7.203693E2,2.2101091E1,3.272888E2,1.2048096E2,5.8775276E1,6.6241135E1,2.2547873E1,3.3993015E1,1.5764201E2,3.5709988E1,1.8359496E3,3.573271E1,1.615503E1,8.560274E1,2.7359564E2,4.9434537E2,7.889187E1,6.1704082E1,2.1888113E1,1.8297846E1,3.367607E1,2.2624485E1,1.2697287E2,6.667021E1,7.011874E1,2.5846666E1,1.0414481E2,2.7420578E2,7.693857E1,1.7583448E1,3.2698593E1,2.09873E3,2.1606473E2,6.9337944E1,3.231838E1,5.885955E1,1.998545E1,5.199919E1,3.34719E1,6.9976575E2,1.6548212E1,1.813373E1,1.2371842E2,6.4953835E1,2.3918997E1,6.328219E2,2.277211E2,2.0049287E2,2.7319212E1,1.6996607E1,3.958611E2,2.0439879E3,4.5516964E1,3.3532604E1,9.422515E2,5.573868E2,3.655232E1,7.5722577E2,1.7788748E1,1.6205597E1,1.6473213E1,1.6209291E1,1.889823E1,8.6869125E1,2.9469795E1,2.6769682E1,2.5259914E1,1.1797576E2,4.499897E1,3.617675E1,1.6182869E1,1.6036655E1,1.6068219E2,1.6234098E1,1.4594565E2,1.702052E1,1.6499493E1,1.6114023E1,1.6107063E1,9.44808E1,2.8066471E1,2.504055E1,1.4785365E2,5.213229E1,2.891533E1,1.6340256E1,1.8688517E1,1.7145796E1,4.7687244E1,7.578571E1,4.2706333E1,1.6074345E1,2.119881E1,1.4240753E2,2.9641104E1,2.5529522E1,2.0247955E1,1.8184872E1,1.9216413E1,4.392576E1,4.8968014E1,2.2668402E2,2.273665E1,5.5528324E1,3.550648E1,1.3386382E2,6.4280835E2,2.7264938E2,8.069711E1,4.0583878E1,5.285008E2,1.9186855E2,1.8120056E2,1.4608821E2,2.1034695E1,9.944626E1,1.6280218E1,4.249506E1,2.4664265E1,4.1576866E1,1.6544516E1,1.74485E1,1.135924E2,4.4049618E1,1.8184872E1,1.7525114E1,1.3978474E3,4.381021E2,1.6315825E1,1.941689E1,2.2042514E2,5.31705E1,2.597142E2,2.3463118E2,5.1976173E1,2.6915695E1,1.6178797E1,4.5525284E1,1.6879938E1,1.6796133E1,8.9571785E1,3.740109E1,4.879159E1,1.7878616E1],"tree_param":{"num_deleted":"0","num_feature":"47","num_nodes":"383","size_leaf_vector":"1"}},{"base_weights":[-7.819564E-2,-6.031031E-1,9.678095E-1,-8.123151E-1,6.2795997E-1,1.00600235E-1,1.2384279E0,-1.3349136E0,-5.801497E-1,-2.0616781E-2,1.7238653E0,-1.2799335E0,1.2526895E0,-1.0545299E0,1.3415176E0,-1.3402814E0,1.2943571E-3,-1.2358934E-1,-1.0171603E0,6.753466E-1,-5.1445985E-1,2.3249476E0,-5.2191013E-1,-1.3105764E0,-2.2242405E-2,-9.8463136E-1,2.126513E0,-6.0039175E-1,-1.1796483E0,1.0222895E0,1.8588494E0,-1.0656801E-1,-1.1152974E0,-1.1838611E0,9.365537E-2,-9.11433E-1,-1.2009879E0,2.2997413E0,1.1955921E-1,-1.0256604E0,-2.6245034E-1,-1.0622157E-1,2.4588761E0,-9.1542006E-1,9.077143E-1,-3.7758637E-2,-1.3254057E0,-1.2980008E0,1.9434172E-1,2.3238919E0,3.4260607E-1,-1.0773896E0,2.6178367E-2,-9.746327E-1,-1.272748E0,1.1457068E0,4.890118E-2,2.0923998E0,1.2848476E0,-2.1874152E-2,-1.0647741E-1,-1.054485E0,-1.2810678E0,3.719683E-1,-6.14065E-1,-5.4376334E-1,-9.536443E-1,-1.0639171E-1,-1.1337811E0,2.648845E0,2.9358461E-2,-6.377239E-1,5.4339516E-1,1.1231522E-1,-1.1590046E0,-7.7081525E-1,1.9313049E-2,1.1966131E0,2.6939201E0,-1.0101358E0,-4.9831863E-3,1.8257983E-2,1.5326671E-1,-6.553772E-2,-1.0633369E-1,-5.404334E-2,-1.0653863E-1,2.424812E0,4.4902357E-1,-5.3418905E-1,2.1076788E-1,-6.5990314E-2,-1.05944455E-1,-5.3460725E-2,-1.0854094E0,-1.1561852E0,-1.0516392E-1,8.557215E-1,1.9443077E0,9.803129E-1,-2.6542303E-1,2.277959E0,8.746732E-1,1.4624786E0,-1.06593974E-1,-9.2958236E-1,-1.150469E0,-1.298056E0,-7.054159E-2,3.2598922E-1,2.3310058E0,1.1235633E0,-7.738749E-1,-2.5150573E-1,-8.9116585E-1,-9.6930516E-1,9.757955E-2,-1.1574299E0,-7.8432065E-1,2.9082043E0,1.1853539E-1,-9.6262956E-1,1.0591639E-1,-8.2127255E-1,9.3832326E-1,1.4580251E-2,-1.2810911E0,-1.1330897E0,-4.9026778E-1,1.9567995E-1,-8.7167495E-1,-2.8309904E-2,1.4878922E0,1.8609395E0,2.8343983E0,-5.2171534E-1,-1.1652155E0,2.489192E0,1.1307602E0,5.7774227E-2,1.2747368E-2,-1.0641183E0,6.130198E-2,-1.0097188E-1,-6.8510614E-2,-1.06357865E-1,-7.100762E-2,9.7496474E-1,-8.3829224E-1,1.6254767E0,2.2260833E0,1.5474184E0,1.23892546E-1,-1.08931474E-1,-1.4143859E-1,2.363864E0,1.4348842E0,1.176343E0,-1.8681182E-1,1.6697793E0,-6.044128E-1,-5.565128E-1,-1.0741652E0,-1.1831973E0,-5.8641218E-2,-1.1602372E0,-1.3181425E0,7.5361973E-1,1.17283404E-1,1.3217475E-1,2.6878762E0,1.3760488E0,4.1523385E-3,-5.9119123E-1,-9.54029E-1,2.3247223E-1,-7.3436517E-1,-5.9716105E-1,-1.2232876E0,-1.0382539E0,-8.7653786E-1,7.423336E-2,-3.4888133E-2,-1.1376446E0,-1.2985139E0,-1.7257921E-2,-9.997672E-1,2.3938482E-1,1.9730385E-1,-1.07591905E-1,-6.854661E-1,2.9862361E-2,-1.2769051E0,1.6419185E0,8.0337346E-2,-1.0306488E0,-1.3172935E0,-1.03722006E-1,-9.532645E-1,-3.545047E-1,-9.094788E-2,1.273698E0,-2.7046162E-1,-5.4066914E-1,-1.01657644E-1,2.0728986E0,1.1240288E0,-1.1368324E-1,2.8319743E0,2.900891E0,2.262291E0,2.5934642E-3,-8.694817E-2,-6.199471E-2,-1.2612373E0,2.334216E0,2.8375227E0,1.2786528E-1,4.7844876E-2,-1.0590484E-1,-4.8015103E-2,6.6263944E-1,1.2244164E0,2.2501272E-1,-1.0672442E-1,9.6687835E-1,1.814186E0,2.0669775E0,2.3982544E0,1.9980451E0,2.9932756E-2,3.813228E-2,-3.7717063E-2,-8.1820145E-2,-4.9020033E-2,2.531273E0,1.964679E0,2.1306055E0,-9.154684E-1,2.2922842E-1,1.3833046E0,5.6377914E-2,-6.022541E-1,1.8238677E0,-4.5859393E-1,-2.0647138E-1,-8.300715E-2,-6.810657E-2,-6.6920845E-3,-9.251205E-2,-5.5306464E-2,-1.0397994E-1,-8.948152E-2,-1.0630001E-1,-7.31381E-2,-9.8920345E-2,-1.0621878E-1,4.4364423E-2,1.0394576E-1,1.22980505E-1,4.352027E-3,2.2509274E-1,1.9590975E-1,5.1479574E-2,1.259136E-1,-3.1439055E-2,-6.2914915E-2,-5.92608E-2,-9.072849E-2,-2.8921448E-2,1.07173115E-1,-7.9989485E-2,-3.8583267E-2,-3.46162E-2,-9.814745E-2,-1.0400732E-1,-8.098579E-2,-4.5160078E-2,-8.349491E-2,-7.2924435E-2,-4.741982E-2,-9.625463E-2,-8.763847E-2,-8.211504E-2,-1.0691763E-1,-5.189568E-2,-9.2158064E-2,-7.096013E-2,-1.2422042E-2,-8.867447E-2,-1.0685537E-1,1.653833E-1,-2.6691325E-2,5.546565E-2,-7.503839E-2,-1.0559812E-1,-5.2177243E-2,-9.034611E-2,-1.0596022E-1,-6.1280522E-2,-9.755552E-2,-7.1153015E-2,-1.2856147E-2,1.3699676E-1,6.1224967E-2,-3.4979724E-3,-5.4981295E-2,-7.434436E-2,-1.1144322E-2,1.2752137E-1,2.0083733E-1,1.0716499E-1,8.085406E-2,1.808213E-1,2.41317E-1,2.330176E-1,2.0612963E-1,1.1456316E-1,2.3930688E-1,-1.0715795E-1,-8.4143385E-2,5.627768E-2,1.9964157E-1,1.7077988E-1,2.303956E-1,5.6979798E-2,-9.55248E-2,1.0296715E-1,2.2033518E-2,2.6877226E-2,1.2412389E-1,1.508851E-1,8.518952E-2,1.356959E-1,1.8662572E-1,1.1598317E-1,1.981719E-1,1.3212313E-1,1.978103E-1,8.352606E-3,-4.645504E-2,2.0710708E-1,1.7629236E-1,1.8298738E-1,1.1408595E-1,1.9994262E-1,1.21662185E-1,-4.4504825E-2,-9.95902E-2,-1.6943925E-3,3.8278997E-2,8.30889E-2,1.3221708E-1,-3.8731738E-3,-8.95902E-2,9.2077404E-2,1.7067601E-1,5.7757247E-2,-1.0735178E-1,5.5114407E-2,-8.633484E-2],"categories":[],"categories_nodes":[],"categories_segments":[],"categories_sizes":[],"default_left":[0,0,0,0,0,0,0,0,0,0,0,0,0,0,0,0,0,0,0,0,0,0,0,0,0,0,0,0,0,0,0,0,0,0,0,0,0,0,0,0,0,0,0,0,0,0,0,0,0,0,0,0,0,0,0,0,0,0,0,0,0,0,0,0,0,0,0,0,0,0,0,0,0,0,0,0,0,0,0,0,0,0,0,0,0,0,0,0,0,0,0,0,0,0,0,0,0,0,0,0,0,0,0,0,0,0,0,0,0,0,0,0,0,0,0,0,0,0,0,0,0,0,0,0,0,0,0,0,0,0,0,0,0,0,0,0,0,0,0,0,0,0,0,0,0,0,0,0,0,0,0,0,0,0,0,0,0,0,0,0,0,0,0,0,0,0,0,0,0,0,0,0,0,0,0,0,0,0,0,0,0,0,0,0,0,0,0,0,0,0,0,0,0,0,0,0,0,0,0,0,0,0,0,0,0,0,0,0,0,0,0,0,0,0,0,0,0,0,0,0,0,0,0,0,0,0,0,0,0,0,0,0,0,0,0,0,0,0,0,0,0,0,0,0,0,0,0,0,0,0,0,0,0,0,0,0,0,0,0,0,0,0,0,0,0,0,0,0,0,0,0,0,0,0,0,0,0,0,0,0,0,0,0,0,0,0,0,0,0,0,0,0,0,0,0,0,0,0,0,0,0,0,0,0,0,0,0,0,0,0,0,0,0,0,0,0,0,0,0,0,0,0,0,0,0,0,0,0,0,0,0,0,0,0,0,0,0,0,0,0,0,0,0,0,0,0,0,0,0,0,0,0,0,0,0,0,0,0,0,0,0],"id":1,"left_children":[1,3,5,7,9,11,13,15,17,19,21,23,25,27,29,31,-1,33,35,37,39,41,43,45,-1,47,49,51,53,55,57,-1,59,61,63,65,67,69,71,73,75,-1,77,79,81,-1,83,85,-1,87,89,91,-1,93,95,97,99,101,103,-1,-1,105,107,109,111,113,115,-1,117,119,-1,121,123,-1,125,127,129,131,133,135,-1,-1,-1,-1,-1,-1,-1,137,139,141,-1,-1,-1,-1,143,145,-1,147,149,151,153,155,157,159,-1,161,163,165,-1,167,169,171,173,175,177,179,181,183,185,187,-1,189,-1,191,193,-1,195,197,199,201,203,-1,205,207,209,211,213,215,217,-1,-1,219,-1,-1,-1,-1,-1,221,223,225,227,229,231,-1,233,235,237,239,241,243,245,247,249,251,-1,253,255,257,259,-1,261,263,-1,265,267,269,271,273,275,277,279,-1,-1,281,283,-1,285,-1,-1,-1,287,-1,289,291,293,295,297,-1,299,301,-1,303,305,307,-1,309,311,-1,313,315,317,-1,-1,-1,319,321,323,-1,-1,-1,-1,325,327,-1,-1,329,331,333,335,337,-1,-1,-1,-1,339,341,343,345,347,349,351,-1,353,355,357,359,-1,-1,-1,-1,-1,-1,-1,-1,-1,-1,-1,-1,-1,-1,-1,-1,-1,-1,-1,-1,-1,-1,-1,-1,-1,-1,-1,-1,-1,-1,-1,-1,-1,-1,-1,-1,-1,-1,-1,-1,-1,-1,-1,-1,-1,-1,-1,-1,-1,-1,-1,-1,-1,-1,-1,-1,-1,-1,-1,-1,-1,-1,-1,-1,-1,-1,-1,-1,-1,-1,-1,-1,-1,-1,-1,-1,-1,-1,-1,-1,-1,-1,-1,-1,-1,-1,-1,-1,-1,-1,-1,-1,-1,-1,-1,-1,-1,-1,-1,-1,-1,-1,-1,-1,-1,-1,-1,-1,-1,-1,-1,-1,-1,-1,-1],"loss_changes":[1.4741516E4,4.6044995E3,2.1053896E3,1.8538594E3,1.84587E3,3.3942678E3,1.6165205E3,3.409668E1,2.1110532E3,5.608415E2,1.3035669E3,2.966333E1,2.2746245E3,1.659378E1,1.080294E3,3.6953125E0,0E0,1.1919774E3,1.04873535E2,6.114225E2,1.229156E2,3.744214E2,1.1491276E2,1.1539673E1,0E0,3.5246103E2,2.9443115E2,2.8439613E1,4.177582E0,4.8615527E2,3.3423047E2,0E0,1.4842926E1,1.0824951E1,8.4601227E2,5.3183594E1,1.8405518E1,1.1611719E2,1.620906E2,1.02905365E2,9.1613914E1,0E0,2.1745996E2,1.2912231E1,3.0563217E1,0E0,7.039673E0,8.270966E0,0E0,1.4232495E2,1.6989268E2,2.4838524E0,0E0,2.2889633E0,7.1195984E-1,8.3143555E2,1.334196E2,4.0058447E2,3.377954E2,0E0,0E0,4.3460693E0,3.1281128E0,2.775452E2,3.368095E2,3.589496E1,5.0708984E1,0E0,1.0886475E1,4.2968628E1,0E0,1.1643555E2,1.7462906E2,0E0,4.9046265E1,2.3080093E1,6.4718124E1,5.244728E1,7.154053E1,1.08003845E1,0E0,0E0,0E0,0E0,0E0,0E0,0E0,5.9041016E1,3.0966845E0,4.2234222E1,0E0,0E0,0E0,0E0,2.0026512E0,2.2526398E0,0E0,5.324347E2,8.5293945E1,5.581019E1,4.679225E1,1.1090332E2,7.526541E1,2.902091E2,0E0,8.814407E0,2.7108154E0,1.0559082E0,0E0,2.688297E2,1.594696E1,2.7620789E1,3.6440735E1,4.501152E1,1.5651947E1,1.92417E1,2.0523018E1,3.2298584E0,1.037339E1,4.213135E0,0E0,1.6851318E1,0E0,3.9799088E1,1.5160703E2,0E0,2.2409058E0,2.905487E0,1.1415001E1,1.7281807E2,9.120312E0,0E0,2.0327576E1,2.883355E2,1.8980957E1,1.1174737E1,3.8415222E0,3.556836E1,8.514896E0,0E0,0E0,5.246559E0,0E0,0E0,0E0,0E0,0E0,1.916604E2,3.2428992E2,5.5544556E1,1.3014648E1,3.6324387E1,9.888047E0,0E0,2.5227488E1,9.247168E1,2.3389417E2,3.580391E1,1.9523893E1,2.0192395E2,1.0847162E1,6.635751E0,4.0046387E0,1.1169434E0,0E0,2.4637985E0,3.3465576E-1,1.06741516E2,1.8109818E2,0E0,2.4951172E-1,1.2552872E1,0E0,2.1672928E1,2.1810455E1,6.443097E1,6.465767E0,8.758907E0,1.112236E0,1.1949097E1,1.5472107E1,0E0,0E0,2.4733887E0,1.7544556E0,0E0,3.3280754E0,0E0,0E0,0E0,1.0143269E1,0E0,3.2178497E-1,1.2133005E2,7.218596E1,3.8170052E0,5.376282E-1,0E0,2.312889E0,1.1150511E1,0E0,2.3403687E1,2.2984673E1,6.0075045E0,0E0,7.2166443E0,1.1879196E0,0E0,6.8720093E0,4.057373E0,3.3795288E1,0E0,0E0,0E0,1.3137512E0,1.4054199E2,8.626465E0,0E0,0E0,0E0,0E0,1.14499695E2,9.606421E1,0E0,0E0,3.766838E1,2.2566895E1,2.6297607E1,2.2288574E1,7.4792023E0,0E0,0E0,0E0,0E0,2.3052359E1,2.3426758E1,7.4032104E1,2.501828E1,3.8223476E0,2.1007402E0,1.3996277E1,0E0,1.0425808E1,1.2451355E2,4.4467617E1,2.6208817E1,0E0,0E0,0E0,0E0,0E0,0E0,0E0,0E0,0E0,0E0,0E0,0E0,0E0,0E0,0E0,0E0,0E0,0E0,0E0,0E0,0E0,0E0,0E0,0E0,0E0,0E0,0E0,0E0,0E0,0E0,0E0,0E0,0E0,0E0,0E0,0E0,0E0,0E0,0E0,0E0,0E0,0E0,0E0,0E0,0E0,0E0,0E0,0E0,0E0,0E0,0E0,0E0,0E0,0E0,0E0,0E0,0E0,0E0,0E0,0E0,0E0,0E0,0E0,0E0,0E0,0E0,0E0,0E0,0E0,0E0,0E0,0E0,0E0,0E0,0E0,0E0,0E0,0E0,0E0,0E0,0E0,0E0,0E0,0E0,0E0,0E0,0E0,0E0,0E0,0E0,0E0,0E0,0E0,0E0,0E0,0E0,0E0,0E0,0E0,0E0,0E0,0E0,0E0,0E0,0E0,0E0,0E0,0E0,0E0,0E0,0E0,0E0,0E0,0E0,0E0],"parents":[2147483647,0,0,1,1,2,2,3,3,4,4,5,5,6,6,7,7,8,8,9,9,10,10,11,11,12,12,13,13,14,14,15,15,17,17,18,18,19,19,20,20,21,21,22,22,23,23,25,25,26,26,27,27,28,28,29,29,30,30,32,32,33,33,34,34,35,35,36,36,37,37,38,38,39,39,40,40,42,42,43,43,44,44,46,46,47,47,49,49,50,50,51,51,53,53,54,54,55,55,56,56,57,57,58,58,61,61,62,62,63,63,64,64,65,65,66,66,68,68,69,69,71,71,72,72,74,74,75,75,76,76,77,77,78,78,79,79,87,87,88,88,89,89,94,94,95,95,97,97,98,98,99,99,100,100,101,101,102,102,103,103,105,105,106,106,107,107,109,109,110,110,111,111,112,112,113,113,114,114,115,115,116,116,117,117,118,118,119,119,121,121,123,123,124,124,126,126,127,127,128,128,129,129,130,130,132,132,133,133,134,134,135,135,136,136,137,137,138,138,141,141,147,147,148,148,149,149,150,150,151,151,152,152,154,154,155,155,156,156,157,157,158,158,159,159,160,160,161,161,162,162,163,163,165,165,166,166,167,167,168,168,170,170,171,171,173,173,174,174,175,175,176,176,177,177,178,178,179,179,180,180,183,183,184,184,186,186,190,190,192,192,193,193,194,194,195,195,196,196,198,198,199,199,201,201,202,202,203,203,205,205,206,206,208,208,209,209,210,210,214,214,215,215,216,216,221,221,222,222,225,225,226,226,227,227,228,228,229,229,234,234,235,235,236,236,237,237,238,238,239,239,240,240,242,242,243,243,244,244,245,245],"right_children":[2,4,6,8,10,12,14,16,18,20,22,24,26,28,30,32,-1,34,36,38,40,42,44,46,-1,48,50,52,54,56,58,-1,60,62,64,66,68,70,72,74,76,-1,78,80,82,-1,84,86,-1,88,90,92,-1,94,96,98,100,102,104,-1,-1,106,108,110,112,114,116,-1,118,120,-1,122,124,-1,126,128,130,132,134,136,-1,-1,-1,-1,-1,-1,-1,138,140,142,-1,-1,-1,-1,144,146,-1,148,150,152,154,156,158,160,-1,162,164,166,-1,168,170,172,174,176,178,180,182,184,186,188,-1,190,-1,192,194,-1,196,198,200,202,204,-1,206,208,210,212,214,216,218,-1,-1,220,-1,-1,-1,-1,-1,222,224,226,228,230,232,-1,234,236,238,240,242,244,246,248,250,252,-1,254,256,258,260,-1,262,264,-1,266,268,270,272,274,276,278,280,-1,-1,282,284,-1,286,-1,-1,-1,288,-1,290,292,294,296,298,-1,300,302,-1,304,306,308,-1,310,312,-1,314,316,318,-1,-1,-1,320,322,324,-1,-1,-1,-1,326,328,-1,-1,330,332,334,336,338,-1,-1,-1,-1,340,342,344,346,348,350,352,-1,354,356,358,360,-1,-1,-1,-1,-1,-1,-1,-1,-1,-1,-1,-1,-1,-1,-1,-1,-1,-1,-1,-1,-1,-1,-1,-1,-1,-1,-1,-1,-1,-1,-1,-1,-1,-1,-1,-1,-1,-1,-1,-1,-1,-1,-1,-1,-1,-1,-1,-1,-1,-1,-1,-1,-1,-1,-1,-1,-1,-1,-1,-1,-1,-1,-1,-1,-1,-1,-1,-1,-1,-1,-1,-1,-1,-1,-1,-1,-1,-1,-1,-1,-1,-1,-1,-1,-1,-1,-1,-1,-1,-1,-1,-1,-1,-1,-1,-1,-1,-1,-1,-1,-1,-1,-1,-1,-1,-1,-1,-1,-1,-1,-1,-1,-1,-1,-1],"split_conditions":[2.7E-2,3.6003E0,2E-1,2E-1,1.14E2,3.5766E0,1E0,3.5234E0,7.4E1,2.9353333E2,2E-1,1.767E-1,1E0,2.4260356E-1,9.38E-2,3.1503E0,1.2943571E-3,1E0,3.98805E2,4.0724E0,2E-1,1E0,6E-1,5E0,-2.2242405E-2,4.80925E1,3.0778664E-1,4.36E-2,2.061E-1,1E0,4.1893307E2,-1.0656801E-1,5.844846E-1,6E0,1E0,8.2E1,1E0,4E-1,2.45E2,1.495E2,3.531645E2,-1.0622157E-1,5.844846E-1,1.40547E1,1.17E-2,-3.7758637E-2,1.459E-1,6E0,1.9434172E-1,1E0,1.64659E1,2E1,2.6178367E-2,6.3615555E-1,2.8E1,4E0,8E0,1E0,1E0,-2.1874152E-2,-1.0647741E-1,5.496039E-1,2.4292E0,6E0,1.6E1,1E0,3.276E0,-1.0639171E-1,2.52E0,4.19E2,2.9358461E-2,6.5E-1,9.9E-3,1.1231522E-1,1.93E-1,7.9E-3,1E0,2.3770929E2,2.3770929E2,1E0,-4.9831863E-3,1.8257983E-2,1.5326671E-1,-6.553772E-2,-1.0633369E-1,-5.404334E-2,-1.0653863E-1,5.58E2,3.4567E2,6.52E2,2.1076788E-1,-6.5990314E-2,-1.05944455E-1,-5.3460725E-2,3.1578946E-1,1.4E1,-1.0516392E-1,6.5E-1,1.0895404E3,1.0586517E0,4E-1,6.5E-1,1.0880271E0,6.1029497E3,-1.06593974E-1,3.8E1,1.5751E0,4.471859E-1,-7.054159E-2,3.2E1,7.5E-3,2.7272728E-1,6E0,3.5E2,3.375E-1,1.019E0,5.5157965E-1,1E0,1.33E2,3.788E-1,1.1853539E-1,2E-1,1.0591639E-1,1E0,4E-1,1.4580251E-2,2E0,5.2E-3,7.2681326E-1,3.5616666E2,1.6E1,-2.8309904E-2,3.689071E-1,1.40547E1,1.387866E2,5E-1,-5E-1,1.21904E1,4.9150658E-1,5.7774227E-2,1.2747368E-2,1.359E-1,6.130198E-2,-1.0097188E-1,-6.8510614E-2,-1.06357865E-1,-7.100762E-2,1.3534928E3,3E0,2.6486337E-1,4.123575E-1,5.315E2,2E1,-1.08931474E-1,6.99E-1,2E1,3.6072592E2,2.690787E3,4.2E1,5.49E2,3.0778664E-1,1.298E0,8.333333E-1,2.245E2,-5.8641218E-2,1.34E-2,9E0,2.867E-1,4E-1,1.3217475E-1,2.1E1,3.60976E-1,4.1523385E-3,5E1,6.41196E-1,4.5638093E-1,9.580782E-1,2.6E0,1.005E0,1.375E0,1E0,7.423336E-2,-3.4888133E-2,3.64E-1,8E-3,-1.7257921E-2,3.6354E-1,2.3938482E-1,1.9730385E-1,-1.07591905E-1,4E0,2.9862361E-2,2E0,6E0,1E0,3.878108E2,1E0,-1.03722006E-1,3.548387E-1,2.145E-1,-9.094788E-2,2.625E0,5.85E2,2.047619E0,-1.01657644E-1,4.0361932E-1,5.2567E2,-1.1368324E-1,8.2384765E-1,8.2851624E-1,1.7807953E0,2.5934642E-3,-8.694817E-2,-6.199471E-2,4E0,4.47E-2,7.419689E-1,1.2786528E-1,4.7844876E-2,-1.0590484E-1,-4.8015103E-2,5.483661E2,5.25E2,2.2501272E-1,-1.0672442E-1,6E-1,3.5616666E2,2.6052E0,7.34E-1,1E0,2.9932756E-2,3.813228E-2,-3.7717063E-2,-8.1820145E-2,4.5E1,3.6685602E2,3.595E-1,1.1111111E-1,7.4E1,2.8181818E0,2E0,5.6377914E-2,2.995E2,8.2E1,2.8E1,5.855031E-1,-8.300715E-2,-6.810657E-2,-6.6920845E-3,-9.251205E-2,-5.5306464E-2,-1.0397994E-1,-8.948152E-2,-1.0630001E-1,-7.31381E-2,-9.8920345E-2,-1.0621878E-1,4.4364423E-2,1.0394576E-1,1.22980505E-1,4.352027E-3,2.2509274E-1,1.9590975E-1,5.1479574E-2,1.259136E-1,-3.1439055E-2,-6.2914915E-2,-5.92608E-2,-9.072849E-2,-2.8921448E-2,1.07173115E-1,-7.9989485E-2,-3.8583267E-2,-3.46162E-2,-9.814745E-2,-1.0400732E-1,-8.098579E-2,-4.5160078E-2,-8.349491E-2,-7.2924435E-2,-4.741982E-2,-9.625463E-2,-8.763847E-2,-8.211504E-2,-1.0691763E-1,-5.189568E-2,-9.2158064E-2,-7.096013E-2,-1.2422042E-2,-8.867447E-2,-1.0685537E-1,1.653833E-1,-2.6691325E-2,5.546565E-2,-7.503839E-2,-1.0559812E-1,-5.2177243E-2,-9.034611E-2,-1.0596022E-1,-6.1280522E-2,-9.755552E-2,-7.1153015E-2,-1.2856147E-2,1.3699676E-1,6.1224967E-2,-3.4979724E-3,-5.4981295E-2,-7.434436E-2,-1.1144322E-2,1.2752137E-1,2.0083733E-1,1.0716499E-1,8.085406E-2,1.808213E-1,2.41317E-1,2.330176E-1,2.0612963E-1,1.1456316E-1,2.3930688E-1,-1.0715795E-1,-8.4143385E-2,5.627768E-2,1.9964157E-1,1.7077988E-1,2.303956E-1,5.6979798E-2,-9.55248E-2,1.0296715E-1,2.2033518E-2,2.6877226E-2,1.2412389E-1,1.508851E-1,8.518952E-2,1.356959E-1,1.8662572E-1,1.1598317E-1,1.981719E-1,1.3212313E-1,1.978103E-1,8.352606E-3,-4.645504E-2,2.0710708E-1,1.7629236E-1,1.8298738E-1,1.1408595E-1,1.9994262E-1,1.21662185E-1,-4.4504825E-2,-9.95902E-2,-1.6943925E-3,3.8278997E-2,8.30889E-2,1.3221708E-1,-3.8731738E-3,-8.95902E-2,9.2077404E-2,1.7067601E-1,5.7757247E-2,-1.0735178E-1,5.5114407E-2,-8.633484E-2],"split_indices":[30,28,2,2,22,28,27,28,34,25,2,30,26,24,30,28,0,27,25,28,2,26,2,29,0,28,24,30,36,26,25,0,40,29,26,22,17,2,25,1,41,0,40,28,30,0,36,29,0,16,28,29,0,40,29,17,22,26,8,0,0,43,28,21,22,26,33,0,33,1,0,2,30,0,36,30,26,25,25,21,0,0,0,0,0,0,0,1,1,1,0,0,0,0,14,29,0,2,41,40,2,2,40,41,0,34,28,40,0,34,30,15,29,25,28,33,40,8,34,36,0,2,0,26,2,0,17,30,43,25,29,0,43,28,41,39,39,28,43,0,0,30,0,0,0,0,0,41,17,43,43,1,29,0,33,22,25,41,29,25,24,33,14,1,0,30,29,36,2,0,29,43,0,34,40,43,40,13,33,13,8,0,0,33,24,0,43,0,0,0,32,0,32,29,26,41,7,0,14,36,0,13,1,13,0,40,1,0,40,43,40,0,0,0,32,30,40,0,0,0,0,25,25,0,0,2,25,28,33,16,0,0,0,0,29,25,36,24,29,13,31,0,1,29,29,43,0,0,0,0,0,0,0,0,0,0,0,0,0,0,0,0,0,0,0,0,0,0,0,0,0,0,0,0,0,0,0,0,0,0,0,0,0,0,0,0,0,0,0,0,0,0,0,0,0,0,0,0,0,0,0,0,0,0,0,0,0,0,0,0,0,0,0,0,0,0,0,0,0,0,0,0,0,0,0,0,0,0,0,0,0,0,0,0,0,0,0,0,0,0,0,0,0,0,0,0,0,0,0,0,0,0,0,0,0,0,0,0,0,0,0],"split_type":[0,0,0,0,0,0,0,0,0,0,0,0,0,0,0,0,0,0,0,0,0,0,0,0,0,0,0,0,0,0,0,0,0,0,0,0,0,0,0,0,0,0,0,0,0,0,0,0,0,0,0,0,0,0,0,0,0,0,0,0,0,0,0,0,0,0,0,0,0,0,0,0,0,0,0,0,0,0,0,0,0,0,0,0,0,0,0,0,0,0,0,0,0,0,0,0,0,0,0,0,0,0,0,0,0,0,0,0,0,0,0,0,0,0,0,0,0,0,0,0,0,0,0,0,0,0,0,0,0,0,0,0,0,0,0,0,0,0,0,0,0,0,0,0,0,0,0,0,0,0,0,0,0,0,0,0,0,0,0,0,0,0,0,0,0,0,0,0,0,0,0,0,0,0,0,0,0,0,0,0,0,0,0,0,0,0,0,0,0,0,0,0,0,0,0,0,0,0,0,0,0,0,0,0,0,0,0,0,0,0,0,0,0,0,0,0,0,0,0,0,0,0,0,0,0,0,0,0,0,0,0,0,0,0,0,0,0,0,0,0,0,0,0,0,0,0,0,0,0,0,0,0,0,0,0,0,0,0,0,0,0,0,0,0,0,0,0,0,0,0,0,0,0,0,0,0,0,0,0,0,0,0,0,0,0,0,0,0,0,0,0,0,0,0,0,0,0,0,0,0,0,0,0,0,0,0,0,0,0,0,0,0,0,0,0,0,0,0,0,0,0,0,0,0,0,0,0,0,0,0,0,0,0,0,0,0,0,0,0,0,0,0,0,0,0,0,0,0,0,0,0,0,0,0,0,0,0,0,0,0,0],"sum_hessian":[2.6848477E4,1.787733E4,8.9711455E3,1.5280552E4,2.5967793E3,2.1337363E3,6.8374097E3,4.7000386E3,1.0580513E4,1.6314371E3,9.6534216E2,9.7062634E2,1.1631099E3,2.9410794E2,6.543302E3,4.6814443E3,1.8594418E1,5.1746274E3,5.4058853E3,6.7711884E2,9.5431836E2,7.6151654E2,2.038256E2,9.416965E2,2.8929857E1,3.2667456E2,8.3643536E2,6.3750687E1,2.3035727E2,4.04673E3,2.4965718E3,4.603576E3,7.786796E1,8.7982513E2,4.2948022E3,3.4326687E3,1.9732164E3,1.7247386E2,5.04645E2,3.1493176E2,6.393866E2,2.6792933E1,7.3472363E2,1.5988203E2,4.394358E1,1.6548725E1,9.2514777E2,2.994702E2,2.720435E1,7.530594E2,8.337595E1,4.2129192E1,2.1621494E1,7.257718E1,1.5778009E2,3.5913452E3,4.5538467E2,1.7742097E3,7.2236206E2,1.669457E1,6.1173386E1,3.7836035E2,5.0146478E2,3.082634E3,1.2121682E3,3.53767E2,3.0789016E3,6.363564E2,1.33686E3,1.4599245E2,2.6481411E1,1.810549E2,3.2359006E2,1.6216476E1,2.9871527E2,2.2790068E2,4.114859E2,1.1550524E2,6.192184E2,1.4386508E2,1.6016956E1,2.6591602E1,1.735198E1,2.8490614E1,8.9665717E2,2.0854908E1,2.786153E2,7.145444E2,3.851504E1,6.05749E1,2.2801056E1,2.2021832E1,2.0107363E1,1.9895184E1,5.2681995E1,5.0956554E1,1.0682354E2,2.634927E3,9.5641815E2,1.14809425E2,3.4057526E2,1.5394679E3,2.347418E2,6.767215E2,4.5640568E1,1.652397E2,2.1312065E2,4.8020834E2,2.1256433E1,3.0121453E3,7.04889E1,1.02003174E2,1.110165E3,1.9230034E2,1.6146666E2,3.0337212E3,4.518042E1,1.2517386E3,8.512135E1,1.1897908E2,2.7013374E1,1.5553967E2,2.5515238E1,7.25837E1,2.5100636E2,2.4885485E1,2.738298E2,9.922626E1,1.2867442E2,3.4360956E2,6.787633E1,1.8228872E1,9.727637E1,8.972322E1,5.294952E2,3.485882E1,1.09006256E2,6.8052356E2,3.402082E1,1.9410292E1,1.910475E1,4.312724E1,1.7447659E1,2.8025286E1,2.4656708E1,2.9356773E1,2.159978E1,2.46172E3,1.7320697E2,4.4926883E2,5.0714932E2,6.898472E1,4.5824707E1,3.408246E1,3.064928E2,1.3968187E3,1.4264925E2,1.8277902E2,5.1962776E1,6.150674E2,6.1654076E1,4.639449E1,1.1884521E2,1.9708614E2,1.6034508E1,6.2415627E1,4.1779272E2,9.8777075E2,2.0243744E3,2.4992735E1,4.5496162E1,8.250473E1,1.949844E1,5.515925E2,5.585726E2,9.608317E1,9.621717E1,8.591282E1,7.555383E1,1.739231E3,1.2944904E3,1.7598303E1,2.7582115E1,1.0992013E3,1.5253735E2,2.354803E1,6.1573322E1,9.3241356E1,2.5737722E1,6.3913895E1,9.162577E1,2.000807E1,5.2575634E1,1.3782178E2,1.13184586E2,3.524688E1,2.3858292E2,4.971326E1,4.9512997E1,1.0685962E2,2.1814808E1,1.0363532E2,2.3997424E2,3.7802746E1,3.0073582E1,3.6982727E1,6.029364E1,2.0404615E1,6.931861E1,4.7371588E2,5.5779293E1,1.7828669E1,1.7030155E1,2.2162254E1,8.6844E1,4.7192477E2,2.0859875E2,1.7584967E1,1.6435854E1,2.6871897E1,1.6255344E1,1.0933927E3,1.3683274E3,2.0920242E1,1.5228673E2,1.00302246E2,3.4896658E2,2.6477448E2,2.4237483E2,4.971067E1,1.927405E1,2.8745203E1,1.7079502E1,2.864794E1,2.7784485E2,9.834396E2,4.133791E2,1.1008148E2,3.256776E1,3.2846027E1,1.49933E2,1.639676E1,3.5566013E1,5.735686E2,4.1498806E1,3.259894E1,2.9055132E1,2.8188158E1,1.8206331E1,9.509059E1,2.3754618E1,5.7680237E1,1.3940591E2,3.5020367E1,2.7395262E1,1.0002187E2,3.1777084E2,7.3290173E2,2.5486905E2,8.424745E1,1.940127E3,2.5566702E1,1.992946E1,1.8794085E1,6.3710648E1,2.8135828E2,2.7023425E2,2.6817923E2,2.9039334E2,6.272794E1,3.335523E1,4.538683E1,5.0830345E1,6.893466E1,1.6978155E1,5.1854294E1,2.3699541E1,5.342126E1,1.6858097E3,1.1203206E3,1.741698E2,3.2521054E2,7.739908E2,2.4969978E1,1.27567375E2,1.9996027E1,4.1577293E1,6.553737E1,2.6088398E1,1.7148066E1,3.542757E1,1.1255917E2,2.5262604E1,7.064044E1,4.2544144E1,1.923787E1,1.6009012E1,2.416883E1,2.144141E2,3.0399221E1,1.9113775E1,2.778621E1,7.907341E1,5.415999E1,4.947533E1,1.564505E2,8.352374E1,1.8855E1,1.8947744E1,1.8798035E1,1.8184694E1,1.828077E1,4.201287E1,1.9797604E1,4.9521004E1,4.1933185E2,5.438402E1,2.704675E1,2.8732546E1,5.9136673E1,2.7707327E1,4.8028755E1,4.2389603E2,1.9457558E1,1.891412E2,1.0616681E3,3.1724522E1,1.2687809E3,9.95465E1,4.9088547E1,5.12137E1,3.113215E2,3.7645065E1,1.1875703E2,1.4601746E2,2.3908667E1,2.1846617E2,3.0270548E1,1.9440123E1,2.1590616E2,6.1938705E1,7.779836E2,2.0545596E2,2.4976817E2,1.6361092E2,6.612931E1,4.3952175E1,1.6196663E1,1.6371096E1,1.6597584E1,1.6248446E1,6.915966E1,8.077333E1,1.7455194E1,1.811082E1,1.9046161E2,3.83107E2,1.7856277E1,2.3642529E1,1.6141872E1,1.645707E1],"tree_param":{"num_deleted":"0","num_feature":"47","num_nodes":"361","size_leaf_vector":"1"}},{"base_weights":[-7.980664E-2,-5.81943E-1,7.907458E-1,2.3534279E-1,-9.095923E-1,5.5061424E-1,1.4748924E0,-1.0387624E-1,6.1627185E-1,-1.0381153E-1,-7.22677E-1,1.1979279E-1,9.6307033E-1,7.6523423E-1,1.6635045E0,-1.109406E0,8.265044E-1,-3.331039E-1,-9.810945E-1,-4.622606E-1,6.0417897E-1,7.1799165E-1,1.7278566E0,-9.7537744E-1,1.353007E0,1.8620675E0,1.0261346E0,-7.6793474E-1,-1.1806066E0,1.1950779E0,5.065829E-1,-1.1311156E0,-1.673588E-1,-8.792273E-1,-1.1627163E0,-1.0600526E0,-2.0459293E-1,7.0244926E-1,-1.2697772E0,7.1483664E-2,1.1799867E0,2.1335402E0,-4.296913E-1,-1.2360445E0,6.8492405E-2,1.8076233E0,2.1050546E-2,1.9265436E0,9.372806E-1,1.4127436E0,-6.657381E-1,-1.0037274E0,-5.357667E-3,-1.215029E0,-4.0728703E-2,1.2412887E0,-8.249393E-1,2.2462887E-1,8.236967E-1,-1.0190023E0,-1.2332927E0,-2.8960606E-1,2.872699E-1,1.0460809E-2,-8.887242E-1,-1.1160338E0,-1.033021E-1,1.5776092E-1,-1.2155526E0,2.7972397E-1,-5.8055186E-1,8.794111E-2,9.6351546E-1,-1.04002E-1,-8.3231315E-2,-9.6146286E-1,2.5615194E-1,1.0099925E0,1.9576305E0,1.081761E0,2.3335583E0,-9.286302E-1,1.0124859E0,-5.9423715E-2,-1.0403132E-1,-2.6268361E-2,2.0512173E0,1.4871005E0,-1.01206034E-1,1.4112599E0,2.0467265E0,-6.461156E-2,1.6320672E0,1.7971996E0,8.90766E-2,1.6107166E-2,-9.531484E-1,-8.108477E-1,-1.0348894E-1,-7.378007E-2,-1.242883E0,1.3189039E0,2.540529E-1,-3.920033E-2,-9.26695E-2,7.1201295E-1,1.0582228E-1,9.732209E-1,-3.8586218E-2,-6.548399E-1,-1.0776718E0,-1.2817583E0,-8.544338E-1,3.1869132E-2,-4.273415E-1,1.5119754E0,1.6765083E-1,-6.821708E-1,-9.25702E-1,-1.2222553E0,-1.0771085E0,-1.2659881E0,2.9666286E-3,3.901437E-1,-1.1498153E0,-9.5667875E-1,-3.6414292E-1,-1.0452832E-1,1.3680625E0,-9.974784E-1,1.0181947E0,-7.131629E-1,-1.2274375E0,1.3988743E0,3.4969013E-2,6.644865E-1,1.3522489E0,2.4004748E0,1.5157634E0,-2.6241982E-2,1.3192445E0,1.5817342E0,2.4708738E0,-1.205284E0,-3.0548298E-1,1.6016055E-2,1.5066494E-1,7.301319E-3,2.1823585E0,1.8849307E-1,6.959187E-2,1.4971948E0,8.804109E-3,1.812243E0,2.1499834E0,1.1448213E0,1.9362746E-1,1.0302439E0,2.1838279E0,1.0861924E0,-6.380884E-1,-4.8340946E-2,-1.266174E0,-5.14078E-2,-7.699624E-2,-1.2690188E0,-1.0679742E0,1.2615209E0,2.0161004E0,1.8722836E0,-4.8944107E-1,4.51206E-1,1.775171E0,1.6349487E-1,-7.421062E-1,8.39163E-1,1.7368479E0,-3.6792094E-1,7.363159E-1,-8.953512E-2,-4.6089315E-3,-1.1427885E0,-8.0066204E-1,-1.0326326E-1,-8.924534E-2,-3.3392686E-2,-1.0309388E-1,4.8036835E-1,-3.19767E-1,-5.080342E-1,2.4374174E-1,5.4337773E-2,1.9013284E0,2.4256074E-1,-9.415332E-1,-5.36254E-1,-1.0297776E0,-7.4923885E-1,-9.485255E-1,-1.0217184E-1,-1.1709447E0,-9.4179255E-1,-1.1541637E0,-1.04214124E-1,-1.0389619E0,4.8368683E-1,-1.02440596E-1,-1.0609022E-1,-7.28299E-2,-1.0393752E-1,-8.4788346E-1,-1.2600075E-1,-7.0967585E-1,2.0185125E0,-1.8924569E-1,-9.614568E-2,-6.163848E-2,8.552285E-1,1.4709378E0,-9.8269254E-1,4.0377203E-2,-7.570406E-2,-1.2947594E0,1.9468623E0,-2.8423932E-1,-3.208726E-1,7.1515304E-1,2.1683161E0,5.7092553E-1,1.0550796E0,2.062724E0,2.4846892E0,1.4609094E-1,1.0557411E0,2.1899967E0,1.8908871E0,1.0234005E0,-1.099965E-1,2.4329863E0,2.0195895E-1,2.317952E0,-7.47434E-2,-1.0425193E-1,-3.364092E-2,-1.4640177E-2,1.9916931E0,2.0894128E-1,1.3039696E0,1.9618919E0,1.8708516E0,5.7165906E-2,2.0736246E0,2.4862936E0,1.5285939E-1,9.365352E-3,1.6603462E0,-6.721111E-2,1.9762099E0,2.4564166E0,1.453423E-1,2.950058E-2,-9.982435E-2,-2.2005547E-2,-8.955245E-2,-1.0914052E-1,-8.6272836E-2,-1.02181934E-1,-6.94571E-2,-1.03073835E-1,1.02237605E-1,-6.545127E-2,1.7390235E-1,8.413312E-2,1.2927529E-1,1.6435453E-1,3.7669115E-2,-8.5767E-2,5.066151E-2,-4.4484526E-2,1.09746195E-1,1.6395026E-1,2.1259664E-3,6.987538E-2,-2.7352697E-3,-8.547109E-2,5.757901E-2,1.0695081E-1,1.546313E-1,6.540248E-2,-9.8960504E-2,-1.19763E-2,1.0376892E-1,1.9879125E-2,-9.317729E-2,-7.3395215E-2,-2.602573E-2,-8.725811E-2,9.31808E-2,1.3391584E-2,-1.4475685E-2,-8.630288E-2,-6.635234E-2,-3.0559273E-2,-1.0698806E-1,5.445585E-2,9.322884E-2,2.0336136E-1,3.0333847E-3,4.1193448E-2,-1.096684E-1,-3.783361E-2,-7.167734E-2,-3.472517E-2,-9.124012E-2,-3.0809086E-2,-3.3483036E-2,-7.025082E-2,-7.311691E-2,-8.844956E-2,-9.860975E-2,-8.566751E-2,-7.9238966E-2,-4.3534223E-2,-1.0163266E-1,-8.6767845E-2,-9.4886035E-2,-5.115847E-2,-1.0815787E-2,5.035173E-2,-3.845812E-2,-7.678545E-2,3.1437213E-3,-9.192231E-2,-7.193064E-2,-1.2666189E-2,1.8716219E-1,2.3218973E-2,-7.9194054E-2,5.2393008E-2,9.3687944E-2,4.4367477E-2,1.5378457E-1,6.0215674E-2,-1.03103325E-1,-6.4308055E-2,-9.263272E-2,-1.0551928E-1,5.333638E-2,1.9611137E-1,3.7249364E-2,-7.826966E-2,1.4775046E-2,-6.2017642E-2,2.0349662E-1,3.709726E-2,2.119412E-1,1.4112736E-1,-2.1289686E-2,6.492403E-2,-2.8786622E-2,1.0784762E-1,1.9311571E-1,1.328289E-1,1.6627295E-1,2.0183156E-1,-1.4068048E-3,1.12688765E-1,1.5151688E-1,1.9406259E-1,1.1596118E-1,1.8069284E-1,7.320517E-2,9.692194E-2,1.5899912E-1,2.051508E-1,1.9765E-1,8.616799E-2,1.2092363E-2,1.8599886E-1,2.5348328E-2,1.1193337E-1,1.4070252E-1,2.0650539E-1,1.5815155E-1,1.2820615E-1,1.4427345E-1,1.728017E-1,1.8747097E-1,2.1576414E-1,1.15132436E-1,1.7515452E-1,1.238621E-1,1.9381207E-1,1.7521113E-1,2.0779014E-1],"categories":[],"categories_nodes":[],"categories_segments":[],"categories_sizes":[],"default_left":[0,0,0,0,0,0,0,0,0,0,0,0,0,0,0,0,0,0,0,0,0,0,0,0,0,0,0,0,0,0,0,0,0,0,0,0,0,0,0,0,0,0,0,0,0,0,0,0,0,0,0,0,0,0,0,0,0,0,0,0,0,0,0,0,0,0,0,0,0,0,0,0,0,0,0,0,0,0,0,0,0,0,0,0,0,0,0,0,0,0,0,0,0,0,0,0,0,0,0,0,0,0,0,0,0,0,0,0,0,0,0,0,0,0,0,0,0,0,0,0,0,0,0,0,0,0,0,0,0,0,0,0,0,0,0,0,0,0,0,0,0,0,0,0,0,0,0,0,0,0,0,0,0,0,0,0,0,0,0,0,0,0,0,0,0,0,0,0,0,0,0,0,0,0,0,0,0,0,0,0,0,0,0,0,0,0,0,0,0,0,0,0,0,0,0,0,0,0,0,0,0,0,0,0,0,0,0,0,0,0,0,0,0,0,0,0,0,0,0,0,0,0,0,0,0,0,0,0,0,0,0,0,0,0,0,0,0,0,0,0,0,0,0,0,0,0,0,0,0,0,0,0,0,0,0,0,0,0,0,0,0,0,0,0,0,0,0,0,0,0,0,0,0,0,0,0,0,0,0,0,0,0,0,0,0,0,0,0,0,0,0,0,0,0,0,0,0,0,0,0,0,0,0,0,0,0,0,0,0,0,0,0,0,0,0,0,0,0,0,0,0,0,0,0,0,0,0,0,0,0,0,0,0,0,0,0,0,0,0,0,0,0,0,0,0,0,0,0,0,0,0,0,0,0,0,0,0,0,0,0,0,0,0,0,0,0,0,0,0,0,0,0,0,0,0,0,0,0,0,0,0,0,0,0,0,0,0,0,0,0,0,0,0,0,0],"id":2,"left_children":[1,3,5,7,9,11,13,-1,15,-1,17,19,21,23,25,27,29,31,33,35,37,39,41,43,45,47,49,51,53,55,57,59,61,63,65,67,69,71,73,75,77,79,81,83,-1,85,87,89,91,93,95,97,-1,99,-1,101,103,105,107,109,111,113,115,-1,117,119,-1,-1,121,123,125,127,129,-1,-1,131,133,135,137,139,141,143,145,-1,-1,-1,147,149,-1,151,153,-1,155,157,159,-1,161,163,-1,-1,165,167,169,-1,-1,171,173,175,177,179,181,183,185,187,189,191,193,195,197,199,201,203,-1,205,207,209,211,-1,213,215,217,219,221,223,225,227,229,231,233,-1,235,237,239,241,243,-1,-1,-1,245,-1,-1,247,-1,249,251,253,-1,255,257,259,261,-1,263,-1,-1,265,267,269,271,273,275,277,279,281,283,285,287,289,291,-1,-1,293,295,-1,-1,-1,-1,297,299,301,303,-1,305,307,309,311,313,315,317,-1,319,321,323,-1,325,327,-1,-1,-1,-1,329,331,333,335,337,-1,-1,339,341,343,-1,-1,345,347,349,351,353,355,357,359,361,363,-1,365,367,369,371,-1,373,-1,375,-1,-1,-1,-1,377,-1,379,381,383,-1,385,387,-1,-1,389,-1,391,393,-1,-1,-1,-1,-1,-1,-1,-1,-1,-1,-1,-1,-1,-1,-1,-1,-1,-1,-1,-1,-1,-1,-1,-1,-1,-1,-1,-1,-1,-1,-1,-1,-1,-1,-1,-1,-1,-1,-1,-1,-1,-1,-1,-1,-1,-1,-1,-1,-1,-1,-1,-1,-1,-1,-1,-1,-1,-1,-1,-1,-1,-1,-1,-1,-1,-1,-1,-1,-1,-1,-1,-1,-1,-1,-1,-1,-1,-1,-1,-1,-1,-1,-1,-1,-1,-1,-1,-1,-1,-1,-1,-1,-1,-1,-1,-1,-1,-1,-1,-1,-1,-1,-1,-1,-1,-1,-1,-1,-1,-1,-1,-1,-1,-1,-1,-1,-1,-1,-1,-1,-1,-1,-1,-1,-1,-1,-1,-1,-1,-1,-1,-1,-1,-1,-1,-1],"loss_changes":[1.1598799E4,4.506152E3,1.5944277E3,2.8351572E3,8.972119E2,1.2766663E3,3.3728564E2,0E0,1.4018313E3,0E0,8.239292E2,9.908742E2,6.8776245E2,5.42257E2,2.5175879E2,1.0039673E1,4.059978E2,4.3173172E2,9.085498E1,2.4584634E2,3.533954E2,8.3034814E2,7.7974634E2,6.4355965E1,2.398576E2,9.02251E1,3.099184E2,1.2027172E1,7.8511963E0,1.4955664E2,1.6484378E2,6.205261E0,1.5024963E2,3.0302002E1,1.13029785E1,2.2842828E2,2.0318585E2,2.9239508E2,6.3508606E-1,2.2109698E2,2.139878E2,1.5727295E2,1.0170447E2,4.161392E0,0E0,1.5399567E2,1.9241429E2,8.738818E1,1.2114805E2,1.9616241E2,2.2062107E1,2.9809265E0,0E0,2.4055176E0,0E0,1.1981787E2,3.9746113E0,5.6522034E1,1.1189996E2,5.613373E0,5.1804504E0,9.433542E1,8.388498E1,0E0,2.3746338E1,5.251465E0,0E0,0E0,2.8925598E1,7.7064026E1,5.1069733E1,9.7901434E2,1.3734448E2,0E0,0E0,1.1452011E1,2.485037E2,1.5722095E2,5.622888E1,4.0380722E1,6.4319824E1,1.8022911E1,2.6085682E1,0E0,0E0,0E0,6.808557E1,2.5389977E1,0E0,3.0027588E1,2.7164062E1,0E0,2.7592133E1,8.8184204E1,6.317522E1,0E0,6.9902954E0,7.644367E-1,0E0,0E0,1.1276245E0,5.7573242E1,1.3762866E2,0E0,0E0,5.2905746E1,3.841999E1,7.545105E1,3.2819542E1,1.0668598E1,4.004608E0,5.718689E-1,6.4192047E0,1.0082873E2,8.078647E1,1.616681E1,4.3423725E1,2.39935E1,1.0541016E1,9.368286E-1,9.947266E0,4.585266E0,0E0,7.1370735E1,1.3035469E0,8.637054E0,3.281915E1,0E0,2.884405E2,1.4775887E0,9.160327E1,3.0183865E1,1.3315887E0,1.471607E2,1.9947325E2,9.301346E1,1.407367E2,5.991699E0,4.4862976E1,0E0,1.705156E1,2.4765868E2,5.154541E0,1.8665161E0,4.5183158E-1,0E0,0E0,0E0,2.0521606E1,0E0,0E0,2.2200256E1,0E0,2.232837E1,1.9571777E1,3.5956425E1,0E0,1.1912474E2,1.0367432E1,1.9471611E1,1.1218449E1,0E0,2.4232483E-1,0E0,0E0,6.753845E-1,1.581459E0,7.826904E1,1.8195984E1,1.1437988E0,4.4892235E1,2.9305834E1,3.794159E0,7.213955E1,1.1883499E1,3.6071716E1,2.1171844E1,1.7189598E1,1.0601862E1,0E0,0E0,1.1170197E0,6.2498436E0,0E0,0E0,0E0,0E0,6.077011E1,3.7758263E1,5.3621002E1,1.1323943E2,0E0,1.608783E1,2.7680939E1,6.6618824E0,1.2035622E1,1.0795563E1,1.3536392E1,1.0142578E1,0E0,1.0879822E0,7.9032593E0,4.4764404E0,0E0,4.7120132E0,4.0293358E1,0E0,0E0,0E0,0E0,7.6099167E0,4.0483616E1,1.7653458E1,1.1839404E2,5.7945076E1,0E0,0E0,8.8232605E1,1.0948547E2,3.8941498E0,0E0,0E0,2.87323E-2,8.041095E1,2.0920307E1,1.2662851E2,1.2937105E2,6.7484894E0,1.2991035E2,2.0416595E2,2.772644E1,2.0056763E0,0E0,3.4186646E1,3.4098206E0,5.2021484E0,1.1557922E0,0E0,4.096924E0,0E0,3.8053345E1,0E0,0E0,0E0,0E0,1.1430835E2,0E0,1.8874115E1,8.055298E0,9.945923E0,0E0,1.6792236E1,3.0579834E0,0E0,0E0,8.031815E0,0E0,2.1332825E1,2.4157715E0,0E0,0E0,0E0,0E0,0E0,0E0,0E0,0E0,0E0,0E0,0E0,0E0,0E0,0E0,0E0,0E0,0E0,0E0,0E0,0E0,0E0,0E0,0E0,0E0,0E0,0E0,0E0,0E0,0E0,0E0,0E0,0E0,0E0,0E0,0E0,0E0,0E0,0E0,0E0,0E0,0E0,0E0,0E0,0E0,0E0,0E0,0E0,0E0,0E0,0E0,0E0,0E0,0E0,0E0,0E0,0E0,0E0,0E0,0E0,0E0,0E0,0E0,0E0,0E0,0E0,0E0,0E0,0E0,0E0,0E0,0E0,0E0,0E0,0E0,0E0,0E0,0E0,0E0,0E0,0E0,0E0,0E0,0E0,0E0,0E0,0E0,0E0,0E0,0E0,0E0,0E0,0E0,0E0,0E0,0E0,0E0,0E0,0E0,0E0,0E0,0E0,0E0,0E0,0E0,0E0,0E0,0E0,0E0,0E0,0E0,0E0,0E0,0E0,0E0,0E0,0E0,0E0,0E0,0E0,0E0,0E0,0E0,0E0,0E0,0E0,0E0,0E0,0E0,0E0,0E0,0E0,0E0,0E0,0E0,0E0,0E0],"parents":[2147483647,0,0,1,1,2,2,3,3,4,4,5,5,6,6,8,8,10,10,11,11,12,12,13,13,14,14,15,15,16,16,17,17,18,18,19,19,20,20,21,21,22,22,23,23,24,24,25,25,26,26,27,27,28,28,29,29,30,30,31,31,32,32,33,33,34,34,35,35,36,36,37,37,38,38,39,39,40,40,41,41,42,42,43,43,45,45,46,46,47,47,48,48,49,49,50,50,51,51,53,53,55,55,56,56,57,57,58,58,59,59,60,60,61,61,62,62,64,64,65,65,68,68,69,69,70,70,71,71,72,72,75,75,76,76,77,77,78,78,79,79,80,80,81,81,82,82,86,86,87,87,89,89,90,90,92,92,93,93,94,94,96,96,97,97,100,100,101,101,102,102,105,105,106,106,107,107,108,108,109,109,110,110,111,111,112,112,113,113,114,114,115,115,116,116,117,117,118,118,119,119,120,120,121,121,123,123,124,124,125,125,126,126,128,128,129,129,130,130,131,131,132,132,133,133,134,134,135,135,136,136,137,137,138,138,140,140,141,141,142,142,143,143,144,144,148,148,151,151,153,153,154,154,155,155,157,157,158,158,159,159,160,160,162,162,165,165,166,166,167,167,168,168,169,169,170,170,171,171,172,172,173,173,174,174,175,175,176,176,177,177,178,178,181,181,182,182,187,187,188,188,189,189,190,190,192,192,193,193,194,194,195,195,196,196,197,197,198,198,200,200,201,201,202,202,204,204,205,205,210,210,211,211,212,212,213,213,214,214,217,217,218,218,219,219,222,222,223,223,224,224,225,225,226,226,227,227,228,228,229,229,230,230,231,231,233,233,234,234,235,235,236,236,238,238,240,240,245,245,247,247,248,248,249,249,251,251,252,252,255,255,257,257,258,258],"right_children":[2,4,6,8,10,12,14,-1,16,-1,18,20,22,24,26,28,30,32,34,36,38,40,42,44,46,48,50,52,54,56,58,60,62,64,66,68,70,72,74,76,78,80,82,84,-1,86,88,90,92,94,96,98,-1,100,-1,102,104,106,108,110,112,114,116,-1,118,120,-1,-1,122,124,126,128,130,-1,-1,132,134,136,138,140,142,144,146,-1,-1,-1,148,150,-1,152,154,-1,156,158,160,-1,162,164,-1,-1,166,168,170,-1,-1,172,174,176,178,180,182,184,186,188,190,192,194,196,198,200,202,204,-1,206,208,210,212,-1,214,216,218,220,222,224,226,228,230,232,234,-1,236,238,240,242,244,-1,-1,-1,246,-1,-1,248,-1,250,252,254,-1,256,258,260,262,-1,264,-1,-1,266,268,270,272,274,276,278,280,282,284,286,288,290,292,-1,-1,294,296,-1,-1,-1,-1,298,300,302,304,-1,306,308,310,312,314,316,318,-1,320,322,324,-1,326,328,-1,-1,-1,-1,330,332,334,336,338,-1,-1,340,342,344,-1,-1,346,348,350,352,354,356,358,360,362,364,-1,366,368,370,372,-1,374,-1,376,-1,-1,-1,-1,378,-1,380,382,384,-1,386,388,-1,-1,390,-1,392,394,-1,-1,-1,-1,-1,-1,-1,-1,-1,-1,-1,-1,-1,-1,-1,-1,-1,-1,-1,-1,-1,-1,-1,-1,-1,-1,-1,-1,-1,-1,-1,-1,-1,-1,-1,-1,-1,-1,-1,-1,-1,-1,-1,-1,-1,-1,-1,-1,-1,-1,-1,-1,-1,-1,-1,-1,-1,-1,-1,-1,-1,-1,-1,-1,-1,-1,-1,-1,-1,-1,-1,-1,-1,-1,-1,-1,-1,-1,-1,-1,-1,-1,-1,-1,-1,-1,-1,-1,-1,-1,-1,-1,-1,-1,-1,-1,-1,-1,-1,-1,-1,-1,-1,-1,-1,-1,-1,-1,-1,-1,-1,-1,-1,-1,-1,-1,-1,-1,-1,-1,-1,-1,-1,-1,-1,-1,-1,-1,-1,-1,-1,-1,-1,-1,-1,-1],"split_conditions":[2.4314E0,3.3E1,2.8744485E3,2.5E-1,2E-1,1E0,4E-1,-1.0387624E-1,1E0,-1.0381153E-1,7.5E1,9.640955E2,1.14E2,4.555775E3,4.1893307E2,4E0,1.1E1,1E0,4.1995444E2,4E-1,6E-1,4.8706E2,4E-1,3.4E1,3.0778664E-1,6.5E-1,4.9553545E3,2.8888888E0,2.15E0,5.483661E2,4E0,6E0,4.134522E2,2.7447E2,7.5E-1,1.195E2,6E1,4E-1,8.080636E-1,1.4555E2,1.40547E1,5.844846E-1,6E-1,2.1691176E-1,6.8492405E-2,3.4788E0,4.7E1,4E1,1E0,2E0,3.9E1,1.503241E0,-5.357667E-3,4.471859E-1,-4.0728703E-2,9.0120906E-1,3.2E1,3.1746213E2,2E0,3.472914E2,4.804992E2,2E0,2.2727273E-2,1.0460809E-2,8.6E1,1E0,-1.033021E-1,1.5776092E-1,1.01127E1,6E-1,3.2055E2,3.5E1,1E0,-1.04002E-1,-8.3231315E-2,8E-3,1.731996E2,9.392085E2,2.96E2,2.3770929E2,2.3770929E2,8.9459E0,5E0,-5.9423715E-2,-1.0403132E-1,-2.6268361E-2,2E0,1.83E2,-1.01206034E-1,3.8908508E2,4.149222E3,-6.461156E-2,1.91443E1,6E1,4.8129895E-1,1.6107166E-2,5E-1,3.0769232E-1,-1.0348894E-1,-7.378007E-2,9.659258E-1,2.23E2,3.6072592E2,-3.920033E-2,-9.26695E-2,1E0,8.4879076E-1,1E0,1.287436E3,8.589E2,7E-1,3.827968E2,5.0844306E-1,3.7129166E2,1E0,1.1E1,5.131977E2,3.375E-1,4E0,2E0,1.33E2,5.7567E0,2.9666286E-3,5.25E2,3.197E0,1.064508E2,2E0,-1.0452832E-1,2.395E2,1.1249988E0,1.4800794E0,2.9994E0,9.2E1,3E0,2E0,4.91504E2,4E0,9.82872E2,6E-1,-2.6241982E-2,3.5605025E-1,1.40547E1,3.035E2,1.6E1,3.1260926E-1,1.6016055E-2,1.5066494E-1,7.301319E-3,2.7821627E0,1.8849307E-1,6.959187E-2,2E0,8.804109E-3,3.8448325E3,1.5648593E0,4E0,1.9362746E-1,9E0,1.6477482E0,7E0,1.5E-1,-4.8340946E-2,5.055893E-1,-5.14078E-2,-7.699624E-2,4.8216E2,2.6666668E-1,4.9429766E3,3E0,1.8E1,1.7999861E0,1.229025E3,7.85795E2,1.4908262E0,3.614724E2,1.465E0,2E0,8.7224E2,-7.0710677E-1,-8.953512E-2,-4.6089315E-3,4.019E-1,1.0586517E0,-1.0326326E-1,-8.924534E-2,-3.3392686E-2,-1.0309388E-1,1.392405E-1,1.860233E0,2.986454E-1,1E0,5.4337773E-2,2.1152E0,2.0403E0,8.660254E-1,2.7495798E-1,1E0,1.93E-1,2E0,-1.0217184E-1,3.888889E-1,3.448276E-1,1.58E2,-1.04214124E-1,1E0,9E0,-1.02440596E-1,-1.0609022E-1,-7.28299E-2,-1.0393752E-1,-1.8369701E-16,9.729911E-1,7.7E1,2.0111732E-1,1E0,-9.614568E-2,-6.163848E-2,3.8E2,1.7377691E0,2E-1,4.0377203E-2,-7.570406E-2,3.0294E0,7.322881E-1,8.3333336E-2,6E0,2E-1,2.49E2,2E-1,2E-1,3.35E2,8E0,1.4609094E-1,3.595E-1,1.4240674E3,3.9740038E-1,1.375E0,-1.099965E-1,8.2384765E-1,2.0195895E-1,7.525782E-1,-7.47434E-2,-1.0425193E-1,-3.364092E-2,-1.4640177E-2,1E0,2.0894128E-1,2.118E-1,7.3724526E-1,3.148688E-1,5.7165906E-2,9.9E1,2.2E1,1.5285939E-1,9.365352E-3,2.1E1,-6.721111E-2,1.13925E3,2E0,1.453423E-1,2.950058E-2,-9.982435E-2,-2.2005547E-2,-8.955245E-2,-1.0914052E-1,-8.6272836E-2,-1.02181934E-1,-6.94571E-2,-1.03073835E-1,1.02237605E-1,-6.545127E-2,1.7390235E-1,8.413312E-2,1.2927529E-1,1.6435453E-1,3.7669115E-2,-8.5767E-2,5.066151E-2,-4.4484526E-2,1.09746195E-1,1.6395026E-1,2.1259664E-3,6.987538E-2,-2.7352697E-3,-8.547109E-2,5.757901E-2,1.0695081E-1,1.546313E-1,6.540248E-2,-9.8960504E-2,-1.19763E-2,1.0376892E-1,1.9879125E-2,-9.317729E-2,-7.3395215E-2,-2.602573E-2,-8.725811E-2,9.31808E-2,1.3391584E-2,-1.4475685E-2,-8.630288E-2,-6.635234E-2,-3.0559273E-2,-1.0698806E-1,5.445585E-2,9.322884E-2,2.0336136E-1,3.0333847E-3,4.1193448E-2,-1.096684E-1,-3.783361E-2,-7.167734E-2,-3.472517E-2,-9.124012E-2,-3.0809086E-2,-3.3483036E-2,-7.025082E-2,-7.311691E-2,-8.844956E-2,-9.860975E-2,-8.566751E-2,-7.9238966E-2,-4.3534223E-2,-1.0163266E-1,-8.6767845E-2,-9.4886035E-2,-5.115847E-2,-1.0815787E-2,5.035173E-2,-3.845812E-2,-7.678545E-2,3.1437213E-3,-9.192231E-2,-7.193064E-2,-1.2666189E-2,1.8716219E-1,2.3218973E-2,-7.9194054E-2,5.2393008E-2,9.3687944E-2,4.4367477E-2,1.5378457E-1,6.0215674E-2,-1.03103325E-1,-6.4308055E-2,-9.263272E-2,-1.0551928E-1,5.333638E-2,1.9611137E-1,3.7249364E-2,-7.826966E-2,1.4775046E-2,-6.2017642E-2,2.0349662E-1,3.709726E-2,2.119412E-1,1.4112736E-1,-2.1289686E-2,6.492403E-2,-2.8786622E-2,1.0784762E-1,1.9311571E-1,1.328289E-1,1.6627295E-1,2.0183156E-1,-1.4068048E-3,1.12688765E-1,1.5151688E-1,1.9406259E-1,1.1596118E-1,1.8069284E-1,7.320517E-2,9.692194E-2,1.5899912E-1,2.051508E-1,1.9765E-1,8.616799E-2,1.2092363E-2,1.8599886E-1,2.5348328E-2,1.1193337E-1,1.4070252E-1,2.0650539E-1,1.5815155E-1,1.2820615E-1,1.4427345E-1,1.728017E-1,1.8747097E-1,2.1576414E-1,1.15132436E-1,1.7515452E-1,1.238621E-1,1.9381207E-1,1.7521113E-1,2.0779014E-1],"split_indices":[28,34,41,2,2,20,2,0,27,0,22,41,22,41,25,29,22,27,25,2,2,41,2,22,24,2,41,13,28,25,19,29,41,12,24,1,34,2,40,41,28,40,2,24,0,28,29,29,20,0,29,40,0,40,0,43,29,25,0,25,41,18,24,0,34,27,0,0,28,2,41,22,27,0,0,24,41,41,1,25,25,28,29,0,0,0,11,1,0,25,41,0,28,29,40,0,39,14,0,0,39,29,25,0,0,8,43,20,41,12,14,41,43,25,8,29,25,28,4,11,34,28,0,25,28,41,0,0,1,40,40,28,34,19,0,41,37,41,2,0,43,28,1,4,43,0,0,0,40,0,0,18,0,41,40,34,0,22,40,34,14,0,43,0,0,12,24,41,0,4,40,12,12,40,41,46,18,12,38,0,0,36,40,0,0,0,0,24,40,43,20,0,28,28,39,43,8,36,20,0,14,15,22,0,8,29,0,0,0,0,39,43,22,24,8,0,0,25,40,2,0,0,28,40,15,29,2,1,2,2,1,29,0,36,41,40,13,0,40,0,43,0,0,0,0,20,0,36,43,24,0,29,22,0,0,4,0,12,32,0,0,0,0,0,0,0,0,0,0,0,0,0,0,0,0,0,0,0,0,0,0,0,0,0,0,0,0,0,0,0,0,0,0,0,0,0,0,0,0,0,0,0,0,0,0,0,0,0,0,0,0,0,0,0,0,0,0,0,0,0,0,0,0,0,0,0,0,0,0,0,0,0,0,0,0,0,0,0,0,0,0,0,0,0,0,0,0,0,0,0,0,0,0,0,0,0,0,0,0,0,0,0,0,0,0,0,0,0,0,0,0,0,0,0,0,0,0,0,0,0,0,0,0,0,0,0,0,0,0,0,0,0,0,0,0],"split_type":[0,0,0,0,0,0,0,0,0,0,0,0,0,0,0,0,0,0,0,0,0,0,0,0,0,0,0,0,0,0,0,0,0,0,0,0,0,0,0,0,0,0,0,0,0,0,0,0,0,0,0,0,0,0,0,0,0,0,0,0,0,0,0,0,0,0,0,0,0,0,0,0,0,0,0,0,0,0,0,0,0,0,0,0,0,0,0,0,0,0,0,0,0,0,0,0,0,0,0,0,0,0,0,0,0,0,0,0,0,0,0,0,0,0,0,0,0,0,0,0,0,0,0,0,0,0,0,0,0,0,0,0,0,0,0,0,0,0,0,0,0,0,0,0,0,0,0,0,0,0,0,0,0,0,0,0,0,0,0,0,0,0,0,0,0,0,0,0,0,0,0,0,0,0,0,0,0,0,0,0,0,0,0,0,0,0,0,0,0,0,0,0,0,0,0,0,0,0,0,0,0,0,0,0,0,0,0,0,0,0,0,0,0,0,0,0,0,0,0,0,0,0,0,0,0,0,0,0,0,0,0,0,0,0,0,0,0,0,0,0,0,0,0,0,0,0,0,0,0,0,0,0,0,0,0,0,0,0,0,0,0,0,0,0,0,0,0,0,0,0,0,0,0,0,0,0,0,0,0,0,0,0,0,0,0,0,0,0,0,0,0,0,0,0,0,0,0,0,0,0,0,0,0,0,0,0,0,0,0,0,0,0,0,0,0,0,0,0,0,0,0,0,0,0,0,0,0,0,0,0,0,0,0,0,0,0,0,0,0,0,0,0,0,0,0,0,0,0,0,0,0,0,0,0,0,0,0,0,0,0,0,0,0,0,0,0,0,0,0,0,0,0,0,0,0,0,0,0,0,0,0,0,0,0,0,0,0,0,0,0,0,0,0,0,0],"sum_hessian":[2.6533254E4,1.6827297E4,9.705957E3,4.815528E3,1.201177E4,7.1845444E3,2.5214128E3,9.521598E2,3.863368E3,3.827099E3,8.18467E3,3.514151E3,3.6703933E3,5.296167E2,1.9917963E3,4.194643E2,3.4439038E3,3.264195E3,4.920475E3,1.5961603E3,1.9179906E3,2.7799065E3,8.9048694E2,1.3366533E2,3.959514E2,1.5184149E3,4.7338132E2,7.2735405E1,3.467289E2,1.6000447E3,1.8438591E3,5.6119165E2,2.7030034E3,3.153048E3,1.7674268E3,4.8060196E2,1.1155583E3,1.8225284E3,9.546214E1,1.1586786E3,1.6212278E3,7.495515E2,1.4093547E2,1.17124306E2,1.6541016E1,2.951486E2,1.0080278E2,1.4192705E3,9.9144455E1,3.8535425E2,8.802708E1,5.4356445E1,1.837896E1,3.2957126E2,1.7157644E1,1.5643273E3,3.5717346E1,9.762005E2,8.6765857E2,2.6851685E2,2.926748E2,2.130256E3,5.727472E2,2.9315535E1,3.1237327E3,1.3269796E3,4.4044717E2,2.3214422E1,4.5738754E2,4.875409E2,6.2801746E2,5.434876E2,1.2790409E3,7.944979E1,1.6012356E1,1.7561583E2,9.830628E2,1.3307351E3,2.9049274E2,1.1994902E2,6.296025E2,1.0475734E2,3.6178127E1,1.6085352E1,1.01038956E2,3.0169558E1,2.6497903E2,4.7315193E1,5.3487587E1,2.6884863E2,1.1504219E3,2.8141748E1,7.100271E1,2.985707E2,8.678353E1,2.1891762E1,6.6135315E1,3.3549442E1,2.0807007E1,2.9935333E1,2.9963593E2,1.4502495E3,1.1407774E2,1.843205E1,1.7285295E1,1.9114899E2,7.850515E2,7.3941864E2,1.2823994E2,3.755936E1,2.3095749E2,2.591038E2,3.3571007E1,6.3898566E2,1.4912705E3,5.0779358E1,5.2196783E2,4.7483536E2,2.6488972E3,3.5441663E2,9.7256305E2,4.3968817E2,1.7699373E1,4.5270297E2,3.483791E1,2.2914442E2,3.9887302E2,2.5898105E2,2.8450656E2,3.4613182E1,1.2444277E3,9.1165054E1,8.445077E1,1.5926846E2,8.237943E2,6.624847E2,6.682504E2,1.4469305E2,1.4579968E2,1.7251072E1,1.02697945E2,9.7576836E1,5.3202563E2,7.243255E1,3.2324795E1,1.9025892E1,1.7152235E1,1.6644035E1,2.48335E2,1.9018585E1,2.8296606E1,2.5215515E2,1.6693464E1,3.5272342E2,7.976984E2,4.460104E1,2.640167E1,1.002855E2,1.9828523E2,3.656248E1,5.022105E1,3.1784872E1,3.4350445E1,1.7104937E1,1.6444504E1,2.5971408E2,3.992183E1,1.340424E3,1.0982559E2,3.5828953E1,7.8248795E1,1.5369795E2,3.7451042E1,7.351912E2,4.9860268E1,6.29313E2,1.1010564E2,9.005932E1,3.818063E1,2.0835232E1,1.6724129E1,1.8654785E2,4.4409637E1,2.277509E2,3.1352888E1,1.7200369E1,1.6370638E1,2.8078897E2,3.581967E2,1.3312435E3,1.6002693E2,1.641631E1,3.436305E1,4.8907693E2,3.2890907E1,3.3476346E2,1.4007191E2,3.0406058E2,2.3448367E3,1.5269524E2,2.0172139E2,3.5373245E2,6.1883057E2,3.6176172E2,7.7926445E1,4.2897455E2,2.3728434E1,1.8737917E1,1.609999E1,5.338393E1,1.757605E2,2.3627626E2,1.6259677E2,2.0064897E2,8.38576E1,1.7097853E1,1.751533E1,9.1543E2,3.2899774E2,7.472474E1,1.644031E1,1.7258665E1,6.719211E1,1.2012981E2,3.913866E1,5.409072E2,2.828871E2,3.8572018E1,6.2391266E2,4.714846E2,1.9676584E2,1.2518569E2,1.9507364E1,8.693826E1,5.8861423E1,3.469702E1,6.800092E1,2.1717384E1,7.585945E1,3.5316113E2,1.788645E2,2.1824663E1,5.0607887E1,1.6070093E1,1.6254702E1,1.7542729E2,7.2907715E1,1.7857707E2,7.357809E1,3.346241E2,1.8099327E1,6.5113074E2,1.4656769E2,2.5214073E1,1.9386967E1,7.510618E1,2.5179323E1,1.1338708E2,8.489815E1,1.7735126E1,1.8827354E1,1.8286171E1,3.1934877E1,1.6231485E1,1.8118958E1,2.6491974E1,2.3322212E2,2.2310617E1,1.7611212E1,1.3228036E3,1.7620329E1,9.2444916E1,1.738067E1,1.697746E1,1.8851492E1,2.9781078E1,4.8467712E1,1.2970781E2,2.399014E1,1.6464115E1,2.0986927E1,6.1774365E2,1.174476E2,1.611266E1,3.374761E1,5.154906E2,1.1382238E2,8.906474E1,2.10409E1,1.7636265E1,7.242305E1,1.7384779E1,2.079585E1,1.6165977E2,2.4888075E1,1.7388319E1,2.7021317E1,8.675676E1,1.9403221E2,3.041344E2,5.4062294E1,3.6131656E2,9.69927E2,3.474207E1,1.2528487E2,1.6649199E1,1.771385E1,2.8158142E2,2.074955E2,1.6677742E1,1.6213165E1,7.029934E1,2.644641E2,1.177234E2,2.2348513E1,8.989633E1,2.1416425E2,2.0260883E3,3.1874847E2,1.1058391E2,9.113748E1,3.0826413E2,4.5468327E1,1.9636719E2,4.2246338E2,5.5376644E1,2.2549799E1,8.416329E1,3.4481125E2,4.4053185E1,1.3170732E2,2.0377785E2,3.2498413E1,1.1954289E2,4.305388E1,1.6740671E2,3.3242256E1,4.2936424E1,4.092117E1,4.3486472E2,4.8056525E2,1.9817102E2,1.3082672E2,2.5801535E1,4.8923206E1,1.6225744E1,5.0966362E1,3.524362E1,8.4886185E1,1.8909847E1,2.0228813E1,2.576798E2,2.832274E2,3.313615E1,2.4975095E2,1.632099E1,2.2251026E1,1.4224107E2,4.8167157E2,8.3470276E1,3.880143E2,9.979543E1,9.6970406E1,1.7832481E1,1.0735321E2,2.2123789E1,6.4814476E1,2.8967356E1,2.989407E1,1.6893427E1,1.7803595E1,4.59052E1,2.2095722E1,2.0779606E1,5.5079845E1,1.5646487E2,2.2399635E1,2.8366352E1,1.4706094E2,1.7689583E1,1.6088748E2,5.74853E1,1.609279E1,2.2414604E2,1.10478065E2,1.923492E2,4.5878152E2,9.779137E1,4.8776325E1,5.4909954E1,2.019622E1,6.057922E1,5.280786E1,3.4961674E1,4.993647E1],"tree_param":{"num_deleted":"0","num_feature":"47","num_nodes":"395","size_leaf_vector":"1"}},{"base_weights":[-7.571996E-2,-5.474149E-1,7.827801E-1,-7.4640393E-1,4.8574E-1,1.13485284E-1,9.803939E-1,-1.2750391E0,-5.2521366E-1,1.3815645E0,-4.008705E-2,-1.2176192E0,1.0584227E0,-1.0186251E0,1.0594276E0,-1.0140757E-1,-1.0024743E0,-1.14160135E-1,-9.4345593E-1,1.8205997E0,-4.9933302E-1,-2.169599E-1,1.4539417E0,-1.2501575E0,-1.8981282E-2,-9.18772E-1,1.7034742E0,-1.0807362E0,-3.4382984E-2,7.967777E-1,1.4692463E0,-1.01898715E-1,-2.0165905E-2,-1.1032588E0,6.951795E-2,-1.0510503E0,-7.9236895E-1,-1.0133698E-1,1.9159049E0,-7.312508E-1,9.793672E-2,-2.7568498E-1,1.9822483E0,-4.7098406E-2,1.7090621E0,-4.5563657E-2,-1.2631068E0,-1.2284312E0,1.6191605E-1,2.747085E-1,1.7935342E0,-1.2020354E0,-9.013197E-1,9.0175956E-1,-5.1480833E-2,1.5637525E0,5.6921124E-1,-9.6794516E-1,-1.2074102E0,3.1109986E-1,-5.7295203E-1,-9.327357E-1,-1.1536462E0,-8.8475263E-1,-2.1900025E-1,2.0898125E0,1.0218419E0,-8.415314E-1,1.0329603E-2,-4.0380833E-1,4.4977257E-1,1.8535864E-1,1.1726082E-1,2.0504937E0,7.8186816E-1,-6.32853E-2,-1.01341225E-1,-3.84214E-2,-1.0210432E-1,4.8242398E-2,3.5906292E-2,1.8331608E0,-2.0575348E-2,-1.0567949E0,-1.0055181E-1,-3.8157325E-2,-1.0159816E0,6.490973E-1,1.5544553E0,-3.5407153E-1,7.8449297E-1,1.3273443E0,1.983925E0,-4.060774E-1,8.9007854E-1,-7.789194E-1,-1.0738533E0,-1.2250379E0,-7.4387364E-2,2.5523013E-1,2.3836083E0,-7.184866E-1,8.500663E-1,-1.2103308E0,-8.5609996E-1,-1.1153522E0,-1.2715203E0,-1.0620539E0,-7.808028E-1,-3.1637317E-1,4.977135E-2,2.1684358E0,1.6337954E0,8.5964876E-1,1.361289E-1,-6.431516E-1,-1.1323917E0,-9.8417306E-1,-2.681364E-1,1.8222604E0,1.5617487E-1,2.2606611E0,8.107158E-2,1.9649373E-1,-4.0863115E-2,2.2905549E-2,-1.7204277E-2,1.8872731E0,7.6728576E-1,-9.750664E-2,-5.959945E-2,-5.452647E-2,-1.1139688E0,7.566552E-1,-1.2387435E0,1.5947522E0,5.6974226E-1,-1.0527165E-1,-2.584158E-1,1.0303989E-1,1.2165812E0,1.4227701E0,-1.1252362E0,2.0573812E0,1.6410345E0,1.4308669E-2,-6.990095E-1,4.6646252E-1,1.1980413E0,-6.460944E-1,-1.1259477E0,-1.2294858E0,-1.0032979E0,-1.0934623E0,-1.2420814E0,9.373783E-1,1.6222328E-1,1.6135669E-1,2.6036372E0,-5.3037494E-1,-9.1433984E-1,1.0503933E0,-9.233928E-3,-1.1510282E0,-1.0121009E-1,-8.156446E-1,-1.01510294E-1,-1.0909134E0,-1.02471866E-1,-1.1951993E0,-1.0161272E-1,-1.16047E0,-8.972259E-1,-4.0330198E-1,-9.060841E-1,2.1644855E-1,-4.4881117E-1,1.9508857E0,2.2337465E0,-6.0079623E-2,2.1306186E0,3.0280098E-2,9.8646677E-1,-3.5941216E-1,-1.0015976E0,-5.7139598E-2,-1.01871476E-1,-1.02745935E-1,-8.0173784E-1,6.375348E-1,-4.2972353E-1,1.2858504E-1,1.5831429E-1,7.862821E-1,-1.2622519E-1,2.3929744E0,1.4120872E-1,2.0156043E0,1.5196209E0,1.8243296E-2,9.905605E-2,-9.896612E-2,-6.415291E-2,4.109345E-1,8.9616793E-1,-1.02751E-1,-6.286086E-2,1.3815264E0,1.7515122E0,-2.5220959E-2,9.733875E-2,-4.2816628E-2,-5.3324234E-1,3.4931824E-2,-4.4125985E-2,1.5949142E0,-1.2916579E-2,1.4752136E0,-4.8378006E-1,-5.1961146E-2,-1.03065155E-1,1.7901008E0,2.122764E0,1.8294458E0,1.2806079E0,-8.679085E-2,-2.5621798E-2,-3.20866E-1,1.1297766E0,1.3979522E0,5.1012237E-2,-6.166874E-2,-1.5906291E-2,-7.386173E-2,-1.0233365E-1,-8.364723E-2,-1.01893395E-1,-5.2302495E-2,-8.4794134E-2,-1.0138511E-1,-7.132924E-2,-9.288334E-2,-1.0015963E-1,8.040761E-2,-3.8394988E-2,1.9805748E-3,4.2941995E-2,2.1729435E-1,1.8479002E-1,-2.7150957E-2,-5.8411885E-2,-8.947308E-2,-4.2050324E-2,3.1066634E-2,9.775856E-2,-9.644311E-2,-8.527101E-2,-5.4059975E-2,-7.559966E-2,-7.843092E-2,-9.045053E-2,-1.0099126E-1,-8.2030505E-2,-8.847504E-2,-1.01763815E-1,-6.279791E-2,-9.801426E-2,-4.8503023E-2,2.0504424E-1,-6.775005E-2,-9.783185E-2,5.6529127E-2,-3.9929494E-2,-1.9369952E-2,-8.026752E-2,1.7192742E-1,9.58084E-2,1.7985648E-1,1.7043196E-1,1.8128532E-1,1.1836334E-1,1.2939727E-1,6.4365275E-2,-5.7712916E-2,1.49352215E-2,-6.671322E-2,-9.068977E-2,-8.85208E-2,-4.1658763E-2,9.764506E-2,-1.7748164E-2,-8.656876E-2,-1.107568E-2,1.9625291E-2,1.1015325E-1,-8.9068145E-2,1.6638426E-2,2.1126042E-1,1.7739734E-1,1.6567227E-1,1.0973195E-1,-1.0385083E-1,1.628695E-1,6.1305728E-2,1.096058E-2,7.563533E-2,2.1918995E-2,7.6016E-2,1.1349317E-1,1.5187156E-1,1.249916E-1,3.1231659E-2,-3.0372519E-2,-6.423252E-2,-1.6921038E-2,1.6228002E-1,1.02598615E-1,1.2529206E-1,7.025502E-2,-6.7404346E-3,-7.6421425E-2,1.2202419E-1,1.6377424E-1,1.7001344E-1,1.4382647E-1,9.8726444E-2,1.546369E-1,5.8217816E-2,1.5129808E-1,2.1709634E-2,-7.034889E-2,1.5324466E-1,4.6252098E-2,1.0144338E-1,1.471327E-1],"categories":[],"categories_nodes":[],"categories_segments":[],"categories_sizes":[],"default_left":[0,0,0,0,0,0,0,0,0,0,0,0,0,0,0,0,0,0,0,0,0,0,0,0,0,0,0,0,0,0,0,0,0,0,0,0,0,0,0,0,0,0,0,0,0,0,0,0,0,0,0,0,0,0,0,0,0,0,0,0,0,0,0,0,0,0,0,0,0,0,0,0,0,0,0,0,0,0,0,0,0,0,0,0,0,0,0,0,0,0,0,0,0,0,0,0,0,0,0,0,0,0,0,0,0,0,0,0,0,0,0,0,0,0,0,0,0,0,0,0,0,0,0,0,0,0,0,0,0,0,0,0,0,0,0,0,0,0,0,0,0,0,0,0,0,0,0,0,0,0,0,0,0,0,0,0,0,0,0,0,0,0,0,0,0,0,0,0,0,0,0,0,0,0,0,0,0,0,0,0,0,0,0,0,0,0,0,0,0,0,0,0,0,0,0,0,0,0,0,0,0,0,0,0,0,0,0,0,0,0,0,0,0,0,0,0,0,0,0,0,0,0,0,0,0,0,0,0,0,0,0,0,0,0,0,0,0,0,0,0,0,0,0,0,0,0,0,0,0,0,0,0,0,0,0,0,0,0,0,0,0,0,0,0,0,0,0,0,0,0,0,0,0,0,0,0,0,0,0,0,0,0,0,0,0,0,0,0,0,0,0,0,0,0,0,0,0,0,0,0,0,0,0,0,0,0,0,0,0,0,0,0,0,0,0,0,0,0,0,0,0,0,0,0,0,0,0,0,0,0,0,0,0,0,0],"id":3,"left_children":[1,3,5,7,9,11,13,15,17,19,21,23,25,27,29,-1,31,33,35,37,39,41,43,45,-1,47,49,51,-1,53,55,-1,-1,57,59,61,63,-1,65,67,-1,69,71,-1,73,-1,75,77,-1,79,81,83,85,87,89,91,93,95,97,99,101,103,105,107,109,111,113,115,-1,117,119,-1,-1,121,123,-1,-1,-1,-1,-1,125,127,-1,129,-1,-1,131,133,135,137,139,141,143,145,147,149,151,153,-1,155,157,159,161,163,165,167,169,171,173,175,-1,177,179,181,-1,183,185,187,189,191,193,195,-1,-1,-1,-1,-1,197,199,-1,-1,-1,201,203,205,207,209,-1,211,213,215,217,219,221,223,-1,225,227,229,231,233,235,237,239,241,243,245,-1,247,249,251,253,-1,255,-1,257,-1,259,-1,261,-1,263,265,267,269,271,273,275,277,-1,279,-1,281,283,285,-1,-1,-1,287,289,291,-1,-1,293,295,297,-1,299,301,-1,-1,-1,-1,303,305,-1,-1,307,309,-1,-1,311,313,-1,-1,315,-1,317,319,-1,-1,321,323,325,327,-1,-1,329,331,333,-1,-1,-1,-1,-1,-1,-1,-1,-1,-1,-1,-1,-1,-1,-1,-1,-1,-1,-1,-1,-1,-1,-1,-1,-1,-1,-1,-1,-1,-1,-1,-1,-1,-1,-1,-1,-1,-1,-1,-1,-1,-1,-1,-1,-1,-1,-1,-1,-1,-1,-1,-1,-1,-1,-1,-1,-1,-1,-1,-1,-1,-1,-1,-1,-1,-1,-1,-1,-1,-1,-1,-1,-1,-1,-1,-1,-1,-1,-1,-1,-1,-1,-1,-1,-1,-1,-1,-1,-1,-1,-1,-1,-1,-1,-1,-1,-1,-1,-1,-1,-1,-1,-1,-1,-1],"loss_changes":[1.0596473E4,3.472058E3,1.22725E3,1.6556968E3,1.2848096E3,2.6609917E3,1.1320132E3,4.234375E0,1.7164089E3,8.3324097E2,4.5426935E2,2.7901733E1,1.5782534E3,9.81781E0,7.41584E2,0E0,1.2641151E1,9.148286E2,8.02959E1,2.4199219E2,7.701388E1,1.9860452E2,9.5256714E1,7.3043213E0,0E0,2.7959598E2,1.1995752E2,5.164978E0,0E0,3.740481E2,2.2877148E2,0E0,0E0,1.0904785E1,6.591958E2,3.488501E1,1.0903076E2,0E0,1.2301416E2,1.604235E1,0E0,1.3919835E2,6.5406647E0,0E0,5.0953125E1,0E0,5.63855E0,1.2053986E1,0E0,4.420654E0,7.148389E1,1.1658478E0,4.730385E0,6.1620386E2,1.17103325E2,2.4146191E2,8.01874E1,6.734253E0,1.9051514E0,3.5727734E2,2.4046793E2,2.8384644E1,6.7285156E0,3.253247E1,2.3611397E1,2.3182861E1,1.4342728E1,8.496262E0,0E0,1.00155426E2,9.054025E1,0E0,0E0,2.5121796E1,9.672024E1,0E0,0E0,0E0,0E0,0E0,2.094161E0,4.940039E1,0E0,2.3073196E0,0E0,0E0,2.385025E0,5.473679E2,4.1221924E1,3.159148E1,3.620327E1,3.651897E2,2.1476807E1,1.0933761E1,2.5039108E1,5.5910416E0,2.1937714E0,6.916504E-1,0E0,1.9066594E2,5.26886E0,3.8707886E1,2.0888481E1,8.746338E-1,1.7882324E1,4.805298E0,1.4953613E-2,1.0436462E1,5.283313E1,1.8123713E1,0E0,7.265625E0,1.172009E2,6.3184586E0,0E0,9.01722E0,3.6235657E0,1.3519684E1,1.5103522E2,8.0744934E-1,3.3008442E1,5.4598083E0,0E0,0E0,0E0,0E0,0E0,3.8108154E1,1.0796246E1,0E0,0E0,0E0,2.2779846E0,1.22912964E2,3.5197296E0,3.3055176E1,2.4181667E1,0E0,1.8345655E1,1.0714454E1,3.9334953E1,1.5019238E2,4.646187E0,1.1927002E1,1.0143555E1,0E0,6.238352E0,4.258303E1,1.2198547E1,5.261902E0,8.7667084E-1,4.1500092E-1,3.3340912E0,1.5638237E0,2.8405762E-1,3.9421234E1,1.3772412E2,0E0,6.960449E-1,2.0798355E1,4.22854E1,1.0645744E1,0E0,5.295563E-1,0E0,1.7625061E1,0E0,5.01355E0,0E0,3.506012E-1,0E0,1.9899902E0,8.583084E0,1.74126E2,1.4016541E1,1.836691E1,2.3645939E1,2.0861816E1,3.9770508E-1,0E0,7.4901123E0,0E0,9.142944E0,1.0142212E1,7.2351074E-1,0E0,0E0,0E0,1.3157196E1,8.0006454E1,1.6811649E2,0E0,0E0,1.858472E1,4.299305E1,2.1618347E0,0E0,2.7794434E1,3.2215182E2,0E0,0E0,0E0,0E0,7.243249E1,6.496277E1,0E0,0E0,8.719727E0,1.601355E1,0E0,0E0,2.5843472E1,1.20223465E1,0E0,0E0,7.5607147E0,0E0,9.009253E1,7.700734E0,0E0,0E0,9.3160095E0,3.1401367E0,6.749054E0,1.8259209E1,0E0,0E0,1.2628111E1,1.9202335E1,4.013199E0,0E0,0E0,0E0,0E0,0E0,0E0,0E0,0E0,0E0,0E0,0E0,0E0,0E0,0E0,0E0,0E0,0E0,0E0,0E0,0E0,0E0,0E0,0E0,0E0,0E0,0E0,0E0,0E0,0E0,0E0,0E0,0E0,0E0,0E0,0E0,0E0,0E0,0E0,0E0,0E0,0E0,0E0,0E0,0E0,0E0,0E0,0E0,0E0,0E0,0E0,0E0,0E0,0E0,0E0,0E0,0E0,0E0,0E0,0E0,0E0,0E0,0E0,0E0,0E0,0E0,0E0,0E0,0E0,0E0,0E0,0E0,0E0,0E0,0E0,0E0,0E0,0E0,0E0,0E0,0E0,0E0,0E0,0E0,0E0,0E0,0E0,0E0,0E0,0E0,0E0,0E0,0E0,0E0,0E0,0E0,0E0,0E0,0E0,0E0,0E0,0E0,0E0,0E0,0E0,0E0],"parents":[2147483647,0,0,1,1,2,2,3,3,4,4,5,5,6,6,7,7,8,8,9,9,10,10,11,11,12,12,13,13,14,14,16,16,17,17,18,18,19,19,20,20,21,21,22,22,23,23,25,25,26,26,27,27,29,29,30,30,33,33,34,34,35,35,36,36,38,38,39,39,41,41,42,42,44,44,46,46,47,47,49,49,50,50,51,51,52,52,53,53,54,54,55,55,56,56,57,57,58,58,59,59,60,60,61,61,62,62,63,63,64,64,65,65,66,66,67,67,69,69,70,70,73,73,74,74,80,80,81,81,83,83,86,86,87,87,88,88,89,89,90,90,91,91,92,92,93,93,94,94,95,95,96,96,97,97,99,99,100,100,101,101,102,102,103,103,104,104,105,105,106,106,107,107,108,108,109,109,111,111,112,112,113,113,115,115,116,116,117,117,118,118,119,119,120,120,121,121,127,127,128,128,132,132,133,133,134,134,135,135,136,136,138,138,139,139,140,140,141,141,142,142,143,143,144,144,146,146,147,147,148,148,149,149,150,150,151,151,152,152,153,153,154,154,155,155,156,156,158,158,159,159,160,160,161,161,163,163,165,165,167,167,169,169,171,171,172,172,173,173,174,174,175,175,176,176,177,177,178,178,180,180,182,182,183,183,184,184,188,188,189,189,190,190,193,193,194,194,195,195,197,197,198,198,203,203,204,204,207,207,208,208,211,211,212,212,215,215,217,217,218,218,221,221,222,222,223,223,224,224,227,227,228,228,229,229],"right_children":[2,4,6,8,10,12,14,16,18,20,22,24,26,28,30,-1,32,34,36,38,40,42,44,46,-1,48,50,52,-1,54,56,-1,-1,58,60,62,64,-1,66,68,-1,70,72,-1,74,-1,76,78,-1,80,82,84,86,88,90,92,94,96,98,100,102,104,106,108,110,112,114,116,-1,118,120,-1,-1,122,124,-1,-1,-1,-1,-1,126,128,-1,130,-1,-1,132,134,136,138,140,142,144,146,148,150,152,154,-1,156,158,160,162,164,166,168,170,172,174,176,-1,178,180,182,-1,184,186,188,190,192,194,196,-1,-1,-1,-1,-1,198,200,-1,-1,-1,202,204,206,208,210,-1,212,214,216,218,220,222,224,-1,226,228,230,232,234,236,238,240,242,244,246,-1,248,250,252,254,-1,256,-1,258,-1,260,-1,262,-1,264,266,268,270,272,274,276,278,-1,280,-1,282,284,286,-1,-1,-1,288,290,292,-1,-1,294,296,298,-1,300,302,-1,-1,-1,-1,304,306,-1,-1,308,310,-1,-1,312,314,-1,-1,316,-1,318,320,-1,-1,322,324,326,328,-1,-1,330,332,334,-1,-1,-1,-1,-1,-1,-1,-1,-1,-1,-1,-1,-1,-1,-1,-1,-1,-1,-1,-1,-1,-1,-1,-1,-1,-1,-1,-1,-1,-1,-1,-1,-1,-1,-1,-1,-1,-1,-1,-1,-1,-1,-1,-1,-1,-1,-1,-1,-1,-1,-1,-1,-1,-1,-1,-1,-1,-1,-1,-1,-1,-1,-1,-1,-1,-1,-1,-1,-1,-1,-1,-1,-1,-1,-1,-1,-1,-1,-1,-1,-1,-1,-1,-1,-1,-1,-1,-1,-1,-1,-1,-1,-1,-1,-1,-1,-1,-1,-1,-1,-1,-1,-1,-1,-1],"split_conditions":[2.7E-2,3.3686E0,2.5E-1,2E-1,2.5E1,3.5766E0,1E0,3.1503E0,7.4E1,2E-1,2E0,1.767E-1,1E0,6.1906E0,9.38E-2,-1.0140757E-1,4.635E2,1E0,1E0,1E0,2E0,1E0,3.6907E0,5E0,-1.8981282E-2,4.80925E1,2E0,3E0,-3.4382984E-2,1E0,1E0,-1.01898715E-1,-2.0165905E-2,6E0,1E0,1.33E2,1E0,-1.0133698E-1,4.295E2,1.40547E1,9.793672E-2,8.2808E0,5.65425E2,-4.7098406E-2,2E-1,-4.5563657E-2,2.39E2,6E0,1.6191605E-1,2.39E2,1E0,2.7E1,6.5835E2,1E0,1.155E3,1E0,3.325E2,4.888537E-1,2.3E1,2E0,6.86E2,1E0,1.1025283E0,3.096773E-1,1.196046E2,7E0,8.68875E2,1E0,1.0329603E-2,3.7E1,8.3753E0,1.8535864E-1,1.1726082E-1,4.52E2,1E0,-6.32853E-2,-1.01341225E-1,-3.84214E-2,-1.0210432E-1,4.8242398E-2,3.49E2,5.58E2,-2.0575348E-2,1.6E1,-1.0055181E-1,-3.8157325E-2,3.040839E-1,6E-1,1.97925E3,4E-1,3.4567E2,6E-1,1E0,4.2E1,1E0,4E0,2.295E2,2.6147953E-1,-7.4387364E-2,1.7E1,3.9147174E-1,6E0,3.0769232E-1,2E0,1E0,1E0,-7.0710677E-1,1E0,1E0,2.085E2,4.977135E-2,3.7695E2,1.48063E1,5.1598E0,1.361289E-1,4E0,1.5E1,2E-1,4.3E1,4E0,3.1E1,6.9975746E-1,8.107158E-2,1.9649373E-1,-4.0863115E-2,2.2905549E-2,-1.7204277E-2,3.38E2,6.8964E2,-9.750664E-2,-5.959945E-2,-5.452647E-2,2.9994E0,3.96E-2,7.1757E0,4.34E-2,6E-1,-1.0527165E-1,2.2E1,2.3E1,5.62E2,8.731655E3,5.7E1,1.032E-1,9.1E2,1.4308669E-2,1.22E-1,4.0440628E-1,1.17128E3,6.25E-1,1.0815E3,3E0,2.75E2,2E0,9E0,1E0,1E0,1.6135669E-1,2.6666668E-1,5E1,1E0,2.925E2,-9.233928E-3,1.0426633E3,-1.0121009E-1,5.2164763E-1,-1.01510294E-1,7E0,-1.02471866E-1,4E0,-1.0161272E-1,5.58E2,5E0,2E0,8.821E-1,1.16E2,4.270923E-1,3.035E2,5.9742E0,-6.0079623E-2,2.96E2,3.0280098E-2,5.3533E2,3.7931034E-1,1E0,-5.7139598E-2,-1.01871476E-1,-1.02745935E-1,1.5995E2,2E-1,2E-1,1.2858504E-1,1.5831429E-1,1E0,2E-1,4E0,1.4120872E-1,3.55E2,1.581E-1,1.8243296E-2,9.905605E-2,-9.896612E-2,-6.415291E-2,4.245591E-1,8.7754405E-1,-1.02751E-1,-6.286086E-2,4E0,8.169E2,-2.5220959E-2,9.733875E-2,3.1E1,1E0,3.4931824E-2,-4.4125985E-2,2E0,-1.2916579E-2,1.631E3,5E-1,-5.1961146E-2,-1.03065155E-1,4.1474816E-1,1.84065E3,1.1E1,1.729E-1,-8.679085E-2,-2.5621798E-2,1.02E2,2E0,8.660254E-1,5.1012237E-2,-6.166874E-2,-1.5906291E-2,-7.386173E-2,-1.0233365E-1,-8.364723E-2,-1.01893395E-1,-5.2302495E-2,-8.4794134E-2,-1.0138511E-1,-7.132924E-2,-9.288334E-2,-1.0015963E-1,8.040761E-2,-3.8394988E-2,1.9805748E-3,4.2941995E-2,2.1729435E-1,1.8479002E-1,-2.7150957E-2,-5.8411885E-2,-8.947308E-2,-4.2050324E-2,3.1066634E-2,9.775856E-2,-9.644311E-2,-8.527101E-2,-5.4059975E-2,-7.559966E-2,-7.843092E-2,-9.045053E-2,-1.0099126E-1,-8.2030505E-2,-8.847504E-2,-1.01763815E-1,-6.279791E-2,-9.801426E-2,-4.8503023E-2,2.0504424E-1,-6.775005E-2,-9.783185E-2,5.6529127E-2,-3.9929494E-2,-1.9369952E-2,-8.026752E-2,1.7192742E-1,9.58084E-2,1.7985648E-1,1.7043196E-1,1.8128532E-1,1.1836334E-1,1.2939727E-1,6.4365275E-2,-5.7712916E-2,1.49352215E-2,-6.671322E-2,-9.068977E-2,-8.85208E-2,-4.1658763E-2,9.764506E-2,-1.7748164E-2,-8.656876E-2,-1.107568E-2,1.9625291E-2,1.1015325E-1,-8.9068145E-2,1.6638426E-2,2.1126042E-1,1.7739734E-1,1.6567227E-1,1.0973195E-1,-1.0385083E-1,1.628695E-1,6.1305728E-2,1.096058E-2,7.563533E-2,2.1918995E-2,7.6016E-2,1.1349317E-1,1.5187156E-1,1.249916E-1,3.1231659E-2,-3.0372519E-2,-6.423252E-2,-1.6921038E-2,1.6228002E-1,1.02598615E-1,1.2529206E-1,7.025502E-2,-6.7404346E-3,-7.6421425E-2,1.2202419E-1,1.6377424E-1,1.7001344E-1,1.4382647E-1,9.8726444E-2,1.546369E-1,5.8217816E-2,1.5129808E-1,2.1709634E-2,-7.034889E-2,1.5324466E-1,4.6252098E-2,1.0144338E-1,1.471327E-1],"split_indices":[30,28,2,2,23,28,27,28,34,2,20,30,26,28,30,0,1,27,20,26,31,9,28,29,0,28,11,37,0,26,26,0,0,29,26,34,8,0,1,28,0,28,12,0,2,0,23,29,0,23,35,29,12,20,23,20,1,43,4,20,23,27,43,43,41,19,12,26,0,23,28,0,0,1,26,0,0,0,0,0,1,1,0,29,0,0,43,2,12,2,1,2,8,29,45,29,1,43,0,34,43,29,15,32,8,8,39,45,26,1,0,12,28,28,0,19,4,2,23,11,23,43,0,0,0,0,0,23,12,0,0,0,28,30,28,30,2,0,29,29,1,41,29,30,23,0,30,43,1,14,12,19,1,31,29,45,20,0,15,34,45,1,0,12,0,43,0,19,0,23,0,1,29,20,28,34,43,1,28,0,1,0,1,14,3,0,0,0,41,2,2,0,0,44,2,29,0,1,30,0,0,0,0,43,43,0,0,4,12,0,0,34,45,0,0,11,0,23,39,0,0,43,12,29,30,0,0,29,11,39,0,0,0,0,0,0,0,0,0,0,0,0,0,0,0,0,0,0,0,0,0,0,0,0,0,0,0,0,0,0,0,0,0,0,0,0,0,0,0,0,0,0,0,0,0,0,0,0,0,0,0,0,0,0,0,0,0,0,0,0,0,0,0,0,0,0,0,0,0,0,0,0,0,0,0,0,0,0,0,0,0,0,0,0,0,0,0,0,0,0,0,0,0,0,0,0,0,0,0,0,0,0,0,0,0],"split_type":[0,0,0,0,0,0,0,0,0,0,0,0,0,0,0,0,0,0,0,0,0,0,0,0,0,0,0,0,0,0,0,0,0,0,0,0,0,0,0,0,0,0,0,0,0,0,0,0,0,0,0,0,0,0,0,0,0,0,0,0,0,0,0,0,0,0,0,0,0,0,0,0,0,0,0,0,0,0,0,0,0,0,0,0,0,0,0,0,0,0,0,0,0,0,0,0,0,0,0,0,0,0,0,0,0,0,0,0,0,0,0,0,0,0,0,0,0,0,0,0,0,0,0,0,0,0,0,0,0,0,0,0,0,0,0,0,0,0,0,0,0,0,0,0,0,0,0,0,0,0,0,0,0,0,0,0,0,0,0,0,0,0,0,0,0,0,0,0,0,0,0,0,0,0,0,0,0,0,0,0,0,0,0,0,0,0,0,0,0,0,0,0,0,0,0,0,0,0,0,0,0,0,0,0,0,0,0,0,0,0,0,0,0,0,0,0,0,0,0,0,0,0,0,0,0,0,0,0,0,0,0,0,0,0,0,0,0,0,0,0,0,0,0,0,0,0,0,0,0,0,0,0,0,0,0,0,0,0,0,0,0,0,0,0,0,0,0,0,0,0,0,0,0,0,0,0,0,0,0,0,0,0,0,0,0,0,0,0,0,0,0,0,0,0,0,0,0,0,0,0,0,0,0,0,0,0,0,0,0,0,0,0,0,0,0,0,0,0,0,0,0,0,0,0,0,0,0,0,0,0,0,0,0,0,0],"sum_hessian":[2.6166986E4,1.6888062E4,9.278924E3,1.4160713E4,2.727349E3,2.1152168E3,7.1637075E3,4.177004E3,9.983709E3,1.0086608E3,1.7186882E3,8.7814636E2,1.2370704E3,2.72374E2,6.8913335E3,4.117123E3,5.988074E1,5.0352417E3,4.948468E3,8.177822E2,1.908786E2,1.536893E3,1.8179533E2,8.4982825E2,2.831811E1,3.0429037E2,9.327801E2,2.4609268E2,2.6281303E1,4.2000645E3,2.6912688E3,4.3366257E1,1.6514484E1,7.884727E2,4.246769E3,2.889612E3,2.0588557E3,2.4335928E1,7.934463E2,1.6845766E2,2.2420948E1,1.4970721E3,3.9820816E1,2.0111546E1,1.6168379E2,1.613765E1,8.3369055E2,2.755737E2,2.8716671E1,5.5353367E1,8.774267E2,1.4622072E2,9.987196E1,3.7374968E3,4.6256778E2,2.4354116E3,2.5585715E2,3.4373044E2,4.4474228E2,3.0863367E3,1.1604325E3,1.342837E3,1.546775E3,1.7730718E3,2.857838E2,6.640427E2,1.2940355E2,1.493463E2,1.9111353E1,1.2724285E3,2.2464368E2,2.2958467E1,1.6862349E1,1.1801137E2,4.3672424E1,2.6385353E1,8.0730524E2,2.0473217E1,2.5510048E2,2.2971176E1,3.2382187E1,8.6083105E2,1.6595682E1,4.669353E1,9.952719E1,2.1614859E1,7.82571E1,2.6947131E3,1.0427838E3,3.3970953E2,1.2285827E2,1.558991E3,8.764207E2,6.332544E1,1.9253171E2,1.2396576E2,2.197647E2,4.1681842E2,2.7923836E1,3.0055146E3,8.082204E1,1.0528447E3,1.07587715E2,2.8994485E2,1.0528921E3,1.1688947E3,3.778803E2,6.547165E2,1.1183552E3,2.5640918E2,2.9374636E1,5.6582104E2,9.8221695E1,1.0524154E2,2.4162004E1,8.912895E1,6.0217346E1,2.4088342E2,1.031545E3,3.9423687E1,1.8521999E2,9.78031E1,2.0208263E1,1.8855883E1,2.481654E1,1.6178501E1,1.6203688E1,8.1910895E2,4.172207E1,2.9455524E1,1.7238007E1,1.8317986E1,5.9939117E1,2.549561E3,1.4515202E2,1.00168146E3,4.110235E1,3.0184807E1,3.0952472E2,4.7759045E1,7.509922E1,1.500677E3,5.8314007E1,7.210621E2,1.5535866E2,2.1113182E1,4.2212257E1,8.1236565E1,1.11295135E2,9.0020454E1,3.39453E1,6.763969E1,1.52125E2,4.9130558E1,3.6768787E2,3.604218E2,2.6450928E3,3.1979172E1,4.8842865E1,5.373743E2,5.154704E2,8.910545E1,1.8482258E1,1.5459908E2,1.353458E2,9.6168774E2,9.120437E1,1.0282242E3,1.4067047E2,4.63639E1,3.315164E2,4.0927097E2,2.4544556E2,2.7885623E2,8.394991E2,5.102066E1,2.053885E2,1.3190941E2,4.3391165E2,1.6878592E1,8.13431E1,2.2227148E1,8.301439E1,4.99486E1,3.918035E1,1.6544962E1,4.3672382E1,8.8539246E1,1.5234418E2,1.5609978E2,8.7544525E2,1.9188904E1,2.0234783E1,5.7225376E1,1.2799462E2,7.610476E1,2.1698345E1,6.0658185E2,2.1252708E2,1.9856482E1,2.1865585E1,4.1235886E1,1.8703232E1,7.332449E2,1.8163162E3,1.2835898E2,1.6793043E1,4.2514288E2,5.765386E2,1.753205E1,2.3570301E1,1.7357008E2,1.3595464E2,3.163242E1,1.6126625E1,5.8914906E1,1.6184315E1,1.4605426E3,4.0134422E1,1.6029552E1,4.228446E1,1.4271048E2,5.7835156E2,1.0154965E2,5.3809002E1,2.0399569E1,2.1812689E1,3.7186546E1,4.405002E1,8.1610344E1,2.9684793E1,6.937837E1,2.0642082E1,1.61122E1,1.7833103E1,1.7202164E1,5.043752E1,2.4866756E1,1.2725825E2,2.4615423E1,2.4515133E1,8.7010956E1,2.806769E2,3.4201413E2,1.8407703E1,1.9425288E3,7.02564E2,3.1465261E1,1.7377602E1,2.814593E2,2.5591507E2,3.3072528E2,1.8474509E2,1.9460558E1,6.96449E1,8.1489426E1,7.310965E1,4.8844083E2,4.7324695E2,3.393818E2,6.888424E2,3.0313437E1,1.6050465E1,3.016348E2,1.0763617E2,1.877558E2,5.768975E1,2.6081293E2,1.8043287E1,7.258422E2,1.1365683E2,3.0200138E1,2.0820524E1,1.508852E2,5.450331E1,1.0176358E2,3.014582E1,3.0428284E2,1.2962881E2,6.500789E1,1.6335215E1,1.736495E1,6.564944E1,2.9828655E1,2.0119947E1,1.9002686E1,2.0177666E1,7.097471E1,8.136947E1,9.234676E1,6.3753017E1,2.665279E2,6.0891736E2,3.035482E1,2.6870556E1,3.2161877E1,9.583274E1,2.6690413E1,4.9414345E1,5.42707E2,6.3874916E1,3.3728E1,1.7879909E2,3.1476965E2,4.184752E2,1.6613972E3,1.5491899E2,4.5225292E1,3.7991757E2,2.968859E2,2.7965268E2,7.599548E1,9.757459E1,7.272489E1,6.3229744E1,2.3142416E1,3.577249E1,1.2393986E3,2.2114397E2,2.2038572E1,1.8095848E1,7.526122E1,6.744925E1,5.397894E2,3.856214E1,1.7747755E1,8.3801895E1,2.8972054E1,2.4836948E1,1.8183483E1,1.9003063E1,1.7655499E1,2.6394522E1,6.5357155E1,1.6253185E1],"tree_param":{"num_deleted":"0","num_feature":"47","num_nodes":"335","size_leaf_vector":"1"}},{"base_weights":[-7.02762E-2,-5.4964256E-1,6.5599316E-1,-7.4053615E-1,4.9525085E-1,1.2269741E-2,8.382276E-1,-1.242224E0,-5.344953E-1,1.027883E0,-3.248088E-1,-1.1949147E0,9.1041225E-1,-9.885294E-1,9.1105324E-1,-1.2478902E0,-4.671564E-3,-1.5617414E-1,-8.922147E-1,-1.055018E0,1.3628175E0,-7.934458E-2,-9.9595654E-1,-1.2233297E0,-1.3770458E-2,-9.153517E-1,1.4822612E0,-1.0503109E0,-5.299261E-1,5.1945513E-1,1.1564202E0,-9.927373E-2,-9.190392E-1,-1.0586683E0,1.4920606E-2,-7.808293E-1,-1.045794E0,-1.00560494E-1,7.526919E-2,1.5038998E0,-1.0707835E0,-3.9107987E-1,3.8134897E-1,-1.2011309E0,-6.752099E-1,-5.025395E-2,-1.2384292E0,-1.1907613E0,1.4433901E-1,1.5615529E0,2.1465798E-1,-1.1911986E0,-8.716754E-1,-8.040965E-2,7.1074674E-3,6.2703025E-1,-2.2833836E-1,1.2435868E0,3.1757656E-1,-2.106762E-2,-9.916308E-2,-9.299711E-1,-1.165589E0,2.3796864E-1,-5.432317E-1,-9.079891E-1,-5.946851E-1,-9.8804705E-2,-9.799443E-1,1.8659158E0,1.0730286E0,-4.1636936E-2,-1.0113288E-1,5.7128435E-1,-6.152736E-1,1.5243206E-2,1.0093426E0,-9.673908E-1,-1.266439E0,-8.440499E-1,-1.2588188E-3,-6.5395735E-2,-9.925681E-2,-2.457707E-2,-1.2482688E0,1.3286661E0,1.926164E0,4.887627E-1,-1.800164E-2,-7.4571826E-2,-9.7842306E-2,-7.925768E-1,-1.01362765E-1,4.2901963E-1,1.1582465E0,4.8922193E-1,-4.3204919E-1,1.0299999E0,1.6989739E0,6.0183907E-1,-4.5890003E-1,-1.1038095E0,-8.574317E-1,-9.823985E-2,-1.0578995E0,7.0323336E-1,1.0053778E-1,9.8763496E-1,-7.0887077E-1,-1.1536356E0,-8.606999E-1,4.0908673E-1,-6.624917E-1,-9.947298E-1,-4.2311457E-1,2.0556917E0,9.6701163E-1,-1.2121929E0,1.5790515E0,1.5127552E-1,-1.1688309E-2,-9.1920805E-1,-3.7395367E-1,1.087579E0,-2.92198E-1,4.7196448E-1,1.6651101E0,-9.3797736E-2,-5.876282E-2,-8.752528E-2,-1.0326378E-1,-1.01275615E-1,-6.52328E-1,-8.274597E-2,-1.00044034E-1,1.6661787E0,-1.0077832E0,9.512184E-2,1.9897422E0,8.664472E-3,6.472319E-2,-9.961624E-1,-5.5890644E-1,4.9322444E-1,-6.858928E-1,1.4750618E0,7.468906E-1,-8.7359734E-2,9.263166E-1,-6.313309E-1,2.5319192E-1,1.1180497E0,-8.4877074E-1,1.634266E0,1.9421571E0,7.874571E-1,-1.2178005E-1,2.5916465E-2,-6.9361264E-1,-9.605737E-2,-1.009138E0,-6.298413E-1,-9.7404134E-1,-5.5535607E-2,-1.1310985E0,5.514512E-1,2.2253757E0,1.3983682E0,4.1853618E-2,2.1432884E-2,1.1352526E0,-8.146131E-1,6.329914E-1,-1.1721933E0,-7.952722E-2,-7.440254E-1,-9.781491E-1,-3.788399E-2,1.1317252E0,4.207255E-2,-6.874443E-1,-1.04627E0,-8.773899E-1,1.1701934E-2,-7.619226E-2,1.0065345E-1,2.0960224E0,8.5252756E-1,1.1792843E-1,-5.8896203E-2,-1.036658E-1,1.8683001E0,1.0317868E0,6.0012035E-2,-3.8309392E-1,-2.3613472E-2,-1.0476612E0,9.257544E-2,-6.447501E-1,1.17539994E-1,4.0769346E-2,-7.972232E-2,-9.42058E-1,8.653699E-1,-2.5772905E-2,1.6179836E-1,7.965044E-2,-2.7804121E-2,-8.123686E-2,1.7532965E0,5.483194E-1,4.565234E-3,-1.3697993E0,2.0190892E0,1.2454835E-1,-4.556454E-2,-1.1918665E0,-1.026317E-2,-6.881392E-2,5.194571E-1,-7.768431E-1,1.5818934E-1,-1.0186102E-1,1.5982131E0,1.0325954E0,5.004406E-1,1.081013E0,2.5359517E-2,-3.434343E-2,1.2929408E-1,1.0583029E-3,-1.0283935E-1,-5.660953E-1,1.2527962E-1,-3.55527E-1,1.2584234E0,6.90826E-1,-1.240584E0,1.2003786E-1,1.6684889E0,1.0571674E0,2.000237E0,1.4985472E0,1.2919427E0,5.9781355E-1,2.6219858E-2,-4.635681E-1,-1.0351346E0,-3.4183022E-1,-6.986928E-2,-9.976313E-2,-6.8770334E-2,-1.5005323E-2,-8.333591E-2,-5.4849118E-2,-6.099544E-2,-9.55594E-2,6.53036E-2,-1.4040182E-2,2.0703469E-1,1.4909132E-1,1.565791E-1,8.533513E-2,8.145317E-2,-2.1798399E-3,4.4508643E-2,1.2262599E-1,-8.0482624E-2,-5.536153E-2,1.4697957E-1,-3.308542E-2,-9.0388395E-2,-9.956708E-2,2.3685042E-2,-6.668161E-2,-8.797961E-2,-6.703702E-2,-2.7974606E-2,1.7779446E-1,-6.44371E-2,-4.6715785E-2,-8.09653E-2,-9.704559E-2,-7.795804E-2,-5.4045275E-2,1.6391517E-1,1.7815495E-1,5.6485623E-2,9.929035E-2,1.5625745E-1,5.0086353E-2,4.499752E-2,1.2162793E-1,-3.5297617E-3,-5.8339953E-2,-6.73368E-2,-8.970312E-2,-2.7713686E-2,9.129708E-2,-8.7316304E-2,-3.3993144E-2,-7.990913E-2,7.5410465E-3,-9.479757E-2,-5.2623834E-2,1.246602E-1,2.4293678E-2,1.22467905E-1,1.5948887E-1,1.1778099E-2,7.1871184E-2,-1.0004296E-1,-1.166988E-1,1.3862391E-1,1.6377822E-1,-8.3471484E-2,-1.02865905E-1,4.8286002E-2,1.2810554E-2,-2.8292151E-2,-1.00241266E-1,1.176313E-1,1.6118327E-1,1.6503226E-2,1.0755908E-1,5.8332417E-2,-2.9951936E-2,1.3647029E-1,7.0618995E-2,5.285068E-3,-4.9421873E-2,-7.0211396E-2,2.2365037E-2,6.319465E-2,1.1365014E-1,8.025975E-2,1.0785418E-2,-1.0080425E-1,-8.442774E-2,1.4200327E-1,1.2566674E-1,1.13922164E-1,3.388202E-2,1.658235E-1,1.4902414E-1,9.9185556E-2,1.3776262E-1,1.4124098E-1,7.8386754E-2,7.2358013E-3,7.241256E-2,-1.200565E-2,-6.1980665E-2,-9.7645305E-2,-5.3583656E-2,1.038945E-2,-7.616782E-2],"categories":[],"categories_nodes":[],"categories_segments":[],"categories_sizes":[],"default_left":[0,0,0,0,0,0,0,0,0,0,0,0,0,0,0,0,0,0,0,0,0,0,0,0,0,0,0,0,0,0,0,0,0,0,0,0,0,0,0,0,0,0,0,0,0,0,0,0,0,0,0,0,0,0,0,0,0,0,0,0,0,0,0,0,0,0,0,0,0,0,0,0,0,0,0,0,0,0,0,0,0,0,0,0,0,0,0,0,0,0,0,0,0,0,0,0,0,0,0,0,0,0,0,0,0,0,0,0,0,0,0,0,0,0,0,0,0,0,0,0,0,0,0,0,0,0,0,0,0,0,0,0,0,0,0,0,0,0,0,0,0,0,0,0,0,0,0,0,0,0,0,0,0,0,0,0,0,0,0,0,0,0,0,0,0,0,0,0,0,0,0,0,0,0,0,0,0,0,0,0,0,0,0,0,0,0,0,0,0,0,0,0,0,0,0,0,0,0,0,0,0,0,0,0,0,0,0,0,0,0,0,0,0,0,0,0,0,0,0,0,0,0,0,0,0,0,0,0,0,0,0,0,0,0,0,0,0,0,0,0,0,0,0,0,0,0,0,0,0,0,0,0,0,0,0,0,0,0,0,0,0,0,0,0,0,0,0,0,0,0,0,0,0,0,0,0,0,0,0,0,0,0,0,0,0,0,0,0,0,0,0,0,0,0,0,0,0,0,0,0,0,0,0,0,0,0,0,0,0,0,0,0,0,0,0,0,0,0,0,0,0,0,0,0,0,0,0,0,0,0,0,0,0,0,0,0,0,0,0,0,0,0,0,0,0,0,0,0,0,0,0,0,0,0,0,0,0],"id":4,"left_children":[1,3,5,7,9,11,13,15,17,19,21,23,25,27,29,31,-1,33,35,37,39,41,43,45,-1,47,49,51,53,55,57,-1,59,61,63,65,67,-1,-1,69,71,73,75,77,79,-1,81,83,-1,85,87,89,91,-1,-1,93,95,97,99,-1,-1,101,103,105,107,109,111,-1,113,115,117,-1,-1,119,121,123,125,127,129,131,-1,-1,-1,-1,133,135,137,139,-1,-1,-1,141,-1,143,145,147,149,151,153,155,157,159,161,-1,163,165,167,169,171,173,175,177,179,181,183,185,187,189,191,-1,193,195,197,199,201,203,205,-1,-1,-1,-1,-1,207,-1,-1,209,211,-1,213,-1,-1,215,217,219,221,223,225,227,229,231,233,235,237,239,241,243,245,-1,247,-1,249,251,253,-1,255,257,259,261,263,-1,265,267,269,271,-1,273,275,-1,277,-1,279,281,283,-1,-1,-1,285,287,-1,-1,-1,289,291,-1,293,-1,295,297,299,-1,-1,301,303,305,-1,-1,-1,-1,-1,307,309,-1,311,313,-1,-1,315,-1,-1,317,319,-1,-1,321,323,325,327,-1,-1,-1,-1,-1,329,-1,331,333,335,337,-1,339,341,343,345,347,349,-1,351,353,355,-1,-1,-1,-1,-1,-1,-1,-1,-1,-1,-1,-1,-1,-1,-1,-1,-1,-1,-1,-1,-1,-1,-1,-1,-1,-1,-1,-1,-1,-1,-1,-1,-1,-1,-1,-1,-1,-1,-1,-1,-1,-1,-1,-1,-1,-1,-1,-1,-1,-1,-1,-1,-1,-1,-1,-1,-1,-1,-1,-1,-1,-1,-1,-1,-1,-1,-1,-1,-1,-1,-1,-1,-1,-1,-1,-1,-1,-1,-1,-1,-1,-1,-1,-1,-1,-1,-1,-1,-1,-1,-1,-1,-1,-1,-1,-1,-1,-1,-1,-1,-1,-1,-1,-1,-1,-1,-1,-1],"loss_changes":[8.982515E3,3.1001768E3,1.2034092E3,1.3582925E3,1.0487657E3,2.4543962E3,1.0637891E3,2.563623E1,1.2607244E3,1.0157284E3,1.5575192E2,2.7984253E1,1.3554476E3,8.586243E0,7.386626E2,4.998535E0,0E0,6.991516E2,8.1764404E1,8.644347E1,4.3084204E2,9.948045E1,1.6515991E1,8.221924E0,0E0,2.3372385E2,9.929224E1,6.6090393E0,1.1045291E1,2.3830981E2,3.455459E2,0E0,1.0382294E1,9.73468E0,4.7389847E2,6.5612915E1,2.632837E1,0E0,0E0,1.8454199E2,7.566139E0,8.919443E1,6.4271904E1,2.1338043E0,1.1037407E1,0E0,4.8930664E0,1.4186768E1,0E0,7.8535645E1,7.0903955E0,1.4060211E0,3.669426E0,0E0,0E0,2.7230383E2,5.451026E1,4.1615283E2,9.8309875E1,0E0,0E0,3.9700928E0,2.8756104E0,1.7388982E2,2.7571786E2,1.8977417E1,7.677133E1,0E0,1.239978E1,1.0949121E2,6.26681E2,0E0,0E0,6.089915E1,2.4518784E1,5.8341568E1,3.613874E1,1.521534E0,4.4293213E-1,6.408184E0,0E0,0E0,